<?xml version="1.0"?>
<opencv_storage>
<opencv_ml_svm>
  <format>3</format>
  <svmType>C_SVC</svmType>
  <kernel>
    <type>LINEAR</type></kernel>
  <C>1.2500000000000000e+01</C>
  <term_criteria><epsilon>1.1920928955078125e-07</epsilon>
    <iterations>1000</iterations></term_criteria>
  <var_count>144</var_count>
  <class_count>10</class_count>
  <class_labels type_id="opencv-matrix">
    <rows>10</rows>
    <cols>1</cols>
    <dt>i</dt>
    <data>
      0 1 2 3 4 5 6 7 8 9</data></class_labels>
  <sv_total>45</sv_total>
  <support_vectors>
    <_>
      -2.46645585e-02 2.89002985e-01 -1.61990792e-01 -1.14268286e-03 0.
      -1.04624992e-02 -8.93977657e-03 -4.05045301e-02 2.50922650e-01
      1.37019739e-01 2.98298120e-01 -1.35835737e-01 -1.16843882e-03
      -3.19362292e-03 -9.38982591e-02 -2.55281687e-01 -2.78227538e-01
      1.79843426e-01 1.65559873e-01 -1.15966111e-01 -1.84568971e-01 0.
      3.41790877e-02 -6.05547056e-02 -2.29538590e-01 -1.35195581e-02
      1.75049856e-01 3.17806266e-02 -2.60718852e-01 -8.46609175e-02 0.
      5.35471924e-02 5.76648787e-02 6.36507273e-02 1.29527584e-01
      3.54529433e-02 -4.66895066e-02 6.54690713e-02 9.15096626e-02
      7.49487504e-02 -1.40485495e-01 1.95970997e-01 1.40997887e-01
      -4.58801128e-02 -1.79564685e-01 -1.65592700e-01 8.03416550e-01
      -2.52143554e-02 -1.23142600e-01 1.01890773e-01 5.42445600e-01
      1.39196470e-01 1.61027417e-01 -2.44334966e-01 -2.90042043e-01
      2.32215956e-01 1.50575548e-01 5.37103057e-01 6.33308470e-01
      3.27140331e-01 -1.74288690e-01 3.26653481e-01 -2.88479179e-01
      -2.96577483e-01 -1.33201769e-02 1.91519573e-01 5.66238947e-02
      -1.80675298e-01 -2.01530516e-01 2.48870537e-01 1.49189994e-01
      2.10962325e-01 -2.74479985e-01 -2.39231959e-02 1.08699635e-01
      3.31510566e-02 6.97507802e-03 -1.34055942e-01 1.66943192e-01
      1.70664176e-01 1.32188991e-01 1.84478033e-02 6.88496158e-02
      2.19793655e-02 2.05517232e-01 -5.23372106e-02 -1.36779860e-01
      2.37761647e-01 5.31358957e-01 -3.97299826e-02 1.82517380e-01
      5.95392764e-01 1.00254849e-01 1.97901800e-02 -2.88364172e-01
      4.98881079e-02 -1.54682457e-01 -1.44346124e-02 4.93334025e-01
      9.02542174e-02 3.15833360e-01 1.00789458e-01 -2.11443797e-01
      1.56999305e-01 7.38404170e-02 -2.47906968e-02 4.82258163e-02
      -2.33372271e-01 2.40248125e-02 -9.27724130e-03 4.53230739e-02
      2.06707507e-01 -6.39631152e-02 -2.72897184e-01 -5.65843247e-02
      1.68993734e-02 3.03357672e-02 1.08124845e-01 -2.76847668e-02
      -3.38148661e-02 3.99104744e-01 -7.63020143e-02 -3.82214218e-01
      -1.63591295e-01 5.03797689e-03 2.19270319e-01 2.16281533e-01
      -1.00991219e-01 -2.34613240e-01 2.57172197e-01 -1.87740028e-01
      4.07288194e-01 -1.84098557e-01 -3.21837403e-02 7.15382397e-02
      5.69889918e-02 -1.44621069e-02 -1.58749610e-01 -4.09107804e-01
      1.02324583e-01 2.73024201e-01 8.30391273e-02 -1.77514508e-01
      5.75290294e-04</_>
    <_>
      6.56804815e-02 8.93901363e-02 3.36045504e-01 -8.24807212e-02
      -2.32353553e-01 -1.95809215e-01 -1.40583068e-01 -3.52228820e-01
      -1.59014389e-01 2.65413374e-01 -4.49819528e-02 -6.15974665e-01
      -1.60025477e-01 2.90057808e-01 2.38903612e-01 -2.87666142e-01
      -4.64691728e-01 1.08931452e-01 2.65432566e-01 -5.03303885e-01
      -3.16039294e-01 2.85218209e-01 -1.10561036e-01 -1.59919366e-01
      -5.95447481e-01 -2.12835759e-01 2.09441483e-01 -1.76774368e-01
      -1.78485632e-01 -8.86473358e-02 -4.34980169e-02 -3.67750339e-02
      -5.28126583e-02 -2.36689508e-01 -4.72216867e-02 1.57660116e-02
      2.56808341e-01 2.22013161e-01 3.80098283e-01 1.35295033e-01
      -3.41769338e-01 -2.75918216e-01 -9.21968222e-02 -4.99123454e-01
      -2.78115928e-01 2.57790536e-01 -5.75042069e-02 -4.70008701e-01
      3.88594978e-02 5.62086165e-01 1.77603453e-01 -1.55934438e-01
      -2.35383853e-01 2.23422404e-02 -8.43769833e-02 -1.52042016e-01
      -2.19326138e-01 3.65648806e-01 1.55132696e-01 7.43006840e-02
      -8.69625509e-01 2.99108364e-02 1.83995545e-01 -1.14107080e-01
      -1.37824818e-01 2.44796783e-01 -1.10854529e-01 7.81979337e-02
      -2.66712457e-01 1.82809919e-01 1.82809919e-01 -2.85333276e-01
      -1.68594599e-01 1.44869313e-01 2.29203522e-01 2.32478142e-01
      -2.43212327e-01 -1.49273664e-01 3.00353747e-02 -4.24285054e-01
      -2.00018570e-01 1.23291723e-01 -3.30351740e-01 -1.18539138e-02
      4.53210503e-01 -2.76410669e-01 7.09330514e-02 -1.47671252e-01
      2.62097031e-01 6.52950630e-02 3.72808069e-01 -4.28645574e-02
      -2.62211233e-01 -2.43503541e-01 -2.50144571e-01 -5.68542331e-02
      -2.75070161e-01 -7.22565949e-02 3.26045156e-01 5.90585470e-02
      2.25866064e-01 1.64458603e-01 -3.46795022e-01 -1.08872600e-01
      -1.20058581e-01 1.50861308e-01 2.54055738e-01 -2.86403805e-01
      9.07472447e-02 7.67689943e-02 3.35559607e-01 1.08619459e-01
      -1.66756824e-01 -3.06204319e-01 1.51241850e-02 3.51737477e-02
      1.18056066e-01 2.33979225e-01 -1.26173988e-01 2.22433448e-01
      3.28951627e-01 -4.44694795e-02 -6.37785673e-01 -1.38976365e-01
      4.83690619e-01 1.99160874e-01 3.27587038e-01 -1.04649395e-01
      -1.40946582e-01 -7.62206540e-02 -5.50096855e-02 -5.36355712e-02
      -1.69680804e-01 1.24308407e-01 2.67813027e-01 1.32493740e-02
      -1.40157836e-02 -1.25838891e-01 -5.80358326e-01 5.35207093e-02
      3.49573523e-01 -1.82643771e-01 -1.35198221e-01 2.65548774e-03</_>
    <_>
      -2.01408304e-02 4.91792075e-02 -8.06429237e-02 -1.84556954e-02
      -7.21402392e-02 -2.43385479e-01 4.35616896e-02 -4.34915364e-01
      -1.24099180e-01 3.06174695e-01 -3.88891809e-02 -2.72874683e-01
      -9.57972631e-02 -1.66241843e-02 2.04684556e-01 -2.09922627e-01
      -6.56749547e-01 9.99536812e-02 3.26568723e-01 -5.06942809e-01
      -5.01841486e-01 4.13371995e-02 1.69516042e-01 9.56667364e-02
      -3.14882308e-01 -3.28729540e-01 2.89875329e-01 -1.76727712e-01
      -3.42496961e-01 -3.44854861e-01 -2.04141960e-01 -1.91944260e-02
      2.75171641e-02 -3.66226956e-02 1.20358489e-01 7.56634548e-02
      -1.05093583e-01 1.96706161e-01 1.77702263e-01 7.99704120e-02
      2.78823189e-02 -3.10161412e-01 -2.47695401e-01 -3.12191635e-01
      -4.46110107e-02 -1.53152704e-01 -1.39340788e-01 -1.39229745e-01
      -6.36383072e-02 6.56801105e-01 4.11872357e-01 9.17575881e-03
      -2.48452097e-01 -1.14552394e-01 -1.83270257e-02 -3.48348081e-01
      -2.30702534e-01 -8.86614770e-02 7.32109070e-01 1.12294592e-01
      -3.50167632e-01 -3.12424690e-01 -1.54331671e-02 -2.14898542e-01
      -1.22764833e-01 -3.73688452e-02 4.62968322e-03 1.40729427e-01
      -3.37674856e-01 2.15554431e-01 2.24317193e-01 -1.63946405e-01
      -3.09935153e-01 -2.74849348e-02 7.82464817e-02 1.96724147e-01
      -5.25169075e-01 -5.03015183e-02 2.00978935e-01 -2.16572046e-01
      -3.32456939e-02 -1.80289716e-01 -4.51367319e-01 -9.16875675e-02
      1.94450349e-01 -2.27201968e-01 -1.24326155e-01 -1.79486014e-02
      1.53706506e-01 1.14499919e-01 -1.00929156e-01 3.14402692e-02
      3.68121788e-02 -1.79765791e-01 1.10828273e-01 8.42672288e-02
      -4.46760118e-01 -2.63380319e-01 2.67733812e-01 -3.17767821e-02
      2.78861914e-02 -4.46295775e-02 -2.70995170e-01 7.48088509e-02
      -1.85503975e-01 1.61583543e-01 3.97301704e-01 -1.38373777e-01
      -1.37957083e-02 1.81149766e-01 3.07953805e-02 1.18981309e-01
      -4.03251588e-01 -3.79835904e-01 7.12839738e-02 1.49755880e-01
      1.07780486e-01 1.64038450e-01 5.63138649e-02 -3.53003711e-01
      6.97837621e-02 -4.27302755e-02 -3.62203151e-01 -5.30334003e-02
      1.05900362e-01 4.68716294e-01 1.70462462e-03 3.94803099e-02
      6.03710264e-02 -1.12746455e-01 -7.36147314e-02 7.69540370e-02
      8.53541568e-02 -6.37051314e-02 1.16848037e-01 -1.30621972e-03
      -1.92877203e-02 -5.35609853e-03 -1.11322530e-01 -3.32915723e-01
      2.50145525e-01 1.73396394e-01 5.26036434e-02 1.40193021e-02</_>
    <_>
      -1.90307423e-02 -4.74195294e-02 -8.59647170e-02 -2.39131615e-01
      -1.25392511e-01 -2.33969819e-02 -5.76567575e-02 -6.18274510e-02
      7.32850805e-02 -9.29852575e-02 1.53960720e-01 -1.55676737e-01
      -5.79058155e-02 -1.97883129e-01 1.33729368e-01 -3.97898024e-03
      -1.40732735e-01 2.43953213e-01 1.77892283e-01 -1.02919519e-01
      1.86431929e-02 6.39438629e-03 -9.90129113e-02 -5.01190638e-03
      -3.70715201e-01 -4.11299407e-01 1.38784409e-01 4.05472964e-02
      -2.00541299e-02 -5.24259657e-02 -9.70057957e-03 7.97178075e-02
      5.21640070e-02 -6.28784359e-01 3.79849486e-02 9.92273986e-02
      -1.48396045e-01 1.42324150e-01 2.05632791e-01 -1.71598922e-02
      -3.15930068e-01 -2.26531574e-03 1.88295886e-01 1.58411302e-02
      -1.39007583e-01 -2.01635808e-02 1.44101590e-01 -1.54614493e-01
      -2.24668682e-01 -1.10952944e-01 2.78173070e-02 1.85981378e-01
      7.12286979e-02 4.42148261e-02 -5.69562241e-02 -1.56136006e-01
      -6.50068596e-02 1.79586038e-01 2.76827574e-01 -2.52916425e-01
      -5.39747715e-01 -9.95228142e-02 1.77773610e-01 -3.34622145e-01
      5.58657274e-02 1.71621457e-01 1.08127512e-01 -9.79434252e-02
      -1.76071838e-01 9.26057175e-02 9.56145674e-02 1.35177925e-01
      -5.65497100e-01 -8.86248127e-02 1.12094902e-01 1.68106839e-01
      -1.77298531e-01 -1.78972766e-01 2.59656101e-01 2.72234142e-01
      2.46032536e-01 -2.71866798e-01 -7.84575790e-02 -1.23215109e-01
      1.87696427e-01 -7.87192732e-02 -1.50757387e-01 2.60947466e-01
      3.90083730e-01 -4.25147042e-02 1.10495090e-01 1.14682943e-01
      -1.65615976e-01 -1.30655812e-02 -1.86597794e-01 1.11302197e-01
      -2.08423987e-01 -2.88924515e-01 -1.00709967e-01 -2.26530686e-01
      4.16586787e-01 1.83006972e-01 -2.68419031e-02 -5.08784235e-01
      1.91526294e-01 3.44532847e-01 5.02494983e-02 -6.48395956e-01
      -5.21254428e-02 -2.27036744e-01 7.52415657e-02 2.30512798e-01
      -2.48151079e-01 -3.95151265e-02 7.33178202e-03 4.00983430e-02
      2.13462800e-01 2.83485174e-01 -1.12880893e-01 -2.91560471e-01
      2.12170005e-01 -9.41583663e-02 -3.89575750e-01 4.28978987e-02
      2.33454987e-01 3.85662019e-01 3.31878573e-01 1.52715787e-01
      -1.66502178e-01 -5.22166826e-02 -1.73165426e-02 2.10085064e-01
      -2.40915805e-01 -1.15494192e-01 7.43485242e-02 6.28094524e-02
      1.25539705e-01 3.09120677e-03 -2.30932280e-01 -1.87841341e-01
      3.00425619e-01 1.18679106e-02 -3.36237013e-01 -1.10498220e-01</_>
    <_>
      -9.15561467e-02 -6.25012144e-02 1.67079389e-01 -4.94648553e-02
      -1.70510039e-02 9.82793421e-02 7.52043575e-02 -5.63647736e-05
      -1.08342372e-01 7.79693797e-02 -4.72732931e-02 -1.39450058e-01
      4.35406379e-02 1.59128115e-01 5.67443788e-01 -1.48470879e-01
      -3.41055244e-01 -3.54340225e-01 2.37911999e-01 -7.55886495e-01
      -5.06764472e-01 1.66430369e-01 2.42374271e-01 2.91980445e-01
      -4.99398559e-01 -4.18831348e-01 2.28503317e-01 -1.85764849e-01
      -2.48486370e-01 -4.58543152e-01 -1.56301826e-01 1.03691950e-01
      3.83697525e-02 -3.15908372e-01 2.66607910e-01 9.11958143e-02
      -9.65178385e-02 1.98677197e-01 6.47977516e-02 -2.04118773e-01
      -2.61285633e-01 -1.71834797e-01 3.91556695e-02 -2.94487132e-03
      -1.31824315e-01 -1.70346517e-02 1.01393992e-02 -3.29332322e-01
      -3.93494636e-01 9.58718285e-02 2.16362745e-01 -2.47830544e-02
      2.84622386e-02 1.06359810e-01 1.29564732e-01 -1.75463468e-01
      -2.97679961e-01 1.19720735e-01 4.21613991e-01 8.30317959e-02
      -5.89167058e-01 -1.17023744e-01 6.34368807e-02 -1.77906662e-01
      -2.15154469e-01 -5.50120287e-02 5.50688356e-02 1.32954329e-01
      -5.33354878e-02 -1.47641227e-02 9.84407365e-02 1.20218448e-01
      1.55680627e-01 6.59313798e-02 -8.21154751e-03 3.51802021e-01
      -2.41999626e-01 -4.40811068e-01 -3.09818089e-01 2.30655834e-01
      1.37866035e-01 4.46687907e-01 -1.36195228e-01 -3.66677582e-01
      2.39173546e-02 6.64732456e-02 -8.56436417e-02 -2.54836798e-01
      9.04342830e-02 4.87298340e-01 1.57827988e-01 3.10789794e-03
      -9.37688649e-02 -1.02526024e-01 -2.63519078e-01 9.68337655e-02
      -7.12081343e-02 -2.77611345e-01 1.05312280e-01 -2.75748312e-01
      -4.46236879e-03 -4.32732180e-02 -4.90717478e-02 -2.97079206e-01
      -7.28148073e-02 1.58538103e-01 3.28832299e-01 -9.44758654e-02
      3.34101096e-02 -2.58050591e-01 -5.19963875e-02 3.56950313e-01
      -2.69857883e-01 -4.24406081e-01 -5.71215093e-01 1.02218159e-01
      6.41465038e-02 7.03980550e-02 -7.13045821e-02 -1.59426421e-01
      6.75261691e-02 2.81772446e-02 -1.25291497e-01 -3.96282047e-01
      -1.50075052e-02 3.19518894e-01 -7.13662058e-02 2.43143559e-01
      -1.37164146e-01 -2.00793102e-01 -1.09250031e-01 1.69417977e-01
      2.43805289e-01 -4.30701347e-03 1.11230195e-01 -3.03094345e-03
      7.90325403e-02 -2.04788689e-02 -3.31785828e-01 -4.59879130e-01
      1.24368578e-01 2.84506708e-01 2.33207382e-02 -3.80841712e-03</_>
    <_>
      -4.39992398e-01 3.54000896e-01 6.45655036e-01 0. 2.13813819e-02
      1.78062722e-01 8.52263793e-02 -1.10787727e-01 1.66769922e-01
      -5.06815970e-01 1.18383929e-01 -1.77482178e-03 1.52073249e-01
      -9.54174474e-02 5.85377574e-01 2.67511308e-01 1.61333561e-01
      -1.90347314e-01 -9.69133675e-02 -7.05364421e-02 6.90443218e-02
      2.09302843e-01 -3.42923135e-01 1.79374039e-01 1.42261833e-02
      -3.85683149e-01 -2.28388891e-01 -1.39885381e-01 1.18105374e-01
      4.00008969e-02 -1.05033703e-01 1.70862734e-01 2.05064923e-01
      -5.63622005e-02 -9.49808806e-02 -1.64301112e-01 1.14445388e-01
      3.37615639e-01 1.09033680e+00 -7.82306850e-01 -7.03742802e-01
      -1.07722759e+00 7.74080634e-01 2.19198331e-01 -3.66158813e-01
      -3.61429840e-01 4.02241707e-01 -6.78553998e-01 -8.12300220e-02
      -2.94737548e-01 2.15438947e-01 -3.82779300e-01 5.24298251e-01
      2.15619564e-01 -8.20270181e-01 -2.09755540e-01 2.43907259e-03
      3.63887906e-01 2.87247807e-01 -4.41826656e-02 -8.18708241e-02
      -3.29883844e-01 -1.67238221e-01 -5.38007310e-03 6.05893433e-01
      -2.97003180e-01 -1.26141399e-01 -1.95436645e-02 -7.06764519e-01
      1.86352387e-01 -3.53167616e-02 -5.76136336e-02 -1.62744597e-02
      -2.53174007e-01 1.15276396e-01 7.84718156e-01 -5.97328544e-01
      -1.08561063e+00 2.00006008e-01 -9.23519395e-03 8.52675736e-01
      6.57112360e-01 -3.58908176e-01 -7.90068030e-01 2.05539450e-01
      2.47445434e-01 -1.34394914e-01 -9.49164927e-01 4.63041306e-01
      6.67893410e-01 2.65818983e-02 2.07021192e-01 -2.44800046e-01
      -6.10897802e-02 3.06773577e-02 1.49400294e-01 -8.79278302e-01
      1.12513147e-01 -1.48044184e-01 4.09418195e-01 1.14216739e-02
      -5.43242171e-02 2.16287315e-01 -9.91154835e-02 -1.34761304e-01
      -5.77839948e-02 5.16313970e-01 -2.89958268e-01 5.57114296e-02
      -1.96086213e-01 -7.20369667e-02 2.08609179e-01 6.41211271e-01
      -6.20614767e-01 -3.08775365e-01 -2.66458601e-01 4.25711989e-01
      3.41145128e-01 -3.97920936e-01 -1.00409162e+00 5.68860590e-01
      3.91965985e-01 -1.38617098e+00 -2.72608697e-01 -1.39109632e-02
      5.09222865e-01 1.73115239e-01 -1.76958293e-01 4.95361537e-03
      -1.52655095e-01 -4.10884582e-02 3.08320045e-01 6.07060082e-02
      5.05151451e-01 -9.06918198e-02 5.01394533e-02 -3.29577833e-01
      1.03214579e-02 -2.48716488e-01 -7.52964988e-02 8.90874043e-02
      8.05365369e-02 -1.29227862e-01 -5.73423866e-04</_>
    <_>
      1.20356411e-01 -1.49128690e-01 -2.60384083e-01 -3.49444449e-02
      2.41114423e-02 3.30274105e-02 -5.34726270e-02 -2.03722000e-01
      7.86503032e-02 -7.94600695e-03 -1.43580049e-01 -7.49175996e-02
      -2.50668433e-02 -1.54362358e-02 9.50472895e-03 -4.99871820e-02
      -1.26635462e-01 1.93873569e-01 2.53469080e-01 -2.16600195e-01
      -9.13627595e-02 1.00466020e-01 2.64644235e-01 -2.16863334e-01
      -5.56826830e-01 -2.79685825e-01 1.74376100e-01 -6.94824010e-02
      -4.72057723e-02 -3.17261443e-02 9.12315100e-02 2.42446408e-01
      -1.43758714e-01 -2.16292635e-01 1.01693965e-01 1.37102753e-01
      1.61510959e-01 -1.03989996e-01 7.08652809e-02 9.09554735e-02
      1.33772984e-01 8.74618888e-02 -1.14133023e-01 -2.59112656e-01
      5.49528450e-02 2.96992380e-02 -4.71194508e-03 -2.00436458e-01
      3.20789404e-02 2.91657597e-01 1.34166807e-01 -2.59985626e-01
      -1.46867663e-01 1.31835900e-02 -1.53385952e-01 -3.00966650e-01
      1.24166109e-01 4.03916389e-01 3.05029631e-01 2.78345700e-02
      -2.28335947e-01 -1.41161839e-02 1.21960491e-01 -4.18616354e-01
      -1.06676348e-01 5.24842918e-01 4.06449884e-01 2.23439112e-01
      -6.40751898e-01 2.19110191e-01 2.69084334e-01 2.82488912e-02
      -6.73216349e-03 -1.70705140e-01 -9.37771343e-04 2.49280203e-02
      -6.48472318e-03 1.38709366e-01 1.03237770e-01 -1.63037524e-01
      1.40069174e-02 5.03700634e-04 -3.24708700e-01 -2.73296162e-02
      2.06448078e-01 -7.28532076e-02 -1.95489705e-01 1.52194919e-02
      1.68895319e-01 -6.45930618e-02 -6.53453870e-03 1.87581435e-01
      1.06647395e-01 -2.18342856e-01 -1.52284786e-01 -1.27060607e-01
      -8.44229683e-02 3.42049897e-02 2.61099070e-01 -3.18073183e-01
      2.71303236e-01 2.06147507e-01 -4.72221486e-02 -2.87109256e-01
      -4.95671034e-02 4.09148633e-01 2.86546230e-01 -2.63017714e-01
      9.84297879e-03 -6.05565831e-02 4.73424271e-02 2.53845210e-04
      -1.72584862e-01 -1.37949400e-02 3.39738578e-02 6.01323470e-02
      2.18648314e-02 1.20841883e-01 -9.31883696e-03 -4.05535139e-02
      2.13427335e-01 -3.17031443e-02 -6.21839345e-01 3.13970707e-02
      2.85708636e-01 2.71333367e-01 2.59702742e-01 1.87022477e-01
      -3.34996879e-02 2.61188578e-02 -6.08758740e-02 1.71975847e-02
      -1.30352050e-01 5.37070669e-02 2.03761354e-01 1.86803728e-01
      2.37006813e-01 -5.95608018e-02 -2.77847648e-02 -2.50710964e-01
      1.87306404e-01 6.15823343e-02 -1.28464520e-01 -7.67510980e-02</_>
    <_>
      -1.96797419e-02 -1.33073628e-01 7.36566558e-02 4.12344187e-02
      -9.83579904e-02 -2.20083341e-01 -2.68564187e-02 -1.50333285e-01
      -4.56514269e-01 -5.08017950e-02 2.01841444e-01 -1.52885422e-01
      -1.38801843e-01 2.84395248e-01 2.66363561e-01 4.02293593e-01
      -2.60717988e-01 -3.49031478e-01 1.44978896e-01 -5.48344016e-01
      -5.79197716e-04 2.35238701e-01 4.09677684e-01 -3.13436352e-02
      -4.12341654e-01 -1.04658753e-01 -1.54429059e-02 -5.94352543e-01
      -3.28931073e-03 -1.69727787e-01 -4.90524806e-02 5.40111698e-02
      5.00249714e-02 2.51686484e-01 -5.58161968e-03 8.12594369e-02
      -1.89233795e-01 1.81639746e-01 -3.12865339e-02 3.93413827e-02
      -1.15407303e-01 -2.66241450e-02 3.91041068e-03 -4.03304279e-01
      -2.49756813e-01 1.15248650e-01 2.43440986e-01 -6.77437186e-01
      -9.31282222e-01 3.94457072e-01 4.61241513e-01 -1.96773872e-01
      -1.70668304e-01 -4.90162522e-02 -3.79970700e-01 -1.76435366e-01
      -4.83871847e-02 2.68934250e-01 6.59286678e-01 1.10487659e-02
      -5.78049004e-01 -4.94052410e-01 -7.92133436e-02 -2.46173427e-01
      9.20933411e-02 1.72335833e-01 -6.28945604e-02 -1.87264383e-01
      -1.25843808e-01 2.60255277e-01 1.12249762e-01 -3.60520422e-01
      -5.45443855e-02 3.30736972e-02 -2.67683063e-03 3.06444287e-01
      3.05589467e-01 -3.19930583e-01 -1.51484266e-01 -4.56702471e-01
      -1.68705650e-03 -1.00096852e-01 -4.44183499e-01 2.92757899e-02
      2.00209096e-01 -1.26890972e-01 -3.45763355e-01 -1.00768760e-01
      4.95354027e-01 2.75760144e-01 3.86900395e-01 1.64182439e-01
      -9.68766212e-02 -2.36794263e-01 1.95156679e-01 -1.17149763e-02
      -7.22115219e-01 -4.47013825e-01 4.01485264e-01 4.90756221e-02
      1.50191367e-01 -3.70090276e-01 -4.38113034e-01 -3.19352239e-01
      -1.35511473e-01 2.01902583e-01 4.68253344e-01 -2.85819739e-01
      -9.58455279e-02 9.72690508e-02 -2.10544720e-01 4.47426349e-01
      -2.84867734e-01 -4.58692104e-01 -2.65003860e-01 -2.28759900e-01
      -1.20380089e-01 2.17130244e-01 -1.15983829e-01 -2.05782473e-01
      2.94826478e-01 2.89669156e-01 -1.08492947e+00 -4.13772434e-01
      2.78254952e-02 3.92743081e-01 2.64105886e-01 1.22953013e-01
      3.77860963e-02 -3.78121763e-01 -4.73508146e-03 3.45410049e-01
      -1.26287743e-01 -3.44757736e-01 6.89048395e-02 -2.19486922e-01
      -4.16459054e-01 3.15504544e-03 -5.18736839e-01 3.01880926e-01
      2.10375398e-01 7.92426020e-02 5.22969710e-03 -1.61038730e-02</_>
    <_>
      -2.05268398e-01 -3.95311564e-01 3.33288372e-01 -4.94575836e-02
      -5.71228191e-02 1.59089983e-01 8.94962400e-02 -2.45669158e-04
      -2.94552743e-02 1.65641278e-01 -1.20663598e-01 -1.66213602e-01
      -2.35326886e-01 -8.85790288e-02 -2.75654495e-01 9.69693959e-02
      -9.49707806e-01 3.65113288e-01 3.80683273e-01 -5.93619049e-01
      -4.03020203e-01 -3.88644218e-01 -2.50842601e-01 1.00541189e-01
      -2.92133659e-01 -2.00345233e-01 3.18375021e-01 -5.86822867e-01
      -2.88072109e-01 -1.61561519e-01 -2.88876057e-01 3.10246706e-01
      1.21168114e-01 -1.15737654e-01 2.84831583e-01 1.63782507e-01
      7.66610205e-02 2.02827409e-01 -1.20035261e-01 2.39250973e-01
      -3.47240537e-01 -3.34444791e-01 1.72275733e-02 5.85378818e-02
      5.07978760e-02 -2.43982002e-02 -1.76407218e-01 -7.61504173e-01
      -3.86521459e-01 -1.20838232e-01 5.31396091e-01 4.49920148e-01
      -3.34560663e-01 4.35776740e-01 -1.05849452e-01 -7.77772903e-01
      -7.63367116e-01 2.08498314e-01 8.03531885e-01 5.54187410e-02
      -3.09869230e-01 -3.88590991e-01 4.12704855e-01 -3.48057389e-01
      3.53261650e-01 1.79558154e-02 -2.02919409e-01 -2.29369476e-02
      -1.89431965e-01 2.83352397e-02 4.11476582e-01 3.89783382e-02
      -3.32799137e-01 -2.60793209e-01 2.49318272e-01 2.07319289e-01
      -1.29570425e-01 -4.51173544e-01 -2.06232861e-01 -9.49183851e-02
      8.36540237e-02 -1.57444025e-04 -4.30704385e-01 -5.33504486e-02
      -1.32980019e-01 -3.72676700e-01 -1.23910837e-01 -2.73166955e-01
      3.04484993e-01 3.92356813e-01 2.44598627e-01 8.25050920e-02
      9.19486582e-02 4.09837246e-01 -2.77368128e-01 6.70484919e-03
      -3.76941502e-01 -4.40557718e-01 -1.85547531e-01 -6.90852284e-01
      4.04421270e-01 3.52212012e-01 -2.82004118e-01 -9.30284500e-01
      3.14307719e-01 8.46546054e-01 -8.60859361e-03 -1.22685850e+00
      -1.58142254e-01 -1.55484080e-01 -2.88855851e-01 1.54760271e-01
      -1.81865200e-01 1.22698203e-01 6.02291971e-02 1.22611515e-01
      -6.40329272e-02 7.07173571e-02 -1.74772114e-01 2.04843715e-01
      -2.18445823e-01 -2.20854387e-01 -5.04182756e-01 -9.28681940e-02
      3.01278919e-01 5.37896752e-01 -5.52201122e-02 2.07884550e-01
      4.20814827e-02 8.33110869e-01 -3.06893915e-01 -3.08504432e-01
      3.18495393e-01 7.96772540e-02 2.74587274e-02 -1.23723019e-02
      2.19121233e-01 -1.05998941e-01 -2.72796005e-01 -4.05126512e-01
      1.41078010e-01 5.18295467e-01 -6.26881838e-01 -4.73990232e-01</_>
    <_>
      1.73515826e-03 1.90441966e-01 3.95112306e-01 -1.31766111e-01
      -1.43061623e-01 -2.82508671e-01 -3.82989556e-01 1.26044387e-02
      -5.70324898e-01 -2.25687116e-01 3.77590060e-02 -3.24609727e-02
      -6.01432063e-02 -1.58166796e-01 -1.90300673e-01 3.01805437e-01
      -3.61368686e-01 -9.53499898e-02 -1.20051712e-01 -5.76768368e-02
      -1.83161855e-01 -2.91399695e-02 -1.80500194e-01 -5.12982644e-02
      1.19681656e-01 -1.42347515e-01 5.41893601e-01 8.23110994e-03
      2.83983082e-01 5.35703540e-01 6.46290369e-03 -3.66966575e-02
      1.54598117e-01 3.60842079e-01 -5.23140192e-01 -2.22367644e-01
      2.20340475e-01 6.72609434e-02 -1.94428399e-01 -6.32546842e-01
      -3.63522261e-01 -9.35069174e-02 -4.51863527e-01 -2.09288031e-01
      7.08028793e-01 4.79826689e-01 -1.06672966e+00 -5.58430314e-01
      -3.85497510e-02 4.01162237e-01 -3.44131589e-01 -3.48546118e-01
      -5.18314183e-01 4.03006941e-01 9.16820318e-02 -3.19902718e-01
      -2.57058501e-01 -2.47645706e-01 1.04825469e-02 -3.83447826e-01
      2.89588630e-01 -7.36334145e-01 7.81065941e-01 3.58031273e-01
      4.12053168e-01 2.37201840e-01 -1.64467126e-01 -1.23876430e-01
      -5.84541500e-01 -2.95221984e-01 -2.10830837e-01 -2.07156599e-01
      7.24915802e-01 2.29571953e-01 -1.03972025e-01 -1.89736500e-01
      -9.70578715e-02 9.41507697e-01 -7.03009665e-01 -4.59259897e-01
      -4.48493183e-01 -1.17465019e-01 -1.24358189e+00 -2.58091420e-01
      -4.81446654e-01 3.11496824e-01 2.87025034e-01 -3.17095876e-01
      -4.37722296e-01 5.02344429e-01 1.95885777e-01 -6.74488962e-01
      -8.73190343e-01 1.35873705e-01 3.23966116e-01 -3.70212615e-01
      5.99038340e-02 -3.43404084e-01 9.20598626e-01 2.91040450e-01
      3.02359670e-01 -2.25606039e-01 -4.03928049e-02 -9.40700233e-01
      -6.03537112e-02 2.86024868e-01 5.84373400e-02 2.17857569e-01
      -4.97163609e-02 -4.31483798e-03 -1.10889733e-01 -7.36699998e-02
      9.14138481e-02 3.73433679e-01 -6.23660125e-02 2.46318989e-04
      1.67560829e-05 -1.20821998e-01 3.16393703e-01 -3.42944592e-01
      8.02846551e-02 -4.44950089e-02 2.63751689e-02 -2.15412211e-02
      -1.81935739e-03 -4.14999994e-03 5.06733917e-02 5.11021137e-01
      -4.92999554e-01 -2.72313863e-01 2.18759507e-01 -5.61190665e-01
      6.08072057e-03 -2.14156553e-01 -5.33420444e-02 1.77618209e-02
      1.39997125e-01 -4.42072749e-01 -6.29801229e-02 4.95624155e-01
      6.59006508e-03 -6.94240212e-01 -6.16102256e-02 -9.76670682e-02</_>
    <_>
      1.16177738e-01 -2.83312887e-01 1.04353599e-01 7.94266909e-03 0.
      -1.47346954e-03 -1.85800642e-01 -3.40862960e-01 -5.25853597e-02
      -1.95308074e-01 9.75962207e-02 -1.44950747e-01 6.82413625e-03
      -5.83056314e-03 -1.76936593e-02 -2.05264002e-01 -2.04253435e-01
      5.80834001e-02 4.89563085e-02 1.77871753e-02 -2.07709640e-01
      -1.19850911e-01 1.75691657e-02 1.72089741e-01 1.09521016e-01
      5.01461700e-02 -1.32546797e-01 1.67431876e-01 4.75363061e-03
      8.92022774e-02 -2.21810918e-02 0. 3.70051563e-02 -2.75837213e-01
      5.38101271e-02 -6.12029433e-02 1.59605682e-01 -8.22807327e-02
      -1.75537333e-01 -2.09133059e-01 1.66503593e-01 6.14355914e-02
      -3.73047113e-01 -2.34872088e-01 1.42203361e-01 2.31123894e-01
      -5.05338728e-01 -2.12409586e-01 8.85837451e-02 2.48178035e-01
      -2.35707358e-01 -1.35961503e-01 -3.13228309e-01 1.84662253e-01
      3.85130256e-01 -2.46715859e-01 -2.56699502e-01 -5.12368560e-01
      1.72391415e-01 1.41908228e-01 1.04343876e-01 -8.05848181e-01
      3.22508365e-01 1.24091707e-01 1.11365588e-02 -3.03765923e-01
      -2.92592734e-01 1.67611107e-01 8.49983692e-02 -5.83061241e-02
      -5.74399456e-02 1.99180320e-01 5.74524641e-01 3.96296643e-02
      -2.26180285e-01 -6.88924566e-02 1.53120562e-01 -2.12813802e-02
      -9.55083817e-02 -5.10960698e-01 1.16562501e-01 2.20505640e-01
      -5.37054420e-01 -2.93041080e-01 -3.75000745e-01 3.37361395e-01
      -1.59948885e-01 -1.38336480e-01 -3.52481127e-01 1.16011359e-01
      -5.94514906e-02 -5.23463070e-01 1.86613157e-01 -2.27958500e-01
      1.67277753e-01 1.26061454e-01 -1.11481957e-02 -4.37849790e-01
      1.17623851e-01 -2.04328433e-01 -3.34169954e-01 1.13816984e-01
      1.16193064e-01 1.39677331e-01 -2.02585369e-01 1.36563271e-01
      8.86317566e-02 6.34786766e-03 -8.69147573e-03 4.78853807e-02
      -3.78269583e-01 -3.22261423e-01 2.39974275e-01 9.43138525e-02
      5.73937874e-03 -2.61863647e-03 -3.29802046e-03 -4.76680920e-02
      8.27876180e-02 -5.61043760e-03 -5.21136403e-01 2.30104640e-01
      -8.22249949e-02 -8.27334821e-03 -3.93600650e-02 -5.74806593e-02
      -1.66297168e-01 2.69415408e-01 6.13056183e-01 -4.80438799e-01
      2.12161839e-02 -1.42677665e-01 1.65013164e-01 -1.00688694e-05
      -7.92347789e-02 -6.24653064e-02 8.25130120e-02 4.45550144e-01
      3.79213035e-01 -2.29760140e-01 -2.04416931e-01 2.20828131e-01
      1.85491756e-01 -1.34829972e-02</_>
    <_>
      -3.33813541e-02 -5.03449678e-01 3.09852302e-01 -3.57350230e-01
      -2.22995549e-01 -7.45028257e-02 -1.11308813e-01 -7.59543180e-02
      -4.81840149e-02 -2.36612201e-01 7.17955977e-02 4.49766934e-01
      -1.63085788e-01 -3.50944191e-01 1.89452469e-02 6.19100869e-01
      1.40766382e-01 -1.39720455e-01 -3.31857875e-02 2.36750960e-01
      2.99670964e-01 -8.69629309e-02 -1.58984736e-01 9.43437517e-02
      -3.39608686e-03 -4.75480884e-01 -7.87804797e-02 2.27308109e-01
      3.43684644e-01 9.10592750e-02 -7.53122941e-03 -9.40667558e-03
      1.01457223e-01 -4.87392843e-01 -2.75269210e-01 4.45010103e-02
      -1.33551937e-02 -2.72795290e-01 2.58581877e-01 -2.86951035e-01
      -4.15974140e-01 -2.55494922e-01 5.18345414e-03 1.22838490e-01
      2.22089499e-01 2.70071417e-01 -3.26827943e-01 -6.72955275e-01
      -6.41267359e-01 -1.46201566e-01 -6.13503218e-01 4.55314189e-01
      2.15392113e-02 2.59199023e-01 2.37120658e-01 -9.20368731e-02
      -5.35605073e-01 -3.85251582e-01 -2.55664840e-04 -1.88236386e-02
      -9.85162426e-03 -8.73444855e-01 4.04191285e-01 8.21882039e-02
      2.04659358e-01 5.65000176e-02 2.80401837e-02 2.59316210e-02
      1.11785516e-01 -1.69888899e-01 -2.06228048e-01 1.22636802e-01
      -1.22208364e-01 -5.59183776e-01 -8.52512568e-02 3.42919350e-01
      2.42177412e-01 8.01187288e-03 -4.70357165e-02 -7.53434189e-03
      3.73426490e-02 -3.20693642e-01 -4.82277900e-01 -3.88997883e-01
      -4.30996306e-02 4.66199934e-01 -1.03565156e-02 -1.26472890e-01
      -9.74044874e-02 2.75975391e-02 -2.08088428e-01 -5.67622960e-01
      -3.74742657e-01 6.23210967e-01 1.86976224e-01 -1.57561094e-01
      -3.98484141e-01 -3.61213028e-01 1.11328907e-01 -5.97269893e-01
      3.77634391e-02 2.59564310e-01 3.29102159e-01 -1.81087181e-01
      -5.83965555e-02 2.43126526e-01 1.83160290e-01 -5.18247299e-02
      1.49787273e-02 -2.48357654e-01 -1.91677839e-01 2.18024151e-03
      5.63585013e-02 2.01238781e-01 1.37364985e-02 -5.03432413e-04
      4.60452102e-02 -1.73423067e-02 -1.88166425e-01 -2.02358305e-01
      -3.54607821e-01 6.33806363e-02 2.00999513e-01 1.25157937e-01
      1.03248164e-01 2.05032565e-02 -1.72289778e-02 2.21232072e-01
      1.47554040e-01 -1.21752964e-02 9.74753052e-02 -3.87897223e-01
      -1.41529515e-01 6.20188229e-02 -9.69677418e-02 -5.23471099e-04
      6.12404682e-02 2.71014273e-01 3.81907135e-01 1.44947141e-01
      1.55078083e-01 -2.02848658e-01 2.23801639e-02 -2.69739300e-01</_>
    <_>
      5.56813851e-02 -1.01778165e-01 6.60212487e-02 1.56834983e-04
      -8.85543923e-05 2.73360964e-02 1.85682513e-02 2.12697051e-02
      -1.39441147e-01 -2.67045021e-01 3.13822627e-02 -1.90652683e-02
      -2.98766932e-03 9.64227691e-03 1.92392305e-01 3.92239809e-01
      1.99263036e-01 -1.17856629e-01 2.58341967e-03 -1.44194841e-01
      -2.45719880e-01 -5.83063811e-02 3.08945253e-02 1.64482266e-01
      2.40652189e-01 -1.74741000e-01 4.50666904e-01 1.70580879e-01
      -1.44920781e-01 -1.37179717e-01 -3.21006589e-02 0. 1.22836772e-02
      -1.08809531e-01 -3.29896152e-01 7.55550861e-02 1.06936343e-01
      3.46682221e-02 -2.12384373e-01 8.45717043e-02 -2.63694525e-01
      -1.27346784e-01 5.42231314e-02 -1.98567450e-05 2.57397499e-02
      2.70360768e-01 3.75342220e-02 -3.20891254e-02 -5.94032705e-01
      -1.08886426e-02 -2.12804675e-02 1.01737879e-01 -2.21790642e-01
      9.08400193e-02 2.94505715e-01 1.10183819e-03 -1.71987697e-01
      -3.41056585e-01 1.86254635e-01 1.07703693e-01 1.49197299e-02
      -3.61596107e-01 3.14386152e-02 -1.87167749e-01 -8.22570771e-02
      -2.82790065e-01 5.87838292e-02 1.31110817e-01 -2.03328922e-01
      -9.44015905e-02 1.04556121e-01 5.53862154e-02 3.69338334e-01
      -2.46837780e-01 -1.74476147e-01 1.70864090e-01 1.80092558e-01
      -2.67887086e-01 -1.52822912e-01 5.17778546e-02 1.07226320e-01
      4.59651858e-01 -2.17158318e-01 -1.97636425e-01 -1.18322290e-01
      3.75778317e-01 1.39340768e-02 -3.69298130e-01 -7.98668787e-02
      9.78507549e-02 8.90448838e-02 -1.08628273e-01 -2.73581892e-01
      3.01252734e-02 2.86904663e-01 -2.99985055e-02 7.03956885e-03
      -3.61912280e-01 -9.11934078e-02 -3.10345083e-01 -2.98740536e-01
      -1.74071386e-01 3.00243020e-01 -7.93282595e-03 -1.82203531e-01
      5.77766523e-02 3.10267568e-01 -5.80180101e-02 3.20726410e-02
      -2.36130372e-01 -2.76995778e-01 1.11318693e-01 1.68146685e-01
      -1.77712783e-01 -2.60749578e-01 -1.77081935e-02 2.87027676e-02
      7.98849110e-03 -2.70374306e-02 -1.29924268e-02 -2.52558738e-01
      4.06243473e-01 1.29678398e-01 -4.33184594e-01 -4.49511707e-02
      -1.80873496e-03 -7.67846927e-02 6.63555488e-02 1.11477204e-01
      -1.79364070e-01 2.86466964e-02 -1.64760470e-01 1.38198465e-01
      7.88648427e-02 -7.07562342e-02 -4.17285264e-02 4.12387261e-03
      1.44069359e-01 3.90726507e-01 -8.85322392e-02 -3.43693852e-01
      2.12067842e-01 1.43877089e-01 -7.74084870e-03</_>
    <_>
      -1.34090632e-01 2.02994391e-01 2.05846176e-01 8.65263632e-04
      -8.10729619e-03 -3.62879336e-02 6.26793578e-02 1.62599742e-01
      -9.85939577e-02 -1.01766095e-01 -1.74973607e-01 2.42250543e-02
      -2.16633838e-04 -9.80397835e-02 -2.03480734e-03 4.72383887e-01
      4.50460792e-01 -3.39487344e-01 3.17474343e-02 -3.00503343e-01
      1.67921945e-01 -7.22108334e-02 -9.47155431e-02 5.34449294e-02
      2.16468990e-01 -1.11250505e-01 3.96316797e-02 1.42760143e-01
      1.66339114e-01 9.70362872e-02 -7.25055784e-02 -2.30270196e-02
      -5.56358658e-02 -2.05397800e-01 -3.65696877e-01 4.69178660e-03
      -1.49493963e-01 -1.51642784e-01 7.96518445e-01 1.91301435e-01
      -1.95048884e-01 -5.60548484e-01 1.92362770e-01 2.90603220e-01
      -1.26595452e-01 2.09968761e-02 -8.85823965e-02 -1.49336398e-01
      -4.54975009e-01 -3.81404549e-01 -4.47057098e-01 3.38732749e-01
      4.25322622e-01 -4.09143306e-02 2.16876820e-01 -2.33268633e-01
      -4.17407990e-01 -2.17628285e-01 1.70001090e-01 -3.20931450e-02
      9.91862789e-02 -7.00351357e-01 4.06541862e-02 3.25043231e-01
      1.26873225e-01 -3.39888036e-01 4.03783292e-01 8.51857588e-02
      1.38659850e-01 -3.61772805e-01 -1.47524610e-01 -2.69163132e-01
      -3.99544954e-01 -1.29496291e-01 3.14408511e-01 1.91775873e-01
      1.79927021e-01 -5.51009536e-01 -9.78101417e-02 5.72705455e-02
      2.00893302e-02 2.74173506e-02 -1.74518153e-01 -3.74412000e-01
      -3.78255039e-01 3.42134953e-01 -3.84671152e-01 -2.08319258e-02
      6.27850965e-02 2.29016557e-01 1.16561383e-01 -6.09999657e-01
      -8.45639110e-01 1.23797059e-01 3.84454429e-02 9.50641558e-02
      8.16585869e-02 -2.86855578e-01 3.32795560e-01 7.64084905e-02
      -5.15520237e-02 -2.40237176e-01 4.25210685e-01 -7.74600133e-02
      -7.63178393e-02 -9.64826271e-02 -3.07681888e-01 2.30948925e-01
      6.48484426e-03 -2.14457437e-01 -3.47668201e-01 4.87078056e-02
      3.44110161e-01 -1.04055144e-01 -2.89688259e-01 -5.69701716e-02
      1.12360762e-02 -4.66515347e-02 8.53153095e-02 -1.84836909e-01
      -4.75755900e-01 2.56548792e-01 -1.50046811e-01 -5.76696210e-02
      -2.30135575e-01 -4.09694053e-02 -7.80065060e-02 1.02035142e-01
      5.00763282e-02 -3.61616760e-01 -7.71777034e-02 -1.44686833e-01
      2.64175236e-01 5.14922366e-02 -8.59894529e-02 -1.81948785e-02
      1.00600928e-01 4.58983779e-02 7.29371190e-01 -5.87186068e-02
      -3.65745664e-01 -9.41838548e-02 -2.09264867e-02 -6.44969521e-03</_>
    <_>
      -8.93345103e-02 -8.18594754e-01 5.73152661e-01 1.90493315e-02
      2.36316286e-02 -1.06392307e-02 -6.51013255e-02 -1.35833383e+00
      3.20173323e-01 1.17920555e-01 -4.92269546e-01 3.40438694e-01
      2.66588852e-03 -1.88409295e-02 -2.90227383e-01 -8.17267597e-01
      4.54209179e-01 2.20969096e-01 -4.13927920e-02 -1.47511020e-01
      -1.32226450e-02 -1.31500128e-03 -1.71558186e-02 -2.77053922e-01
      -1.11147217e-01 -7.39299059e-01 1.62930965e-01 4.95829359e-02
      7.29087830e-01 4.64498401e-01 7.28158467e-03 -2.16491637e-03
      -1.85641333e-01 -5.22516489e-01 -6.33531287e-02 -3.28871515e-03
      1.32920206e+00 -2.50349283e-01 -1.01637459e+00 5.98049045e-01
      5.13159037e-01 -2.58248121e-01 -3.88640195e-01 -8.34562540e-01
      -2.89023399e-01 3.95708978e-01 -1.94905832e-01 -1.02530909e+00
      1.26372054e-01 4.00682807e-01 -1.44754484e-01 -6.99924588e-01
      -1.54651344e-01 5.31138182e-01 5.44380583e-02 -6.66648269e-01
      -1.56644672e-01 2.29508221e-01 -3.78876254e-02 -2.90127516e-01
      3.60883296e-01 -2.18461558e-01 3.52384597e-01 4.91357118e-01
      2.88161814e-01 3.49022359e-01 -2.66785949e-01 -2.65502959e-01
      -7.74005592e-01 -5.13370872e-01 -6.52445138e-01 4.23427492e-01
      1.92334473e+00 -5.16784310e-01 -3.79601270e-01 -2.63241176e-02
      -7.85653666e-02 -6.39819920e-01 -6.63556814e-01 -2.35450864e-01
      3.18487614e-01 -6.50352001e-01 -3.73390615e-02 -6.80481732e-01
      -1.77006766e-01 4.37773854e-01 9.60771516e-02 -9.04193878e-01
      -1.23267007e+00 9.38841879e-01 2.40957752e-01 -4.38557506e-01
      3.18847507e-01 -2.49535739e-01 -7.86823690e-01 1.35507837e-01
      -3.37959379e-01 -3.06049734e-01 1.40172672e+00 -4.14545596e-01
      1.41499013e-01 5.32420337e-01 1.08245745e-01 -1.73972368e-01
      1.47983916e-02 2.06801310e-01 -3.35056454e-01 1.97142586e-01
      -9.45250392e-02 -4.78493929e-01 -1.01731919e-01 -7.83716023e-01
      6.86503708e-01 -4.59960133e-01 -4.53353208e-03 -4.11467673e-03
      -1.88240577e-02 -1.67609677e-01 4.10424054e-01 -1.27041742e-01
      -7.09171414e-01 3.68539631e-01 -6.16127789e-01 -5.70013607e-03
      -1.15158490e-03 -8.01556706e-02 -5.86931035e-02 6.40807807e-01
      4.82436627e-01 4.53000396e-01 -1.45564750e-01 -3.30841362e-01
      -3.55286539e-01 -1.39851146e-03 -1.13466777e-01 -3.16731934e-03
      1.52082473e-01 3.83941442e-01 3.58023524e-01 -3.23388845e-01
      6.22279122e-02 3.09722990e-01 8.77056569e-02 -1.48431761e-02</_>
    <_>
      3.20429951e-02 -3.72279704e-01 1.28969625e-01 -3.42607908e-02
      -5.08797169e-03 9.06533655e-03 9.03123617e-02 1.55646786e-01
      -1.85881078e-01 -2.20316634e-01 1.73576534e-01 -2.34072864e-01
      -1.89064786e-01 -4.63558845e-02 1.63988695e-01 8.94774318e-01
      -1.86278462e-01 -2.27176443e-01 -1.27116159e-01 -2.15243697e-01
      3.22048962e-01 -3.85938361e-02 1.41625674e-02 1.53553382e-01
      4.35074717e-01 2.84689188e-01 -2.21568555e-01 -1.51944160e-01
      2.69074887e-01 1.99222296e-01 -4.81395423e-03 -8.81964248e-03
      -7.85385258e-03 2.44679824e-01 -6.98533058e-02 -2.14044183e-01
      -3.61183658e-02 -8.49228576e-02 -7.44648725e-02 3.17506850e-01
      -6.04440987e-01 -1.25564873e-01 -4.47724730e-01 8.55909958e-02
      -2.12835997e-01 2.66778857e-01 -3.37798834e-01 -8.44747365e-01
      -8.23619485e-01 1.02877446e-01 1.20106339e-01 -7.27198459e-03
      -8.93078327e-01 1.47687718e-01 2.22587004e-01 -5.21739304e-01
      -3.21324527e-01 -1.07101537e-01 2.24026754e-01 -1.08642697e-01
      -4.49107736e-01 -4.81320798e-01 -6.32054880e-02 -1.84151545e-01
      -1.88399795e-02 -2.53804773e-01 -1.94895849e-01 -1.28469750e-01
      -2.94469446e-01 -1.47759527e-01 2.31631864e-02 -8.22098777e-02
      2.83003688e-01 -3.77068818e-01 3.86398397e-02 2.41847664e-01
      1.94975525e-01 -5.05331397e-01 -3.63807410e-01 -3.88530821e-01
      -2.64868557e-01 1.08423226e-01 -4.69920158e-01 -9.54542100e-01
      -5.64526439e-01 5.80970943e-01 -2.51534805e-02 -5.17248392e-01
      -3.57519299e-01 1.20393619e-01 -2.71168560e-01 -1.41004756e-01
      -1.67319998e-01 -4.97846425e-01 3.66024166e-01 -3.50740165e-01
      -4.11005259e-01 -7.40204334e-01 -4.02370244e-02 -1.85216412e-01
      -2.00315118e-01 -3.11057180e-01 -1.30953252e-01 3.14493716e-01
      -1.86039120e-01 -2.45031178e-01 6.30156457e-01 -1.48816425e-02
      -1.29618406e-01 -1.53389927e-02 -9.27683473e-01 -1.61064696e-02
      4.14697349e-01 -9.93054733e-02 1.90682724e-01 1.14940498e-02
      -1.46152778e-02 -1.45693362e-01 2.20075592e-01 2.82008529e-01
      -4.29408103e-01 1.62462354e-01 -4.84689027e-01 -8.21499303e-02
      1.48342969e-02 -2.12639533e-02 -2.34744251e-02 4.15581048e-01
      5.48316896e-01 -6.59873784e-01 1.73647448e-01 -7.14553952e-01
      1.15542725e-01 1.77817587e-02 -2.17708815e-02 -4.16566990e-02
      1.28699690e-01 2.20941141e-01 1.24398269e-01 2.19240133e-03
      -1.82763394e-02 -8.14330280e-02 1.34792060e-01 -1.50764525e-01</_>
    <_>
      -3.20867658e-01 -2.93079734e-01 6.50531709e-01 -3.41901407e-02
      -4.16311026e-02 2.41534431e-02 3.10569908e-02 9.90750566e-02
      -8.32641199e-02 -4.76361990e-01 4.04495239e-01 3.21268469e-01
      -3.38648930e-02 -1.02647126e-01 2.56097585e-01 7.67821431e-01
      1.61312073e-01 -5.22201717e-01 6.11391246e-01 -3.47514339e-02
      9.08192620e-02 -7.17686191e-02 -5.17804027e-02 2.31038988e-01
      -7.11414032e-03 -5.75502872e-01 -4.41529870e-01 3.19383085e-01
      -2.20083579e-01 2.96724826e-01 -1.67976599e-02 -4.59581055e-03
      1.35119352e-03 -6.75682425e-02 -2.70396173e-01 -2.77899118e-04
      2.88641214e-01 -2.05147684e-01 -7.50044510e-02 9.01828241e-03
      1.60966232e-01 -4.69214708e-01 -2.24769324e-01 2.06026614e-01
      -1.54013723e-01 3.08472425e-01 -3.69445346e-02 -5.75944245e-01
      -2.52461046e-01 -1.78211108e-01 -3.10838670e-01 -1.28935665e-01
      -5.60878813e-01 3.75216812e-01 2.34227717e-01 -3.87464732e-01
      -1.52922958e-01 -2.11017877e-01 2.63881534e-01 -3.01238894e-01
      5.96965253e-02 -8.97515714e-01 3.09726208e-01 1.94503859e-01
      -1.20335385e-01 9.42793265e-02 -4.26753126e-02 8.46338645e-02
      -5.74235559e-01 9.24914554e-02 1.03192311e-02 -5.03099151e-02
      7.95291245e-01 -4.05472636e-01 -2.20677987e-01 9.62021947e-02
      1.36130666e-02 -1.73329547e-01 -1.99608892e-01 -1.84947073e-01
      1.79443240e-01 2.07350075e-01 -5.08863807e-01 -4.85638708e-01
      -2.71826461e-02 3.32122773e-01 1.27143979e-01 -4.47579652e-01
      -6.80965722e-01 1.39727607e-01 -7.39051759e-01 -5.50478816e-01
      1.51170224e-01 1.95516214e-01 1.65130422e-01 -4.49320488e-03
      4.02115984e-03 -2.08039239e-01 2.40560062e-02 -5.54719746e-01
      -6.38578087e-03 1.53782353e-01 9.86028612e-02 -8.81885812e-02
      -7.72018284e-02 3.42116594e-01 2.36982241e-01 -2.40045160e-01
      -1.22225605e-01 -2.61679173e-01 -4.20191944e-01 -1.19455330e-01
      2.32995644e-01 1.44387275e-01 5.31831980e-02 -1.23583600e-02
      -1.05136395e-01 -2.20054418e-01 -7.02378005e-02 -8.09056684e-03
      2.02517122e-01 2.02578902e-02 -1.31052211e-01 1.59264281e-01
      5.33565879e-03 -1.57135189e-01 -1.20740853e-01 8.95023420e-02
      3.34170550e-01 -4.89393920e-02 1.24279028e-02 -4.31243300e-01
      1.65683389e-01 7.15791900e-03 -1.16240509e-01 -6.99737146e-02
      4.32225578e-02 1.32566974e-01 -1.63158029e-02 1.88849971e-01
      -2.47653827e-01 2.25638837e-01 -1.03074461e-01 -2.74782956e-01</_>
    <_>
      1.36393905e-01 -3.84216830e-02 -5.02762794e-01 2.83419117e-02
      1.28839478e-01 -2.18938500e-01 1.17498182e-01 -8.20239604e-01
      2.54055727e-02 -3.66887033e-01 -5.26684104e-03 2.71634031e-02
      1.57050446e-01 -1.91230774e-01 -6.62255764e-01 1.09161831e-01
      -9.92769375e-02 -5.78669012e-01 2.80261159e-01 5.71492553e-01
      -4.66428339e-01 -2.74113536e-01 6.78005517e-01 4.12924588e-01
      5.49396336e-01 -1.19986868e+00 2.47858852e-01 -2.25539729e-01
      -5.72567523e-01 -5.68755686e-01 4.31090981e-01 4.24983472e-01
      5.88903129e-01 1.52954916e-02 4.44782227e-01 1.96481362e-01
      -4.05195504e-01 -2.54368335e-01 -3.65241975e-01 5.61026573e-01
      2.08072767e-01 1.75737038e-01 9.94818807e-02 -2.11656570e-01
      2.51215249e-01 -9.58594680e-01 -1.00941785e-01 4.14210886e-01
      4.84757483e-01 2.32121870e-01 7.07465470e-01 3.55306447e-01
      -3.74827623e-01 -3.50127041e-01 6.18701458e-01 1.30049214e-01
      2.49642387e-01 -4.57765192e-01 8.83224189e-01 6.69197679e-01
      6.34479165e-01 -7.95051217e-01 -7.93919802e-01 -3.44895691e-01
      -3.31423841e-02 -4.57521528e-01 1.75595313e-01 1.31413609e-01
      9.24039304e-01 4.09487545e-01 3.45768631e-02 6.85487866e-01
      1.35792181e-01 -3.51059623e-02 -3.04735184e-01 1.25972956e-01
      -8.88623223e-02 -4.44903851e-01 6.28091991e-02 -6.98794782e-01
      5.48834085e-01 3.60183150e-01 -2.76959240e-01 3.87211144e-02
      -2.86493182e-01 -9.71374214e-02 -4.97470826e-01 -5.60113072e-01
      -7.30277970e-02 4.31962907e-01 -4.22290236e-01 1.15656577e-01
      1.07340729e+00 -9.71132219e-01 7.74282992e-01 4.99784857e-01
      -2.08098426e-01 -1.09275866e+00 -7.80881107e-01 -5.03007054e-01
      -1.00888598e+00 -3.73444855e-02 -3.41752201e-01 3.78361702e-01
      4.56279814e-02 7.90174007e-01 1.41703522e+00 -1.36001229e-01
      -1.56833813e-01 1.16608821e-01 -5.83541572e-01 -3.01492721e-04
      1.61582798e-01 -1.03091621e+00 1.75465196e-01 1.71257794e-01
      8.63333642e-02 6.77123010e-01 1.09396040e-01 -6.63925111e-02
      -6.62395895e-01 3.68848667e-02 -2.18511745e-01 8.55438486e-02
      -2.16720060e-01 3.88159394e-01 -1.22947488e-02 1.38430640e-01
      2.39355162e-01 -1.74670577e-01 2.58452952e-01 3.17972273e-01
      1.92447335e-01 -9.50424820e-02 -6.17454946e-01 -1.15231976e-01
      2.58938283e-01 4.58626240e-01 7.46699512e-01 -3.86826634e-01
      2.01867949e-02 1.28122044e+00 3.46113712e-01 2.73574769e-01</_>
    <_>
      8.51316527e-02 -4.70629483e-01 -9.52081531e-02 -1.12671897e-01
      -2.20948756e-01 1.40152127e-01 4.28587431e-03 -2.29731768e-01
      3.73362422e-01 -3.53819191e-01 -2.85230488e-01 5.61376810e-01
      -7.12828413e-02 -3.25181395e-01 2.54134834e-01 5.75167894e-01
      6.13121569e-01 1.63866833e-01 -7.82421976e-02 5.64932525e-01
      3.79964679e-01 -3.51396054e-01 1.56529859e-01 4.47980881e-01
      -3.81808057e-02 -3.55133921e-01 -1.20610215e-01 -1.92345574e-01
      2.89129168e-01 1.25987470e-01 7.47095272e-02 6.18049018e-02
      -1.40756100e-01 -2.54639000e-01 3.38500798e-01 3.03223282e-01
      -5.69339037e-01 1.74461395e-01 -9.41400230e-02 -2.40941718e-01
      -5.92258036e-01 -1.51270870e-02 1.47847235e-01 7.49378264e-01
      4.32204343e-02 -3.56030203e-02 9.28946957e-02 -7.18730763e-02
      -5.64761579e-01 -5.08468270e-01 -7.59165168e-01 6.56651616e-01
      4.88006711e-01 1.60720319e-01 3.59090976e-02 1.28039926e-01
      -1.39658839e-01 -9.22408462e-01 2.46651396e-01 1.10012792e-01
      2.74116427e-01 4.34761215e-03 -1.37522547e-02 -4.42139596e-01
      4.28857237e-01 2.26161599e-01 -4.18631136e-02 -2.15119034e-01
      -1.02799088e-01 3.30093764e-02 2.09061623e-01 -1.32999688e-01
      -9.67338204e-01 -3.96579457e-03 -3.93171519e-01 3.48130137e-01
      -5.22200704e-01 -3.43340218e-01 2.79563934e-01 8.87449622e-01
      3.14336687e-01 -4.62159038e-01 3.23342174e-01 -6.85162842e-02
      -3.20525289e-01 -4.98587862e-02 -9.47179869e-02 3.28794420e-01
      8.98353085e-02 -9.40706730e-02 -3.79879534e-01 -2.02257976e-01
      -3.30919027e-02 1.50545672e-01 -1.13511592e-01 1.80670202e-01
      3.78554836e-02 5.76554947e-02 -8.08663487e-01 -1.02068138e+00
      -7.82957673e-02 1.35377869e-01 -7.43487850e-02 -5.27521908e-01
      2.48243257e-01 2.46667698e-01 7.81184733e-01 -5.07028043e-01
      -5.93824685e-02 -1.69005498e-01 -4.99602914e-01 -1.37552544e-01
      1.13242418e-01 -3.26534323e-02 -8.96852463e-03 8.52511749e-02
      1.05122611e-01 -2.96183564e-02 -1.44455031e-01 -3.62982184e-01
      -9.23108384e-02 1.89826667e-01 2.89569467e-01 -1.86869577e-01
      -3.31768915e-02 3.00379731e-02 -2.03672126e-02 -2.87392825e-01
      1.23721138e-01 -1.27408817e-01 -5.88919297e-02 3.75104368e-01
      2.78582182e-02 5.56125045e-02 -1.34622455e-01 -1.04416218e-02
      -4.83782403e-02 1.78361118e-01 4.84745741e-01 -1.22652665e-01
      2.75677919e-01 2.30535984e-01 -1.48786187e-01 -3.80568504e-01</_>
    <_>
      -3.85187685e-01 -4.20728438e-02 -7.14467689e-02 3.28425676e-01
      1.33182198e-01 1.59202889e-01 2.97861964e-01 2.82792240e-01
      1.25707835e-01 -1.86741963e-01 -4.37032133e-02 3.75904813e-02
      2.39360318e-01 4.81042974e-02 1.29648775e-01 3.14675063e-01
      3.37126851e-01 -2.62616128e-01 6.90292343e-02 3.02419700e-02
      -2.03805834e-01 -1.35066375e-01 8.43717977e-02 8.08962211e-02
      9.39591676e-02 -1.33286044e-01 1.86481163e-01 -3.75640094e-01
      1.02144480e-02 -2.61485875e-01 -1.07122567e-02 8.49339291e-02
      1.29804105e-01 3.96817428e-04 7.45113790e-02 2.74918266e-02
      -1.30501583e-01 -5.90758622e-02 -4.48581696e-01 3.69728625e-01
      1.37544632e-01 -7.73567483e-02 2.17816547e-01 1.33647859e-01
      -3.67243700e-02 1.05155304e-01 1.04695015e-01 1.68457553e-02
      -4.60370630e-01 -2.16060564e-01 8.96645486e-02 -1.42402146e-02
      -6.42892793e-02 -5.34025580e-02 2.59891897e-01 5.97574972e-02
      8.46276432e-02 -4.06080097e-01 8.60914141e-02 -1.02622256e-01
      -4.08373848e-02 -1.33659974e-01 -1.53884932e-01 -2.03089595e-01
      -2.21386343e-01 -3.29219043e-01 1.66970566e-02 7.92155974e-03
      1.81671351e-01 -1.41979223e-02 5.45913391e-02 1.34229600e-01
      4.39831465e-01 -1.69011861e-01 -3.55560966e-02 7.38815293e-02
      8.29382390e-02 -7.65354156e-01 -2.40837038e-01 1.94435522e-01
      4.45684969e-01 8.18874776e-01 2.53472149e-01 -4.56361681e-01
      -3.21701378e-01 8.53469446e-02 2.96971828e-01 -4.59555984e-01
      -1.81005761e-01 1.61539838e-01 -1.24979533e-01 6.97513595e-02
      1.38948217e-01 -1.58098325e-01 8.46274719e-02 1.70437574e-01
      1.23750106e-01 -2.57402480e-01 -1.98978439e-01 -2.16247410e-01
      -4.14066464e-01 2.30009289e-04 1.10303015e-01 1.27285495e-01
      -1.62848681e-01 4.09912392e-02 3.54804426e-01 1.00501001e-01
      3.16651650e-02 -2.77465105e-01 -1.83452964e-01 -7.44416639e-02
      1.53154016e-01 -5.73824823e-01 -7.15625048e-01 1.90957393e-02
      1.17804646e-01 2.30938524e-01 2.28159875e-01 -1.78440168e-01
      -2.46281743e-01 1.81565359e-01 2.00304329e-01 -6.77302659e-01
      -4.59911168e-01 2.42423356e-01 1.64612710e-01 1.64088562e-01
      3.77515495e-01 -4.53595519e-01 -1.18471064e-01 8.93800184e-02
      3.39095801e-01 -2.55032450e-01 -8.10006410e-02 1.15489932e-02
      -1.67411655e-01 1.11431755e-01 3.01866502e-01 -1.69273540e-01
      -2.95503557e-01 4.84679908e-01 2.86943436e-01 6.22835830e-02</_>
    <_>
      -2.51450062e-01 1.89412348e-02 3.81324172e-01 1.74881607e-01
      3.44790034e-02 -4.79007512e-02 1.40709117e-01 1.05099203e-02
      3.46945286e-01 -2.38693058e-01 -1.06126089e-02 4.74008441e-01
      1.61112800e-01 2.18458995e-02 -9.65636075e-02 2.26593196e-01
      6.10909700e-01 -2.61210680e-01 -8.75330046e-02 1.18223369e-01
      3.16347212e-01 -1.43958390e-01 -9.74955559e-02 -4.32995819e-02
      4.57340747e-01 5.57850115e-02 -1.18927516e-01 -1.20943792e-01
      1.06381238e-01 3.31262462e-02 -1.32044867e-01 -4.46310416e-02
      -2.87305694e-02 -1.30484417e-01 4.94221002e-02 1.26993936e-02
      -2.91946918e-01 -1.02498211e-01 4.76533353e-01 9.94763598e-02
      -2.36931190e-01 -5.88495195e-01 -4.39578742e-02 6.22498631e-01
      1.45070627e-01 -5.07408381e-02 2.71399140e-01 9.70226824e-02
      -1.55322388e-01 -6.28533721e-01 -2.12150216e-01 3.76886249e-01
      5.32310069e-01 -8.20245519e-02 -2.34988913e-01 -1.65586837e-03
      3.08452129e-01 -3.80333036e-01 -1.99049823e-02 1.93314273e-02
      2.54267752e-01 -1.71201929e-01 -1.05948403e-01 3.13239894e-03
      2.39324674e-01 5.17975464e-02 -7.84533918e-02 -1.35351211e-01
      8.23041499e-02 9.60009918e-03 -1.38033614e-01 -1.59647733e-01
      -1.32659122e-01 2.37938985e-01 1.78213567e-01 -1.97072551e-02
      -2.51708776e-01 -5.23536265e-01 -2.61385739e-01 4.16205674e-01
      3.66374135e-01 1.54723823e-01 3.91142033e-02 -4.72322881e-01
      -9.64845344e-02 1.49666201e-02 -1.45114005e-01 2.08199173e-01
      9.30768102e-02 1.72335967e-01 -1.79046810e-01 1.26300409e-01
      -1.16165183e-01 -6.12222888e-02 2.48211827e-02 1.57076731e-01
      -2.20083445e-02 2.31091995e-02 -1.92047730e-01 2.91856267e-02
      -4.35361415e-02 -5.90166915e-03 1.02839783e-01 5.10658585e-02
      -1.28510654e-01 2.41620429e-02 -9.05861929e-02 -2.49708235e-01
      -1.62309911e-02 -3.96972895e-01 -4.00609314e-01 4.07151580e-01
      1.83367848e-01 -4.93332744e-02 -2.45036975e-01 -1.05629407e-01
      7.06975954e-03 -6.69592544e-02 -1.12048082e-01 -1.56590775e-01
      -3.25473607e-01 2.81109184e-01 1.66317165e-01 -1.54895157e-01
      -3.26636881e-01 -1.23190992e-01 -3.56835365e-01 -1.40892249e-02
      4.15336549e-01 -1.97102815e-01 -1.09308019e-01 3.09373289e-01
      9.35998335e-02 -1.02949589e-01 -3.04302752e-01 -1.15434416e-01
      -2.71052904e-02 1.81492656e-01 4.16206598e-01 2.50698835e-01
      -3.68326873e-01 -2.36788653e-02 3.41380149e-01 -1.38269281e-02</_>
    <_>
      4.63952392e-01 -2.50891775e-01 -4.05997753e-01 -1.11694492e-01
      2.20985919e-01 7.19090939e-01 -2.86268592e-01 -1.35695970e+00
      -4.04839292e-02 -7.02042133e-02 -6.23993099e-01 -2.99355328e-01
      -1.18532278e-01 1.77691728e-01 1.15584910e+00 6.39559686e-01
      5.10186493e-01 7.91409492e-01 4.08045292e-01 5.08870244e-01
      -1.16526520e+00 2.05082536e-01 4.27164882e-01 -9.82873663e-02
      -1.28943205e+00 -4.45045143e-01 9.44015086e-01 -1.42814115e-01
      -8.48443568e-01 -4.75360572e-01 2.95403987e-01 2.75345147e-01
      8.53645429e-02 1.54522538e-01 6.26110196e-01 3.49766582e-01
      4.13727462e-01 1.11841410e-01 -9.40724790e-01 4.13409472e-01
      8.50049376e-01 -2.72919774e-01 5.39353788e-01 4.00484532e-01
      2.33704582e-01 -7.21703470e-01 6.67081833e-01 -1.05368935e-01
      6.72688037e-02 1.71244174e-01 4.57819730e-01 -2.52518773e-01
      4.98412043e-01 -3.48653823e-01 -3.51465434e-01 3.74446958e-01
      4.11122173e-01 7.96977043e-01 3.85649502e-01 1.74167469e-01
      -4.18570906e-01 4.21030670e-01 -1.25017512e+00 -1.50840259e+00
      -6.74777031e-01 -1.85122579e-01 1.13659942e+00 -1.56286597e+00
      2.67741144e-01 6.92831635e-01 9.43086922e-01 -7.46438280e-02
      -5.96060336e-01 -4.36447710e-01 -2.78191030e-01 1.12243883e-01
      1.20224273e+00 -1.25018859e+00 3.22148390e-02 4.25080769e-02
      3.09926212e-01 -3.14293563e-01 7.70723701e-01 1.37498248e-02
      1.36983484e-01 4.24299449e-01 -7.59193242e-01 -3.62345517e-01
      1.69265941e-01 -2.07055271e-01 -1.11838007e+00 9.08569336e-01
      5.48762083e-01 -7.49682844e-01 6.00283325e-01 -3.00578102e-02
      -5.84807284e-02 9.02451158e-01 -1.74942195e-01 -1.96612346e+00
      9.77151319e-02 2.09256168e-02 5.55985749e-01 -1.16810739e+00
      -4.72878009e-01 1.17325926e+00 3.64220858e-01 -1.92425340e-01
      3.37887287e-01 2.09410548e-01 -1.47967860e-01 -9.42448795e-01
      7.80739635e-02 -1.41241968e+00 1.00279443e-01 -1.62839802e-04
      1.16383888e-01 3.05981338e-01 7.27664053e-01 -9.67961252e-01
      4.33953643e-01 -7.35343248e-02 -6.24718308e-01 3.40383261e-01
      -1.31429667e-02 -8.85129869e-02 3.05762440e-01 4.07265097e-01
      2.25549102e-01 8.09708834e-01 -2.34731734e-01 -5.73234409e-02
      -1.20794749e+00 -1.34190753e-01 -3.16965014e-01 1.48382649e-01
      4.53887969e-01 4.43414688e-01 1.28033900e+00 -2.22349793e-01
      -2.05541179e-01 5.43424726e-01 -3.32171530e-01 -3.38956453e-02</_>
    <_>
      -2.49570623e-01 -1.95097938e-01 -3.40837568e-01 6.17887914e-01
      9.57430601e-02 -4.12662655e-01 3.51872295e-01 1.68249995e-01
      6.61027059e-02 -6.22812323e-02 -3.35210353e-01 4.20994967e-01
      -9.62344371e-03 -3.75842988e-01 -7.93557167e-02 8.16963494e-01
      1.66859359e-01 -4.31879103e-01 1.87276438e-01 1.27613302e-02
      7.72557974e-01 -1.36294454e-01 4.15376365e-01 -6.02593087e-02
      5.65909386e-01 -6.47866964e-01 -2.79524803e-01 -6.53625071e-01
      -5.85809231e-01 -3.15154225e-01 -9.29730088e-02 -1.32778943e-01
      8.20049942e-02 5.99708140e-01 2.31868103e-01 3.02206755e-01
      -3.77865791e-01 -2.87294120e-01 -2.16036618e-01 6.38713464e-02
      2.36797705e-01 -1.62334189e-01 -6.19818456e-02 5.45109153e-01
      2.37908825e-01 1.82292417e-01 3.78551394e-01 1.59344345e-01
      -1.11716938e+00 -3.84939134e-01 5.41839480e-01 2.54290700e-01
      -1.95110321e-01 -7.73392439e-01 -2.08987053e-02 2.54601091e-01
      3.10819447e-01 -1.40580952e-01 -9.10080075e-02 5.87684885e-02
      7.56218553e-01 -5.04515171e-01 -4.53250051e-01 -2.42272630e-01
      1.36356935e-01 -1.77706957e-01 -1.10656261e-01 -1.30968499e+00
      4.70724553e-01 -2.52728984e-02 -1.29510343e-01 7.21982479e-01
      1.01729609e-01 6.93235993e-02 2.01508060e-01 -2.20814779e-01
      -2.61987925e-01 -4.94342387e-01 6.74680099e-02 -3.96194220e-01
      3.75030994e-01 -4.30194438e-02 -2.34888926e-01 -7.07615733e-01
      -5.43841362e-01 3.78403813e-01 -2.35917285e-01 -2.31304079e-01
      -1.41257495e-01 7.08611158e-04 2.55694687e-01 9.18420851e-01
      2.82596678e-01 -1.02822816e+00 4.23853189e-01 3.55055213e-01
      -5.05015671e-01 -1.42213225e-01 -1.72837496e-01 -8.30678940e-01
      -5.45004606e-01 -4.05227929e-01 -3.82178992e-01 -5.63901007e-01
      1.38565421e-01 3.96096408e-01 5.22187114e-01 3.48943353e-01
      -4.26281601e-01 1.83635578e-01 -9.69078183e-01 -3.39096576e-01
      2.95310058e-02 -5.31302512e-01 -1.21283643e-01 -3.41704577e-01
      -3.56516659e-01 9.13162455e-02 -4.31663334e-01 -1.16366014e-01
      -5.33115387e-01 6.38978004e-01 -5.83886325e-01 -3.41438591e-01
      -5.79030216e-01 6.66123331e-02 -2.37972960e-01 1.63732737e-01
      6.51356697e-01 -5.49294531e-01 1.57372057e-01 -6.17640801e-02
      -1.31107092e-01 -2.01893777e-01 -7.48797059e-01 -6.41664207e-01
      -5.76103330e-01 3.60507220e-01 -6.31172135e-02 4.42306250e-02
      -8.50631058e-01 7.93964922e-01 1.27035344e+00 -4.23890166e-02</_>
    <_>
      -3.69146109e-01 9.23230425e-02 -2.47749239e-01 2.60675937e-01
      1.15019515e-01 -9.54822898e-02 4.88301218e-01 4.02924776e-01
      5.45252226e-02 -6.00955367e-01 2.54340678e-01 6.52581632e-01
      -1.24791272e-01 -4.14971471e-01 -1.49853518e-02 1.19742906e+00
      6.81298316e-01 5.88476285e-02 7.65263215e-02 9.46487129e-01
      -2.94354558e-01 -6.05356276e-01 2.87915587e-01 5.92145741e-01
      1.93889901e-01 -6.91199660e-01 -3.19173187e-01 -1.11927666e-01
      -3.94080617e-02 -4.12653118e-01 9.03139934e-02 8.17159638e-02
      1.94199055e-01 3.54239762e-01 3.50707144e-01 6.49450660e-01
      -3.85084510e-01 4.52173278e-02 -4.80441630e-01 7.72169948e-01
      2.21648648e-01 -8.74471307e-01 8.34401026e-02 5.12449682e-01
      -8.70376080e-03 -1.84921846e-02 9.78893638e-02 -2.70335764e-01
      -2.31558979e-01 -1.86960965e-01 -2.85979658e-01 3.25516492e-01
      4.65644062e-01 2.09105879e-01 3.00799787e-01 7.28885382e-02
      1.29147232e-01 -5.78502297e-01 3.98722827e-01 -5.45489974e-02
      1.94023341e-01 -3.94229472e-01 -2.59579301e-01 -2.70799220e-01
      5.13344765e-01 -6.58716401e-03 -2.72628486e-01 -8.78158286e-02
      -2.55696535e-01 3.31931740e-01 2.03865264e-02 5.17311871e-01
      6.69860467e-02 -3.74900490e-01 2.83452794e-02 1.82332009e-01
      -6.48470104e-01 -6.15396261e-01 3.83883774e-01 4.93812382e-01
      1.56944975e-01 -1.78895772e-01 -8.54069218e-02 -3.36248875e-01
      2.33937912e-02 1.96416676e-01 -7.38807069e-03 -2.78725978e-02
      1.92835316e-01 2.45454401e-01 -7.19821751e-01 2.49684289e-01
      7.43844748e-01 6.51753664e-01 1.29469410e-01 2.69395798e-01
      -2.03008682e-01 -1.32566094e-01 -1.07182491e+00 -9.96834278e-01
      -4.74645436e-01 -1.37246996e-01 -5.88903390e-02 2.29925379e-01
      -7.80937001e-02 5.31608641e-01 8.04620743e-01 -8.01615119e-02
      -1.84579372e-01 -4.94040459e-01 -4.19734508e-01 -1.96092710e-01
      -5.96728511e-02 -2.71356944e-02 -3.40257287e-02 1.84130389e-02
      8.64949673e-02 3.98516744e-01 -3.51128101e-01 -3.93779218e-01
      2.29305565e-01 5.48890280e-03 3.22420418e-01 -1.71506509e-01
      -1.52725592e-01 2.63561875e-01 2.49549314e-01 3.69305052e-02
      6.47402585e-01 -1.06594965e-01 -1.41427994e-01 1.51615769e-01
      9.63028967e-02 3.62097770e-01 -2.49555111e-01 -1.35047212e-01
      4.41608801e-02 3.65656853e-01 4.31618750e-01 -4.66247313e-02
      -1.35612190e-01 4.95784461e-01 3.45556617e-01 -2.32838288e-01</_>
    <_>
      3.40357944e-02 -1.48755074e-01 4.78022359e-02 -2.32697383e-01
      -1.62159428e-01 -3.87303419e-02 3.38639691e-02 2.62392849e-01
      -1.96977705e-02 -1.95757031e-01 -1.47681087e-01 1.31128833e-01
      -1.76426172e-01 -3.87135386e-01 3.27664644e-01 2.24282980e-01
      2.51499474e-01 2.01891631e-01 -4.20839973e-02 2.54307181e-01
      2.66079396e-01 -8.97607729e-02 -2.47107700e-01 3.22315037e-01
      -1.33500928e-02 -1.68698460e-01 -1.03254348e-01 6.99825436e-02
      3.90185237e-01 2.68004209e-01 2.12021694e-02 -7.38722011e-02
      -6.06209226e-02 -3.03948373e-01 -1.74237695e-02 1.98355108e-01
      -3.83781403e-01 -5.69057614e-02 2.17219085e-01 -1.19032122e-01
      -4.12627041e-01 -3.67964506e-02 3.64526778e-01 4.37054038e-01
      8.75594318e-02 8.57606605e-02 1.34510487e-01 -8.93563256e-02
      -4.48458076e-01 -4.86249834e-01 -1.47134781e-01 5.66711798e-02
      1.71724021e-01 1.72243379e-02 -2.55848348e-01 3.36990714e-01
      -2.16767386e-01 -1.78242475e-01 -1.73778594e-01 9.58917439e-02
      -8.98466632e-02 -2.64764093e-02 2.97583878e-01 2.59289555e-02
      2.95416385e-01 4.78656679e-01 1.96493372e-01 -2.82834560e-01
      -2.05216065e-01 -4.73487116e-02 -3.33430548e-03 -7.03586638e-02
      -4.80211109e-01 -2.34139010e-01 1.16133444e-01 4.65424471e-02
      -4.91055660e-02 -7.25009516e-02 1.42815514e-02 5.43056726e-01
      2.00509846e-01 -6.01386651e-02 9.73082781e-02 -8.13737512e-02
      4.38962094e-02 -5.31211235e-02 -2.20756137e-05 6.79796934e-02
      4.96004224e-02 -1.63747951e-01 -1.14958458e-01 1.11048363e-01
      -2.67741591e-01 2.71694243e-01 -1.34530067e-01 -1.23563252e-01
      4.65416163e-02 1.19842149e-01 -2.57779211e-01 -3.82715836e-02
      6.20735168e-01 3.20947021e-01 1.24995299e-01 -5.09997487e-01
      -2.46402975e-02 2.70955026e-01 -2.94706881e-01 -2.51091868e-01
      -1.08936906e-01 -3.00663978e-01 4.22204770e-02 2.84126431e-01
      -6.69409260e-02 2.15501085e-01 9.24991257e-03 -1.09988749e-02
      -5.17934151e-02 -2.56087571e-01 -2.74377048e-01 -2.57088602e-01
      2.86414087e-01 3.20585445e-02 3.49037312e-02 1.75516784e-01
      9.46948379e-02 -8.35680068e-02 1.59374669e-01 -7.78818503e-02
      -1.99750334e-01 4.20110881e-01 -1.00540467e-01 1.70230940e-01
      -2.40722418e-01 -5.75261042e-02 -1.90985482e-02 1.43788189e-01
      5.84761724e-02 2.29359139e-02 -2.93394830e-02 1.27749190e-01
      1.50967076e-01 1.32800996e-01 -5.19235790e-01 -1.99634731e-01</_>
    <_>
      -7.51332462e-01 -1.76212147e-01 6.36385858e-01 -2.88111828e-02
      -5.76377008e-03 2.90339559e-01 1.53480887e+00 1.04641867e+00
      -3.85133326e-01 -5.38302302e-01 8.94432902e-01 -1.20719969e-02
      -1.35742724e-01 -7.69170076e-02 2.74125576e-01 7.75500417e-01
      3.07338148e-01 -6.45922661e-01 -5.35183921e-02 -3.18073928e-01
      -3.10298055e-01 5.63782752e-01 4.83502924e-01 -9.22810957e-02
      -1.20885618e-01 -1.75111219e-01 4.49035108e-01 1.37143806e-01
      -5.89281917e-01 2.36685559e-01 3.77737015e-01 3.65774721e-01
      8.15667063e-02 -3.09852093e-01 8.54442343e-02 -2.58064449e-01
      6.54087141e-02 -4.42238301e-01 1.58530101e-02 1.36811346e-01
      -1.00889540e+00 -7.34292492e-02 7.16232538e-01 8.15967739e-01
      4.85277474e-01 7.95444191e-01 6.52918637e-01 -7.61961520e-01
      -8.47756982e-01 -8.50577831e-01 4.41054953e-03 -6.58891127e-02
      1.21597610e-01 3.35832387e-01 4.26829964e-01 -1.49971738e-01
      1.56441912e-01 4.31682169e-02 4.44537997e-02 -4.81674850e-01
      -3.15443009e-01 4.76972371e-01 1.45950451e-01 7.79653609e-01
      7.63961747e-02 5.74462190e-02 -1.94561690e-01 4.94029999e-01
      1.64304912e-01 -2.04745784e-01 -1.14326268e-01 3.33554894e-02
      6.52958751e-01 -3.55625689e-01 2.01578707e-01 2.37200752e-01
      8.21541250e-02 -2.10323840e-01 -4.09116298e-01 -7.59711742e-01
      9.49073195e-01 1.39965153e+00 -1.58053294e-01 -2.03934908e-01
      1.53323054e-01 4.12834734e-01 4.66189533e-01 -4.61367458e-01
      -3.31720889e-01 -2.02663928e-01 -1.35145053e-01 1.25223808e-02
      -3.25955451e-01 4.57402945e-01 -2.53458947e-01 -1.93685472e-01
      1.23513259e-01 1.61492005e-01 2.01112911e-01 -4.41167653e-01
      -6.96404576e-01 2.77952045e-01 -1.97737619e-01 4.44773547e-02
      -1.35890990e-01 4.65381801e-01 -4.66400653e-01 -8.47454667e-02
      -1.14914533e-02 -8.57935011e-01 -2.15510756e-01 4.70330231e-02
      6.74298942e-01 -5.19157708e-01 -1.10556149e+00 -6.33670807e-01
      3.98827344e-02 -3.41532975e-02 -6.75683245e-02 7.34900117e-01
      7.28232712e-02 1.50438562e-01 4.86335963e-01 -5.57342291e-01
      -7.72533894e-01 -2.04906985e-01 1.37490317e-01 4.94062662e-01
      7.26067364e-01 -1.73122004e-01 -1.57664180e-01 4.44579512e-01
      -2.52949953e-01 2.53451228e-01 -6.55864477e-01 4.31364328e-02
      2.59221923e-02 1.86900020e-01 -5.68459332e-01 4.28196527e-02
      2.30667561e-01 5.13980910e-02 -1.37887865e-01 -7.13832751e-02</_>
    <_>
      -2.52890140e-01 1.89194232e-01 3.54453743e-01 6.24493929e-03
      3.56368907e-02 3.65390927e-02 2.04963028e-01 2.57650316e-01
      -5.48531972e-02 -3.40544134e-01 -1.17764302e-01 3.05842966e-01
      -5.93377240e-02 -1.21246591e-01 1.69690493e-02 5.87239623e-01
      6.69431865e-01 -1.00496197e-02 -1.24401435e-01 1.15167812e-01
      4.20959741e-01 1.88605674e-02 -2.62009472e-01 -1.13674887e-01
      4.00901020e-01 -1.84079725e-03 -1.52068615e-01 1.75770909e-01
      2.33509228e-01 3.51180345e-01 4.06475291e-02 2.13036537e-02
      -2.92295776e-03 1.97526142e-01 -1.76263586e-01 -1.20954871e-01
      -1.60631821e-01 -1.02855496e-01 2.97266543e-01 6.50148392e-02
      -2.10758582e-01 -6.67418316e-02 3.42657477e-01 2.77847558e-01
      -1.33728916e-02 -5.90129942e-02 1.55897796e-01 -8.26225653e-02
      -7.91059360e-02 -3.32688183e-01 -4.63671796e-02 3.43764983e-02
      4.32861745e-01 1.21944293e-01 -2.37439051e-01 4.19052467e-02
      1.49399713e-01 -7.66587928e-02 -3.21120441e-01 -6.52495176e-02
      1.41450092e-01 6.71947151e-02 -1.37231667e-02 2.05018774e-01
      2.46696457e-01 9.94769186e-02 -1.20641656e-01 -5.23413122e-02
      1.40939534e-01 -6.95667416e-02 -1.33748084e-01 -4.62658070e-02
      1.33141577e-01 -6.16584904e-02 3.82361002e-02 1.77019134e-01
      -3.74284312e-02 -2.80887187e-01 1.31567866e-02 2.27579564e-01
      2.68733382e-01 1.47930488e-01 6.50910661e-02 -2.17337668e-01
      1.11268103e-01 1.87273338e-01 -2.59461273e-02 -3.51410583e-02
      5.67401461e-02 1.90099310e-02 1.15339145e-01 6.43580407e-02
      -1.11931778e-01 -1.38766812e-02 -1.17136210e-01 -1.09493136e-01
      9.51548889e-02 1.28152400e-01 -5.24451025e-03 2.27405459e-01
      2.56842494e-01 8.07757080e-02 -2.55217478e-02 -8.32882300e-02
      -3.23235728e-02 -8.40239003e-02 -2.97635287e-01 -1.78464632e-02
      -2.60512140e-02 -2.65517056e-01 -4.31851558e-02 3.40587229e-01
      1.95106059e-01 -8.91203508e-02 -2.23929167e-01 -1.11236788e-01
      5.24718780e-03 -8.56667906e-02 -1.72770917e-01 -2.38400802e-01
      3.17924395e-02 1.45676881e-01 -4.32945676e-02 -2.60043927e-02
      7.71486945e-03 -3.43373604e-02 2.65312567e-02 -6.10976592e-02
      2.00276021e-02 1.47481160e-02 8.00247416e-02 1.20880365e-01
      -1.92280591e-01 1.86686516e-02 -1.93759538e-02 4.48769219e-02
      -3.67598087e-02 -3.59793240e-03 1.02790400e-01 3.41397911e-01
      -1.28780276e-01 -5.75217493e-02 -4.25388962e-02 2.63761133e-02</_>
    <_>
      2.75422722e-01 -2.78460067e-02 1.59825176e-01 -4.69456583e-01
      2.49071699e-02 7.89160430e-02 -2.92280465e-01 -5.01355529e-02
      -1.71258345e-01 -1.30626768e-01 -5.90188801e-02 -5.01194656e-01
      -3.10255736e-01 -1.91942587e-01 5.06650150e-01 8.21125284e-02
      8.25911880e-01 4.29747343e-01 -2.33771876e-01 -6.67537823e-02
      -3.28608230e-02 1.45837530e-01 -1.28139958e-01 -5.85202456e-01
      -4.05191556e-02 -5.56833565e-01 8.98895741e-01 -1.83473080e-01
      2.66438816e-02 6.32868707e-01 3.43336314e-02 -4.67244536e-02
      -4.70393151e-01 1.04759283e-01 3.10263038e-01 1.76689401e-01
      1.04790004e-02 1.93441510e-02 6.39359131e-02 -1.82134435e-01
      4.03969318e-01 -2.35225320e-01 1.02278793e+00 5.20999320e-02
      9.03763592e-01 1.24754019e-01 7.79792368e-01 -3.45126659e-01
      -2.59868681e-01 -2.41494611e-01 1.36019439e-01 -1.95735380e-01
      -2.31518839e-02 -1.20160896e-02 -1.04164553e+00 -1.55579634e-02
      -3.86222333e-01 1.42782235e+00 -7.72555172e-01 2.30168894e-01
      -9.30100903e-02 3.18518609e-01 7.54977882e-01 -9.21556175e-01
      4.11349595e-01 1.15338516e+00 7.88317978e-01 -1.01563931e+00
      6.32839650e-02 1.14662874e+00 -4.49433252e-02 2.30419517e-01
      -2.74617255e-01 -4.41914678e-01 1.39747664e-01 2.79702872e-01
      3.06315243e-01 1.57046065e-01 1.87569812e-01 7.95349419e-01
      -2.57144272e-01 -1.85619682e-01 6.59335613e-01 1.20816298e-01
      7.27141619e-01 -6.59952581e-01 3.51757854e-01 4.77319568e-01
      5.88004477e-02 -7.41294920e-01 1.46494418e-01 2.55367458e-01
      3.41042653e-02 1.27368510e+00 -9.83495653e-01 -5.84291279e-01
      3.51796716e-01 6.27767146e-01 3.83348048e-01 3.94596189e-01
      1.12229073e+00 1.29605308e-01 1.15280521e+00 -6.96588039e-01
      -1.96336776e-01 6.44527733e-01 -8.63407493e-01 -3.68674189e-01
      -3.85720544e-02 -5.17024636e-01 -1.60793737e-01 -7.98524618e-02
      2.67163306e-01 5.34922242e-01 4.22697701e-02 -2.68423948e-02
      -1.33244514e-01 -3.88524443e-01 -6.27010763e-02 -1.66162178e-02
      7.87594140e-01 -4.16640848e-01 4.25375491e-01 3.24228555e-01
      4.07769494e-02 -1.25848860e-01 4.51453388e-01 -1.54041231e-01
      -5.84373415e-01 3.27915311e-01 1.55168518e-01 -7.67562613e-02
      -4.61030483e-01 -7.29325652e-01 2.29951307e-01 1.90927997e-01
      -1.48568198e-01 -1.79394826e-01 3.62692952e-01 4.28288072e-01
      -5.39574265e-01 -8.55805278e-01 -6.99116886e-01 -6.90125823e-02</_>
    <_>
      4.59600426e-02 1.01158552e-01 -1.76698968e-01 -2.16905341e-01
      -1.01955496e-01 -3.79715443e-01 -2.75501925e-02 5.22904277e-01
      1.25013545e-01 -1.59648240e-01 -1.14391679e-02 3.55827697e-02
      -8.70317459e-01 -7.72341192e-01 4.25936878e-01 1.28779662e+00
      2.53649294e-01 -4.07082498e-01 1.45025089e-01 -5.75684369e-01
      1.50272989e+00 2.93825388e-01 -1.70217618e-01 -1.45085111e-01
      2.77261198e-01 1.22306272e-01 -4.77960080e-01 -5.68740129e-01
      1.45756459e+00 5.98374605e-01 1.73053727e-01 -1.33492291e-01
      -3.36481333e-01 3.95508230e-01 -5.25586843e-01 -9.53532159e-02
      -2.83273935e-01 -1.74170479e-01 1.28684178e-01 -8.02172907e-03
      -3.81404787e-01 -5.33610880e-01 1.19080478e-02 2.91545749e-01
      -1.32683903e-01 2.15721175e-01 7.26518571e-01 -2.56243497e-01
      -2.17783213e+00 -8.01811397e-01 6.56659007e-01 2.71816373e-01
      -3.32080275e-01 -5.98893285e-01 -9.83633161e-01 -8.64187554e-02
      8.18785131e-01 1.07115746e+00 -4.55665052e-01 -5.95074594e-01
      -2.33671591e-02 2.77743638e-01 4.54950452e-01 -1.18230067e-01
      4.91621345e-01 -2.99586922e-01 -5.60591400e-01 -5.03705144e-01
      -4.91324663e-01 -1.03717402e-01 -6.80107474e-02 -1.14601245e-02
      1.03161320e-01 1.26047418e-01 3.16567004e-01 -1.55270630e-02
      7.31370270e-01 -2.18758225e-01 -1.43098369e-01 3.45370336e-03
      -4.96255577e-01 1.20519243e-01 -2.54401833e-01 -3.95824462e-01
      -8.95461589e-02 2.27283552e-01 4.54145193e-01 4.24674809e-01
      1.91935733e-01 -3.04175854e-01 -1.96216375e-01 6.70332432e-01
      -1.24980375e-01 -2.50024438e-01 -1.03094094e-02 -1.73626035e-01
      -5.00328004e-01 1.38669699e-01 -1.27851278e-01 -4.04204838e-02
      6.77891895e-02 -6.13850951e-01 5.12312949e-02 -2.65974104e-01
      9.84660909e-03 -3.64865273e-01 -6.50253713e-01 5.26229739e-01
      -1.71719179e-01 -3.23119253e-01 -3.49282593e-01 7.53269047e-02
      4.53196585e-01 3.01621944e-01 -3.79925579e-01 -2.75600016e-01
      -5.47607005e-01 -6.10856771e-01 -4.29894656e-01 1.99602067e-01
      1.91203475e-01 1.88103944e-01 -1.46561354e-01 -1.58461913e-01
      -8.29761922e-02 -2.59937316e-01 -1.16135767e-02 6.65334538e-02
      -2.12871477e-01 -2.57643282e-01 2.14337483e-01 1.75474152e-01
      -3.24487984e-01 -1.51128257e-02 -3.46272647e-01 -3.26217145e-01
      -3.54786426e-01 1.37426406e-01 -4.61739302e-01 5.87236702e-01
      -1.17086053e+00 3.51979546e-02 -5.94002493e-02 -2.09983885e-01</_>
    <_>
      -3.21298391e-01 -3.93968493e-01 1.59136161e-01 -1.73273101e-01
      -1.82278514e-01 -4.84510139e-02 3.11556548e-01 1.10812938e+00
      3.52981925e-01 -5.78867733e-01 6.33816063e-01 2.66180426e-01
      -4.49693382e-01 -7.51644790e-01 5.13249576e-01 1.21093321e+00
      5.25569797e-01 -1.63114324e-01 -1.87322140e-01 2.82291055e-01
      -2.47254204e-02 -3.30036938e-01 -1.60087228e-01 2.82554895e-01
      -5.98690920e-02 -9.96594355e-02 -1.68031633e-01 2.24336162e-01
      2.04557672e-01 -1.82949677e-02 7.87874777e-03 2.87558943e-01
      -1.58372059e-01 2.21052945e-01 6.40367940e-02 1.59252301e-01
      -1.88089237e-01 -1.88897312e-01 -6.00355715e-02 1.16396017e-01
      -3.67222577e-01 -5.77880681e-01 3.60870757e-03 6.61248088e-01
      -6.69852123e-02 2.81546265e-01 4.45494413e-01 -8.88616502e-01
      -6.48429632e-01 -8.08551967e-01 -2.14593381e-01 -3.92298728e-01
      3.64642948e-01 3.23296309e-01 1.20975204e-01 1.55796304e-01
      -6.46016672e-02 -2.14861572e-01 1.80766150e-01 3.55798334e-01
      -5.30189455e-01 -1.67548116e-02 7.08972216e-01 -9.93325859e-02
      6.32264256e-01 4.06463474e-01 -1.23084389e-01 3.86486024e-01
      -1.76031694e-01 -1.24126300e-01 2.64598995e-01 3.73126388e-01
      1.50877908e-01 -2.87423581e-01 -2.84266829e-01 -5.88439070e-02
      4.43343043e-01 1.12614378e-01 -2.24258751e-01 7.51180172e-01
      -1.43565014e-01 1.71132579e-01 3.79397362e-01 -3.08788538e-01
      2.39442796e-01 9.79240537e-02 5.63882709e-01 -4.49324936e-01
      -3.25132817e-01 -1.31963223e-01 -3.14213037e-01 4.58124101e-01
      2.46950574e-02 7.87306786e-01 -3.91828269e-01 -1.72696412e-02
      3.07473123e-01 5.70788920e-01 -6.76568091e-01 -3.48859169e-02
      6.13850057e-01 -2.40561679e-01 5.25388755e-02 -7.34915137e-01
      -2.81933490e-02 8.59316826e-01 -4.79631662e-01 -3.05920810e-01
      9.02042538e-03 -4.65874285e-01 -1.08232975e-01 5.73546216e-02
      3.26658279e-01 4.38340485e-01 -1.14718504e-01 -8.15086216e-02
      9.23189819e-02 -1.59379601e-01 -1.90434933e-01 7.35656381e-01
      4.84805495e-01 -3.99447054e-01 -3.89776602e-02 1.56680137e-01
      1.73924640e-01 -7.07050636e-02 5.86463660e-02 -7.97447786e-02
      1.23829916e-01 9.02459741e-01 -5.73296726e-01 1.74016654e-01
      4.00847256e-01 2.49903724e-01 -1.20781668e-01 1.54225916e-01
      4.76579294e-02 -5.65738156e-02 -1.25237688e-01 2.89693862e-01
      -2.16811493e-01 1.42425045e-01 -3.43547434e-01 -1.34064689e-01</_>
    <_>
      -2.26697475e-02 1.88345045e-01 -6.01288229e-02 1.06239244e-01
      4.08132486e-02 -2.79726018e-03 8.64979054e-04 -1.66125689e-02
      -2.01463893e-01 -1.48937535e-02 1.34596169e-01 -1.43791437e-01
      5.43675460e-02 2.21474797e-01 -2.33511478e-02 1.07199892e-01
      7.94323236e-02 -1.57832265e-01 6.12122891e-03 -2.67457664e-01
      -2.67660886e-01 7.57227018e-02 2.26677150e-01 -1.38274282e-01
      1.72224820e-01 2.55985171e-01 1.62422359e-01 -6.16758838e-02
      -3.07027370e-01 -1.17020912e-01 1.90727436e-03 8.81214589e-02
      7.71698356e-02 1.45470034e-02 -1.96265072e-01 -2.70761158e-02
      1.02815092e-01 -9.71942097e-02 -1.95564002e-01 1.20962620e-01
      2.39983425e-01 1.30386382e-01 -6.12582117e-02 -6.48490563e-02
      6.60278648e-02 6.89814314e-02 7.96069577e-02 9.34671015e-02
      -7.07910359e-02 3.76427695e-02 2.10336491e-01 -4.29924279e-02
      -1.39754534e-01 -1.63638026e-01 1.85317487e-01 -2.75752842e-02
      -9.85804945e-02 -9.25730765e-02 1.26154140e-01 -3.87183800e-02
      3.85566950e-02 1.10075764e-01 -1.72419176e-01 5.47339208e-02
      -3.38420510e-01 -3.37731749e-01 -1.44236058e-01 3.31632286e-01
      1.87994353e-02 2.51705702e-02 1.27230329e-03 -4.69459407e-02
      5.51725805e-01 -7.30358511e-02 -1.56233862e-01 -6.96719438e-02
      3.57086927e-01 1.46093190e-01 -3.20616364e-01 -1.07599430e-01
      2.42755875e-01 6.72431946e-01 1.35521635e-01 -1.44626558e-01
      -1.22167386e-01 1.72262579e-01 9.91949663e-02 -4.16427225e-01
      -1.56629682e-01 2.49919802e-01 1.07152991e-01 1.59536675e-01
      -2.36288905e-02 -2.89085627e-01 -6.10745512e-02 1.23422801e-01
      1.16757691e-01 -1.23933256e-01 4.12787013e-02 -1.69280954e-02
      -5.64661741e-01 -1.63169488e-01 -5.40653244e-02 2.05068558e-01
      -8.63033682e-02 -2.15730384e-01 2.44014710e-01 4.21654701e-01
      1.67638868e-01 -4.23218720e-02 -1.62488565e-01 2.12690130e-01
      3.48984092e-01 -3.38448912e-01 -4.45399195e-01 -6.46453425e-02
      6.07653037e-02 2.11264968e-01 2.15469763e-01 6.96879178e-02
      -2.20710263e-01 2.06987903e-01 1.72450215e-01 -7.84675241e-01
      -3.29726130e-01 5.89987859e-02 -1.46062583e-01 1.41600221e-01
      8.03146139e-02 -5.50501168e-01 1.51039788e-03 1.12263858e-01
      2.52487808e-01 -4.58737053e-02 -3.40187401e-02 -9.69143063e-02
      -1.07831426e-01 -3.91852297e-02 -5.06845713e-02 -3.07987500e-02
      -2.49454379e-01 8.88981894e-02 3.35620075e-01 1.15536183e-01</_>
    <_>
      7.04626963e-02 3.77285987e-01 1.58973590e-01 3.08537155e-01
      -6.03415430e-01 -6.61855996e-01 -2.97327757e-01 2.32281033e-02
      1.12930864e-01 -6.07383661e-02 -3.50651592e-01 2.58281201e-01
      4.06950200e-03 -1.27163589e-01 3.17712784e-01 1.57356143e-01
      2.61717290e-01 -3.69137794e-01 -2.40626067e-01 2.01943859e-01
      2.65209451e-02 -1.29795996e-02 4.64046448e-01 3.43978107e-01
      6.70312464e-01 7.27484703e-01 -2.86391526e-01 3.58876020e-01
      -3.41426313e-01 1.20361270e-02 -2.30876178e-01 8.15928057e-02
      -5.74016869e-02 4.05559093e-01 -1.28676161e-01 -1.60292879e-01
      -1.59647584e-01 -1.41660959e-01 7.09979057e-01 2.84861952e-01
      -3.17702025e-01 2.35936001e-01 -1.17565906e-02 -4.36686501e-02
      1.82219833e-01 -6.47034347e-02 8.77196014e-01 4.99794334e-01
      4.44402486e-01 -1.23671234e+00 4.00789946e-01 1.19735457e-01
      1.75463438e-01 2.36894071e-01 -6.18958771e-01 -2.12201193e-01
      7.63477027e-01 3.34401935e-01 -5.27427554e-01 4.90311444e-01
      5.97065210e-01 5.86721003e-01 -8.78820121e-02 1.13282883e+00
      -1.00216508e-01 -3.27847183e-01 -4.87082988e-01 -4.69617724e-01
      8.02854896e-01 -2.00540368e-02 -2.49926180e-01 4.18964103e-02
      7.53761768e-01 2.94110239e-01 4.73845571e-01 -4.93139654e-01
      -2.02209175e-01 -6.35237575e-01 -5.57402186e-02 -2.17629541e-02
      3.21474791e-01 7.15703845e-01 4.20810610e-01 -3.17115724e-01
      -2.27951661e-01 5.69513679e-01 -4.12392646e-01 -8.15259874e-01
      -1.12877317e-01 7.65072405e-01 1.91628516e-01 8.65719244e-02
      4.35257703e-01 1.56618595e-01 2.50545204e-01 -8.26732814e-02
      1.46877870e-01 2.17220575e-01 7.36873895e-02 8.92433524e-01
      -7.02426314e-01 -1.27738297e-01 -1.01127170e-01 2.85142779e-01
      -3.64085555e-01 -4.59927142e-01 -3.46598849e-02 1.24005461e+00
      5.03716290e-01 -2.70360857e-01 7.62224719e-02 2.39063308e-01
      9.70580876e-01 -1.01337326e+00 -1.40425295e-01 -2.45780442e-02
      2.22586151e-02 1.16320312e-01 -3.89133096e-01 1.25790998e-01
      -9.06229377e-01 5.54612398e-01 1.70073256e-01 -7.33097315e-01
      -4.15693969e-01 -1.14725254e-01 -5.79909027e-01 4.23195660e-01
      7.42070675e-01 -5.94029725e-01 -1.72016159e-01 2.10433513e-01
      6.06621146e-01 1.22929409e-01 -3.30780208e-01 -2.56947190e-01
      4.19022113e-01 1.19652346e-01 8.40740371e-03 4.59385633e-01
      -3.49988520e-01 -8.62320065e-01 7.22218752e-01 2.86526591e-01</_>
    <_>
      1.23859093e-01 2.31257886e-01 -8.43987405e-01 -3.77240807e-01
      6.22521788e-02 -5.81233054e-02 -1.28970280e-01 -3.54041398e-01
      -1.62092790e-01 4.52055663e-01 -6.35013819e-01 8.89227912e-03
      4.08819318e-01 6.16624534e-01 3.86545122e-01 -1.00197947e+00
      -6.02889001e-01 1.30085215e-01 3.18598837e-01 -7.27192700e-01
      -5.71465373e-01 4.08168346e-01 1.62508920e-01 -7.67094851e-01
      1.75629541e-01 1.21232003e-01 2.43528366e-01 1.98137060e-01
      -4.29328144e-01 -2.13861149e-02 6.94378163e-04 -9.39051583e-02
      -2.87976503e-01 7.79141337e-02 -6.83606923e-01 -6.51119113e-01
      1.12919962e+00 -3.01163733e-01 -4.59716886e-01 -7.64259920e-02
      6.62398815e-01 7.56259501e-01 -5.53388357e-01 -5.30308366e-01
      1.31115347e-01 2.06530958e-01 -1.52911723e-01 5.68586290e-01
      8.56799424e-01 5.83766341e-01 2.47096270e-01 -6.40397191e-01
      -3.79322946e-01 -3.22938681e-01 -3.51939201e-01 -1.30188212e-01
      4.02251333e-01 8.73988628e-01 -6.31118655e-01 -1.37042522e-01
      -6.35767654e-02 7.91607141e-01 1.38553947e-01 -3.13758641e-01
      -2.33605593e-01 -1.50711033e-02 5.74380974e-04 -2.75785357e-01
      -1.35304064e-01 3.20859790e-01 1.53923959e-01 6.22679107e-02
      1.27378809e+00 -1.30514637e-01 -6.17321849e-01 -3.94506395e-01
      9.78296518e-01 1.74333110e-01 4.61569041e-01 -7.98004091e-01
      -7.67847076e-02 3.29924285e-01 2.79593736e-01 5.30518852e-02
      1.07051924e-01 1.96842223e-01 -1.73661515e-01 -2.17392847e-01
      -7.08655834e-01 -2.13755175e-01 2.41447642e-01 -1.46740869e-01
      2.69698054e-01 -2.58079529e-01 -4.09828126e-01 -4.03083175e-01
      3.12826306e-01 7.16802776e-01 7.31988192e-01 -6.27820715e-02
      9.89793688e-02 -7.98346251e-02 2.61791050e-02 -9.74717811e-02
      9.59398672e-02 1.26080528e-01 4.38133419e-01 2.56692916e-01
      5.32444775e-01 -6.09851778e-01 4.62938577e-01 -3.08504969e-01
      8.16275105e-02 -3.89004767e-01 -9.93539616e-02 1.29824020e-02
      7.25195408e-02 1.48089737e-01 7.69834667e-02 1.82775348e-01
      8.01389944e-03 -2.33866517e-02 1.35502174e-01 -7.18503371e-02
      -1.07716620e-01 -2.40468234e-01 -2.31604502e-01 -2.02398956e-01
      2.91154414e-01 -3.99175256e-01 -2.54669547e-01 1.87581498e-02
      2.46290445e-01 4.62462842e-01 2.59584516e-01 2.08934397e-01
      -3.86083685e-02 -3.63601604e-03 -2.18396145e-03 2.85595745e-01
      -1.45420805e-01 -4.20311689e-01 4.83554065e-01 2.12887019e-01</_>
    <_>
      5.64540271e-03 3.38180140e-02 5.47509976e-02 -1.06861200e-02
      8.12620148e-02 9.58338901e-02 -4.62049469e-02 1.29012484e-02
      -1.10054314e-01 2.77759463e-01 1.61299691e-01 -2.38913402e-01
      -1.25279322e-01 1.45422950e-01 1.46246210e-01 8.36245194e-02
      -5.99522233e-01 -2.82071918e-01 -1.11609966e-01 -4.32759672e-01
      -1.39374524e-01 8.99479538e-02 3.49075496e-01 5.94181232e-02
      3.62660289e-01 4.19819832e-01 -9.80134234e-02 -3.00022960e-01
      -3.91072780e-01 3.74442190e-02 3.40289846e-02 2.56831921e-03
      1.22501306e-01 6.94054484e-01 1.60163045e-02 -2.87043005e-01
      3.72282356e-01 -1.06763422e-01 1.92191941e-03 4.08801466e-01
      4.12557602e-01 -4.00675535e-01 -7.79240906e-01 -3.77217442e-01
      -3.71097565e-01 3.47648710e-01 2.16156065e-01 -1.51275218e-01
      -1.46105602e-01 7.06999898e-02 5.94010688e-02 -3.72872561e-01
      -2.86517859e-01 -4.83030319e-01 9.22628194e-02 -3.50890040e-01
      1.21725239e-01 1.03994273e-01 3.44676301e-02 -2.91769784e-02
      1.08514607e-01 8.55384395e-02 -3.63837451e-01 2.91006267e-01
      -1.18809566e-02 -2.45931417e-01 -2.17369989e-01 2.81496048e-01
      5.51836751e-02 -2.30021715e-01 -1.52896658e-01 -1.37740284e-01
      5.57432711e-01 2.74899095e-01 -9.04706195e-02 -4.48302895e-01
      3.37349862e-01 3.20806593e-01 -4.82278496e-01 -9.68781114e-01
      -6.67998940e-02 -4.01630402e-02 -2.33537793e-01 -2.54648089e-01
      -3.37106377e-01 1.72313184e-01 5.51325828e-03 -3.72765481e-01
      -4.67518419e-01 5.21519423e-01 4.51688319e-01 2.58481473e-01
      1.27845973e-01 -1.03494847e+00 1.07219264e-01 -1.56105191e-01
      -1.81198746e-01 -1.23270206e-01 2.02830657e-01 2.91089624e-01
      -5.38548887e-01 -5.58183908e-01 -6.65405691e-02 4.52013254e-01
      4.60271798e-02 -5.78617156e-01 -2.21569374e-01 4.17069942e-01
      2.22599953e-01 -8.10893476e-02 -3.47094685e-02 -2.03859091e-01
      3.77456278e-01 -1.86413422e-01 -3.13361496e-01 -1.17166519e-01
      -9.06436965e-02 -5.34498878e-02 -6.71118125e-02 5.21456361e-01
      -4.49611358e-02 4.46585506e-01 -6.64879382e-01 -5.93371093e-01
      -2.62223899e-01 -2.57198185e-01 -2.03259692e-01 8.49960148e-02
      4.01317239e-01 -9.97413576e-01 2.53308322e-02 3.75512093e-02
      5.65707743e-01 1.84073940e-01 -1.63675100e-01 -1.84815481e-01
      -2.21961707e-01 8.55512097e-02 -1.67929530e-01 -3.14486958e-02
      -2.18619958e-01 8.93732086e-02 8.17032576e-01 -8.89374912e-02</_>
    <_>
      -8.56320500e-01 6.70415342e-01 5.32041728e-01 3.09304949e-02
      -1.23186618e-01 4.20365721e-01 -4.14283127e-02 -1.26157716e-01
      7.99778640e-01 8.37967038e-01 -7.98857391e-01 2.06601098e-01
      -1.60980225e-01 -1.36470459e-02 -2.56044298e-01 1.18530917e+00
      -2.28542745e-01 -7.41146684e-01 1.28392741e-01 1.87483990e+00
      -1.22014374e-01 -9.34889197e-01 -2.59233803e-01 -6.86993361e-01
      1.09917402e+00 1.02354717e+00 -1.03120458e+00 9.66710031e-01
      -1.36126089e+00 -1.24041535e-01 -2.82791227e-01 -4.42783535e-02
      4.80409265e-02 4.29757535e-01 2.87928760e-01 -2.15025425e-01
      1.72753906e+00 -9.11950171e-01 -8.30054224e-01 -4.63833004e-01
      2.99317694e+00 -7.42124915e-01 -1.24570763e+00 -4.47994739e-01
      3.94709885e-01 1.46021187e-01 5.93106091e-01 6.68715596e-01
      1.46903765e+00 -6.31320179e-01 -3.87072191e-02 -6.53583705e-01
      3.49089690e-02 -2.95895696e-01 4.89202201e-01 -1.07817793e+00
      4.47476029e-01 6.55167341e-01 1.38324678e-01 -7.70385489e-02
      -4.39779647e-03 2.30421185e-01 -5.12026191e-01 6.32443190e-01
      6.56270143e-03 -7.39638567e-01 -4.45698202e-01 7.45701864e-02
      2.88728829e-02 7.00640738e-01 2.09058359e-01 -8.52062047e-01
      2.12228274e+00 -6.27178028e-02 -4.69727993e-01 -7.27925599e-01
      1.27749443e-01 3.64628822e-01 -1.66424108e+00 -1.14799261e+00
      1.43006787e-01 1.17400683e-01 4.37642425e-01 4.29437786e-01
      -7.99558535e-02 9.93684530e-02 8.18918586e-01 -1.48753703e+00
      -5.79861999e-01 -2.58199841e-01 -4.16825294e-01 2.83347398e-01
      2.20647836e+00 1.31820917e+00 -7.60526180e-01 1.76731832e-02
      2.77524982e-02 -3.66384000e-01 -9.47318017e-01 -2.29075685e-01
      9.51221064e-02 -5.86848080e-01 1.42051905e-01 7.23114789e-01
      -1.06923439e-01 1.67999268e-01 6.68621242e-01 6.31875575e-01
      3.72372448e-01 3.84540617e-01 2.00164646e-01 -8.32754552e-01
      3.50493640e-01 -1.42301905e+00 -8.08875561e-01 -1.51202098e-01
      2.10195407e-01 1.44720703e-01 4.95074764e-02 -1.45093827e-02
      -5.06440699e-01 4.32931662e-01 -9.10731494e-01 1.64190918e-01
      -3.98074418e-01 -8.88279453e-02 -3.08876097e-01 9.14190412e-01
      1.21263719e+00 -1.05339801e+00 -6.30615413e-01 1.45849228e-01
      2.99730986e-01 1.16175294e-01 -3.91656429e-01 -2.33464226e-01
      -1.91704467e-01 -3.15791994e-01 -1.35861114e-02 -1.21371925e-01
      5.19355536e-01 -1.11675926e-01 6.37700021e-01 -5.03411174e-01</_>
    <_>
      -2.25946173e-01 9.25122648e-02 5.10706723e-01 -7.12154340e-03
      1.47147775e-01 -1.42477870e-01 -4.07956354e-02 -2.96811154e-03
      3.56720001e-01 -1.03425279e-01 -2.83994317e-01 4.43182379e-01
      1.22195467e-01 -1.14826061e-01 -3.06563318e-01 -1.31122321e-01
      6.37202561e-01 4.37903136e-01 -3.75565827e-01 8.33784759e-01
      6.51922464e-01 3.95243585e-01 -4.29706067e-01 -2.53531843e-01
      5.40194869e-01 4.04113472e-01 -3.76965463e-01 1.09187685e-01
      4.09734219e-01 4.15390372e-01 1.96738213e-01 4.16161805e-01
      -5.23073003e-02 9.36173439e-01 -1.73854575e-01 -2.68947661e-01
      -1.20813422e-01 -2.30438888e-01 3.99764448e-01 -9.17601734e-02
      -1.65066317e-01 -3.40688497e-01 6.34195089e-01 1.38262197e-01
      -7.86157399e-02 -3.21862221e-01 -3.75786364e-01 4.89896610e-02
      4.19267476e-01 -1.69311509e-01 -1.07728109e-01 5.35404086e-01
      8.25421572e-01 8.67280662e-01 -5.68185687e-01 5.47855794e-01
      9.68897879e-01 3.03545654e-01 -4.64115411e-01 -6.23661816e-01
      4.57447350e-01 -9.29445922e-02 2.10514721e-02 8.59910309e-01
      1.03807855e+00 1.21964663e-01 2.27302816e-02 -8.71205479e-02
      -4.24085170e-01 2.03232676e-01 -5.47169566e-01 -2.40992546e-01
      -2.74452269e-01 2.50176489e-01 1.69186220e-01 7.97238424e-02
      -4.87268716e-01 -1.64828911e-01 4.97977644e-01 1.07637107e-01
      -1.66010693e-01 -6.41666412e-01 -1.92659497e-01 -2.27255970e-01
      -1.12206079e-01 -3.55721533e-01 3.56190503e-01 7.71257460e-01
      2.80334912e-02 7.24541470e-02 -2.99389929e-01 3.62422247e-03
      5.77389717e-01 3.30953926e-01 2.75711089e-01 -5.08017302e-01
      1.03289440e-01 3.60342801e-01 8.90677646e-02 7.51224279e-01
      4.89035428e-01 -5.83041310e-01 -9.51664373e-02 2.16333464e-01
      5.14918193e-03 -2.98766375e-01 -4.59635228e-01 2.48208955e-01
      1.05367817e-01 3.48502487e-01 -2.91056596e-02 2.85596550e-01
      -8.26034397e-02 1.76408082e-01 1.99003458e-01 -2.69646496e-01
      -2.14735959e-02 -2.17357770e-01 -1.91715524e-01 -2.24949077e-01
      -3.27272087e-01 1.24835037e-02 9.64125395e-02 7.17720509e-01
      -3.97921324e-01 3.08558077e-01 -1.33086920e-01 -3.46315056e-01
      4.93402451e-01 4.87238020e-02 -4.25850786e-02 4.06624049e-01
      -6.19169772e-01 -1.71565458e-01 1.46957457e-01 1.99757785e-01
      -1.23769283e-01 1.99201360e-01 -3.84898961e-01 6.43835604e-01
      -2.83553183e-01 -1.53523251e-01 -3.16326693e-02 -2.76670940e-02</_>
    <_>
      1.36480704e-01 -2.44296361e-02 -1.11995339e-01 -4.45626378e-02
      -3.68854241e-03 -2.56265253e-02 -1.23503827e-01 -1.60652399e-01
      -1.59538642e-01 1.43328130e-01 -1.31945536e-01 2.40290985e-01
      1.38980791e-01 -4.31513414e-02 -1.72388598e-01 -2.67228991e-01
      -4.54378389e-02 2.07945220e-02 -1.82255097e-02 1.73062950e-01
      1.63557842e-01 1.17296115e-01 -7.11032003e-02 1.28838122e-01
      -3.35816771e-01 -2.12943584e-01 9.72357579e-03 5.45895472e-02
      2.94613540e-01 2.50342488e-01 1.17828071e-01 2.16759387e-02
      -1.07513018e-01 -1.86649069e-01 1.04816370e-01 3.75518017e-03
      1.56832755e-01 -4.92890505e-03 1.20448358e-01 -2.35717714e-01
      2.41007254e-01 1.64788321e-01 -1.36778221e-01 -1.75381511e-01
      1.14003479e-01 -1.34797227e-02 -1.54984724e-02 6.79544453e-03
      4.23137665e-01 3.95133644e-01 -1.37258500e-01 -2.00651616e-01
      6.28715707e-03 9.79696959e-02 -4.90738273e-01 -7.50618102e-03
      3.55897009e-01 4.67949599e-01 -2.31916338e-01 -4.24613208e-02
      9.36195906e-03 1.69712707e-01 -2.76824292e-02 -1.98013827e-01
      2.50188023e-01 6.42618418e-01 1.29302174e-01 -3.73559088e-01
      -2.54869193e-01 1.98077261e-01 1.03513770e-01 1.06005073e-01
      -1.95772693e-01 -1.64680496e-01 3.08700651e-02 -8.49806890e-02
      -1.82988495e-01 3.44544053e-01 4.10222054e-01 -1.28602073e-01
      -9.33796987e-02 -5.80422163e-01 -2.82551944e-01 2.65870541e-01
      9.90022868e-02 1.44647703e-01 -2.04688042e-01 1.38098627e-01
      3.62967253e-02 -5.30252978e-03 -1.09358028e-01 -1.03748776e-01
      3.07967931e-01 1.54464826e-01 1.40355781e-01 -2.26597846e-01
      -1.31357148e-01 4.28378522e-01 1.29632980e-01 -9.33134407e-02
      3.93788427e-01 1.23091727e-01 5.55387549e-02 -1.60498440e-01
      6.81189746e-02 2.99178541e-01 -1.43328324e-01 -3.38468790e-01
      -4.66176905e-02 1.73636839e-01 -3.69644985e-02 -5.25369585e-01
      -1.67565465e-01 2.99230397e-01 4.85410929e-01 4.78722118e-02
      -1.53829269e-02 -9.81900021e-02 -1.14744030e-01 1.24504887e-01
      1.74799755e-01 -3.11307013e-01 -2.14193702e-01 7.41004646e-01
      4.54511046e-01 1.37033919e-02 6.71888217e-02 -9.33687985e-02
      1.27879772e-02 4.48168069e-01 8.78008679e-02 -3.15301061e-01
      -2.04327688e-01 4.63796079e-01 -4.33786660e-02 1.63025543e-01
      3.18049520e-01 -5.57227582e-02 1.41550049e-01 1.29993081e-01
      9.08311382e-02 -4.64591444e-01 -2.79588670e-01 -1.50210977e-01</_>
    <_>
      5.13677001e-01 -7.10292637e-01 3.83281291e-01 -1.25111192e-01
      -2.63429344e-01 -8.36642623e-01 5.82211949e-02 3.27962935e-01
      6.23328649e-02 5.36745310e-01 -1.22575440e-01 4.50920314e-01
      -5.42882979e-01 -7.04450130e-01 -3.21157902e-01 1.11266971e+00
      -1.33628881e+00 -8.89478177e-02 -6.54760659e-01 6.55598223e-01
      1.82610953e+00 8.15770984e-01 -3.79855447e-02 -5.34024417e-01
      -4.12546933e-01 1.84526813e+00 -1.08485687e+00 -3.35284799e-01
      8.24847162e-01 3.22965235e-01 -1.45554066e-01 1.42359480e-01
      -3.42373937e-01 6.36545897e-01 -1.78323884e-03 3.29066999e-02
      -5.18454313e-01 -1.25564123e-02 -1.90546528e-01 -1.12492770e-01
      1.68625265e-01 5.72547503e-03 -6.23056114e-01 1.89537346e-01
      9.62422565e-02 3.77406329e-02 3.30358475e-01 -1.38572112e-01
      3.15931499e-01 4.69438225e-01 -4.44659203e-01 1.11853451e-01
      -1.05494356e+00 -1.30782202e-01 -9.04127002e-01 4.22854759e-02
      9.82533157e-01 1.00891805e+00 -2.41032377e-01 -1.42332101e+00
      4.12902862e-01 -1.14882007e-01 -5.65683722e-01 1.09946811e+00
      8.16022694e-01 6.26370072e-01 -2.70647258e-01 -5.43116987e-01
      -1.47614986e-01 -3.41081738e-01 -6.89335227e-01 -5.52435815e-01
      -2.36375898e-01 4.08560693e-01 -7.83742964e-02 -4.20765221e-01
      1.92363352e-01 -2.14217961e-01 3.17937702e-01 -2.64031351e-01
      -2.88264573e-01 -1.71577752e+00 1.93486422e-01 -2.12798342e-01
      -4.45535898e-01 -8.06018472e-01 -7.25793362e-01 9.09364998e-01
      8.71344507e-01 -3.90221030e-01 -3.50933075e-01 8.54391992e-01
      -1.07918881e-01 -3.26720923e-01 1.80028871e-01 -1.14730699e-02
      -7.18331099e-01 3.68615180e-01 1.20420136e-01 8.53067562e-02
      -2.35975608e-02 -1.05762589e+00 -2.75605440e-01 5.06913662e-01
      2.01880082e-01 -5.60395360e-01 -4.66624886e-01 5.99327326e-01
      -1.81294888e-01 6.67172670e-01 -5.53577244e-01 -6.60586119e-01
      6.99429572e-01 8.15072596e-01 1.27507240e-01 -8.41604412e-01
      -2.22303525e-01 -5.81967175e-01 -1.01372862e+00 4.33009071e-03
      -4.46228474e-01 2.06331715e-01 -6.99947655e-01 1.23064116e-01
      1.87502667e-01 -7.94196725e-01 2.56316066e-01 3.86818908e-02
      2.88457155e-01 5.91212213e-01 2.96916604e-01 -3.91641617e-01
      -8.82319510e-01 -8.60364065e-02 -6.65041745e-01 -4.54123706e-01
      -6.38809502e-02 6.19255304e-01 -6.14335537e-01 1.40885159e-01
      7.11607039e-02 -2.80964881e-01 -8.80100392e-03 -3.20258170e-01</_>
    <_>
      1.76426426e-01 -3.72032583e-01 2.57668495e-01 -4.06672359e-02
      3.70382704e-02 -1.92675926e-03 1.22128967e-02 1.06089236e-02
      3.58344704e-01 8.05362165e-02 -1.84763044e-01 -1.20743901e-01
      -3.30489039e-01 -4.83413339e-01 -1.59125790e-01 2.62019008e-01
      -4.59731311e-01 4.30716515e-01 -1.65785812e-02 -2.13995114e-01
      1.40541747e-01 -1.67449072e-01 -2.34010071e-01 -1.73623755e-03
      -1.39798999e-01 1.04751185e-01 -3.74672771e-01 -4.37614024e-01
      7.49879003e-01 1.47195503e-01 2.07840443e-01 2.58373504e-04
      -4.44252491e-02 -7.10507343e-03 -2.18868569e-01 -2.18217429e-02
      -1.57747686e-01 6.25091642e-02 3.40498723e-02 2.84421742e-01
      9.22827944e-02 -6.94419622e-01 -3.20816070e-01 2.24187598e-01
      -3.60445008e-02 -1.75590411e-01 -2.35570446e-01 -1.89528793e-01
      2.32364014e-01 1.92414567e-01 -9.36446562e-02 -2.26933420e-01
      5.88872358e-02 2.53191799e-01 -3.05162460e-01 -1.11221053e-01
      4.86480072e-02 3.86883356e-02 3.47387433e-01 7.25530267e-01
      -1.17266253e-01 -1.95929453e-01 -1.01489626e-01 -9.73681211e-02
      2.29197890e-01 6.08105838e-01 -2.44288251e-01 -5.24745941e-01
      -4.06170934e-01 2.44098619e-01 5.55512667e-01 1.83182254e-01
      -4.99507904e-01 -3.08758736e-01 1.89749300e-01 -1.20411344e-01
      -2.52899438e-01 3.85713220e-01 -3.02046072e-02 -2.84680814e-01
      -2.81930268e-01 -7.63184667e-01 -8.40835273e-01 4.34964418e-01
      1.82269290e-01 -2.52210468e-01 1.56678423e-01 5.05228460e-01
      -1.85198858e-01 -3.68622057e-02 -5.27982175e-01 -3.04955598e-02
      1.98243245e-01 5.46272337e-01 -2.19405696e-01 -2.11710751e-01
      -4.15993631e-01 5.63232899e-01 -1.65076613e-01 -5.60000658e-01
      8.18653941e-01 -2.31647909e-01 -1.06662348e-01 -8.10039163e-01
      2.45232925e-01 3.60388041e-01 -2.64606774e-01 -3.61227006e-01
      -1.97376773e-01 4.13449198e-01 2.87507385e-01 -6.04917705e-01
      -3.64549905e-01 9.38056827e-01 6.85395002e-01 -1.76470488e-01
      -2.42250841e-02 -1.67238191e-01 -2.60331482e-01 3.72160912e-01
      4.04145628e-01 -4.71125215e-01 -1.86468065e-01 7.00438201e-01
      7.16470927e-02 8.92949551e-02 2.28951320e-01 -2.58002132e-01
      -3.74696851e-01 8.31900656e-01 -4.84569043e-01 -1.03325687e-01
      2.27258459e-01 2.73593038e-01 -2.03020480e-02 -1.22810872e-02
      8.48349780e-02 -2.04364397e-02 3.62631619e-01 5.32830767e-02
      -1.48566877e-02 -2.65747786e-01 -3.99713852e-02 -2.69836575e-01</_>
    <_>
      1.56567767e-01 -2.66310185e-01 -3.45611751e-01 -6.85970709e-02
      1.00454964e-01 6.63863420e-02 -4.91082780e-02 -1.59285486e-01
      -1.27011947e-02 7.12221414e-02 -6.19612187e-02 -8.18470493e-02
      1.32271694e-02 8.05484429e-02 4.56948318e-02 -1.23467736e-01
      -3.56929064e-01 1.46366552e-01 1.36247054e-01 2.97379651e-04
      -1.37712970e-01 1.70269459e-01 1.63276851e-01 -1.01283349e-01
      -4.36959475e-01 -1.47464588e-01 1.67241737e-01 -4.59642559e-02
      -2.84915436e-02 -3.93510386e-02 6.43539876e-02 1.04220314e-02
      -1.03621103e-01 -1.34386301e-01 1.03294671e-01 1.04571328e-01
      2.26035252e-01 -2.72582211e-02 -4.07637626e-01 -5.23374565e-02
      2.54608870e-01 2.08722323e-01 -1.72501668e-01 -2.05387235e-01
      1.41817302e-01 1.24445170e-01 -7.32358322e-02 -1.16743840e-01
      9.63989422e-02 3.76591891e-01 2.29488872e-02 -2.33961388e-01
      -3.60002965e-01 -1.58408821e-01 -2.06161328e-02 -1.31039336e-01
      -4.90204357e-02 3.59669328e-01 2.83919107e-02 3.08818221e-02
      -7.35259876e-02 1.14376880e-01 9.09465477e-02 -3.29453409e-01
      -1.53258115e-01 2.05617070e-01 2.43889347e-01 -4.83976342e-02
      -2.61266619e-01 1.90472052e-01 1.10740110e-01 5.19485958e-02
      8.29205886e-02 -1.32929981e-01 -1.86652437e-01 -1.69056013e-01
      2.49980971e-01 3.53304058e-01 5.51967807e-02 -2.88144976e-01
      -1.09772183e-01 -1.15718082e-01 -1.15901135e-01 6.49665296e-02
      1.41753867e-01 -5.95350303e-02 5.87336905e-02 1.07611241e-02
      -1.69948846e-01 -2.75454640e-01 -6.81932792e-02 2.27987897e-02
      1.32083282e-01 -4.92903404e-02 -1.02862611e-01 -8.08815062e-02
      8.18958320e-03 1.38794646e-01 1.29888421e-02 -4.14786875e-01
      6.80430308e-02 1.01767071e-01 1.00549508e-03 -8.42712224e-02
      -2.58896537e-02 2.23446086e-01 2.46051744e-01 -1.09190330e-01
      -4.56362218e-02 2.73146238e-02 1.85582004e-02 -4.22107220e-01
      -7.16801733e-02 5.36227264e-02 1.84583187e-01 1.74495652e-02
      -4.17018756e-02 1.12097347e-02 6.50283396e-02 2.34862775e-01
      1.50386959e-01 -1.36517435e-01 -1.75294667e-01 8.45456570e-02
      6.76390752e-02 -4.59642075e-02 1.31765679e-01 -9.04726423e-03
      -1.10167809e-01 1.13980852e-01 -1.17527426e-03 -8.84684622e-02
      -1.98188163e-02 -4.47414175e-04 4.72624488e-02 1.20378453e-02
      -2.70011257e-02 -8.59817564e-02 -3.96514945e-02 -2.57584065e-01
      1.49220720e-01 7.66406655e-02 -5.55970483e-02 -1.55043527e-02</_>
    <_>
      5.81665218e-01 -5.08215308e-01 -4.75219756e-01 2.08574571e-02
      1.08101398e-01 -1.29810631e-01 -1.16241418e-01 4.88062799e-02
      -1.05738175e+00 1.14397153e-01 7.91495144e-01 -4.01668489e-01
      -1.75675869e-01 1.73664913e-01 -2.14616165e-01 -2.92974621e-01
      -9.14697051e-01 1.33672848e-01 7.32826814e-03 -4.57065105e-01
      7.96156749e-02 -1.33145358e-02 4.88232583e-01 4.54713628e-02
      -5.45333743e-01 2.45797962e-01 6.43158378e-03 -8.20645273e-01
      2.09724888e-01 -1.29394075e-02 8.49368498e-02 5.85853048e-02
      7.95610771e-02 3.65799993e-01 -7.08482042e-02 2.95110911e-01
      1.33455306e-01 6.08792230e-02 -1.19652319e+00 2.73149274e-02
      4.68243122e-01 5.49665570e-01 -6.47471666e-01 -4.59311366e-01
      1.10693723e-01 4.52779114e-01 5.59622273e-02 -2.09167227e-01
      -3.49070162e-01 8.63231003e-01 6.43798351e-01 -1.30505300e+00
      -1.32185054e+00 -8.14678431e-01 1.99598391e-02 -3.82349670e-01
