<?xml version="1.0"?>
<opencv_storage>
<opencv_ml_svm>
  <format>3</format>
  <svmType>C_SVC</svmType>
  <kernel>
    <type>LINEAR</type></kernel>
  <C>1.2500000000000000e+01</C>
  <term_criteria><epsilon>1.1920928955078125e-07</epsilon>
    <iterations>1000</iterations></term_criteria>
  <var_count>144</var_count>
  <class_count>4</class_count>
  <class_labels type_id="opencv-matrix">
    <rows>4</rows>
    <cols>1</cols>
    <dt>i</dt>
    <data>
      10 11 12 13</data></class_labels>
  <sv_total>6</sv_total>
  <support_vectors>
    <_>
      4.78661731e-02 8.61922950e-02 -2.26583734e-01 -1.59464628e-02
      -6.56560436e-02 -1.16320960e-01 -1.40455529e-01 -1.66756380e-02
      1.46138996e-01 2.84678023e-02 1.64233044e-01 -3.62677835e-02
      -9.13678333e-02 -2.80436296e-02 9.73522384e-03 2.88489088e-02
      -7.42860585e-02 -7.18706027e-02 6.37366483e-03 2.12715745e-01
      7.41524771e-02 8.35893825e-02 6.24553813e-03 -7.08161369e-02
      -2.02307522e-01 -2.47079492e-01 -1.60163730e-01 2.65463628e-02
      2.07190216e-01 1.96779326e-01 1.45158187e-01 -1.25488803e-01
      -6.55388162e-02 4.27919254e-03 -8.47371295e-02 -2.08706096e-01
      -3.18476860e-03 -8.18545148e-02 -2.73668319e-01 6.05830289e-02
      1.58983901e-01 7.20453914e-03 -1.60850793e-01 -1.20044492e-01
      3.62319462e-02 5.44812419e-02 3.44116800e-02 -1.14603966e-01
      -1.36121213e-01 3.52011696e-02 2.73242444e-02 -1.12640701e-01
      -3.20812725e-02 7.98648447e-02 7.58178756e-02 2.01884180e-01
      6.84231371e-02 -2.59694364e-02 4.79673222e-03 1.54300965e-02
      7.64771691e-03 -2.40298942e-01 -8.94936472e-02 -4.20510396e-03
      2.12491602e-01 2.53734767e-01 1.05199544e-02 -5.18433526e-02
      -3.49931270e-02 8.80267397e-02 -7.09427744e-02 -2.63437867e-01
      4.28992957e-02 8.46915785e-03 -7.95375258e-02 -1.28329411e-01
      9.28149223e-02 9.31213200e-02 -1.16336010e-01 -9.41532478e-02
      -4.09921110e-02 -1.05145060e-01 -6.21492974e-02 -1.89045556e-02
      -1.06698498e-01 1.93097398e-01 -2.59203706e-02 -7.17574582e-02
      5.13101742e-03 -2.17782799e-02 -4.33795042e-02 1.12027727e-01
      6.04023486e-02 -2.03938887e-01 2.93833874e-02 1.64907333e-02
      -1.40355695e-02 -1.23146981e-01 -7.03843385e-02 -2.81136781e-02
      1.82548583e-01 1.37096435e-01 -5.18986396e-03 -7.73273334e-02
      -8.73601064e-03 -8.73689950e-02 -1.15803763e-01 -2.27308244e-01
      -6.07780851e-02 -2.63994057e-02 -5.83065599e-02 -3.18772495e-01
      9.58407950e-03 3.96682024e-02 -1.02228802e-02 -5.90684824e-02
      -6.30636290e-02 -1.37346253e-01 -8.61533359e-02 -8.82005766e-02
      -3.60960066e-02 -2.21596193e-02 -1.58702239e-01 -7.40163028e-02
      -1.30593870e-02 -3.77635062e-02 3.40237096e-02 1.21296130e-01
      5.84554151e-02 -1.01783864e-01 -8.57666656e-02 -1.12949669e-01
      -9.41754878e-02 -1.95868500e-02 -2.19948292e-02 7.01630265e-02
      -2.23046597e-02 1.13050327e-01 -3.88781540e-02 1.37058273e-02
      1.09629733e-02 -2.57894602e-02 -2.19023041e-02 -5.75736277e-02</_>
    <_>
      1.38349667e-01 4.85726483e-02 -1.14935480e-01 -4.90753874e-02
      -5.40970527e-02 -5.02281785e-02 -9.07641947e-02 -8.61313045e-02
      5.50119095e-02 7.61559978e-02 6.83214888e-02 -4.45390083e-02
      -8.77962857e-02 -2.91441120e-02 3.17611941e-03 -2.71013426e-03
      -7.23417625e-02 7.43168686e-03 -6.57605287e-03 9.61114168e-02
      1.97384153e-02 -2.73863319e-02 3.99180055e-02 3.46900932e-02
      -2.34813578e-02 -9.12275240e-02 -8.36997777e-02 -5.72193451e-02
      1.03839025e-01 8.16566795e-02 1.36476606e-02 5.16579263e-02
      6.50023445e-02 7.18794391e-02 -7.28320926e-02 -1.43961057e-01
      9.09815729e-02 -3.77054559e-03 -9.97055024e-02 -1.72705445e-02
      3.21801230e-02 2.09819544e-02 -6.37209266e-02 -9.97403860e-02
      3.16303670e-02 4.23237830e-02 -7.52360150e-02 -1.16620243e-01
      -7.62712955e-02 6.68990836e-02 5.88408783e-02 -2.11642142e-02
      -5.23668863e-02 1.30317388e-02 8.34497437e-03 4.38506342e-02
      1.19022131e-02 9.97007452e-03 3.04056634e-03 4.07131687e-02
      -2.77961791e-02 -6.33519515e-02 -3.71415541e-02 -3.30631211e-02
      8.35686028e-02 7.83622861e-02 -3.22541967e-02 -7.31172562e-02
      6.49428042e-03 4.08495329e-02 -4.68384195e-03 -3.32770087e-02
      3.28019224e-02 -3.33873406e-02 -8.09943601e-02 1.55257303e-02
      1.03667304e-01 6.62433729e-02 -5.83267026e-02 -1.04171090e-01
      7.36688264e-03 -7.44250650e-03 -6.07980080e-02 -6.38213307e-02
      -5.56268319e-02 7.35465437e-02 7.69223347e-02 -2.63045151e-02
      -5.22340760e-02 -1.41558121e-03 4.84833196e-02 8.78835171e-02
      4.96288054e-02 -2.85741594e-02 -8.14194418e-03 -5.31963855e-02
      -9.19385254e-02 -6.10373206e-02 -1.06671483e-04 3.28370333e-02
      1.29603222e-01 6.34791106e-02 -5.95211834e-02 -9.74304006e-02
      -1.76623780e-02 -7.24537391e-03 1.78308357e-02 -4.77074180e-03
      -3.91310110e-04 -3.50330286e-02 -6.29907027e-02 -5.24788462e-02
      2.19000578e-02 -7.83023518e-03 -1.05548315e-01 -6.38100877e-02
      -3.41617852e-05 -5.47994568e-04 -2.03323718e-02 -3.60417515e-02
      -9.09267068e-02 5.03658988e-02 1.69262029e-02 -5.38913943e-02
      -5.56970648e-02 -2.69691463e-05 5.59109263e-02 1.32565394e-01
      9.12043825e-02 -1.28288651e-02 -7.91712478e-02 -9.04073045e-02
      -1.18292026e-01 -9.72022489e-02 0. 4.18360010e-02 7.02005178e-02
      5.99424653e-02 -4.14198823e-02 -4.44581062e-02 4.83295955e-02
      4.89977375e-02 -3.42764072e-02 0.</_>
    <_>
      4.33765389e-02 -1.63507299e-03 -9.08123627e-02 -6.45574415e-03
      9.23974440e-03 -5.88172674e-02 -1.27879202e-01 -4.12096940e-02
      1.24872468e-01 7.34042078e-02 8.23105723e-02 -9.90874171e-02
      -5.69147915e-02 -7.25597367e-02 8.47019430e-04 -6.42451942e-02
      -8.56582224e-02 -7.26267993e-02 -5.43211959e-02 1.47872701e-01
      9.73287784e-03 8.58171284e-03 6.10472001e-02 -1.83075089e-02
      -1.42971352e-01 -4.10710461e-02 -1.35538921e-01 -9.76673439e-02
      7.15795383e-02 -4.02571596e-02 -3.89798954e-02 1.62259266e-02
      6.44105822e-02 8.72921795e-02 -9.59661137e-03 -1.64678946e-01
      -2.85882154e-03 -2.82082502e-02 -2.38093093e-01 1.37176160e-02
      1.12737551e-01 1.18764631e-01 -9.61312726e-02 -1.77906841e-01
      -3.61049101e-02 -5.92865720e-02 -7.02223554e-02 -1.12078480e-01
      -1.13417037e-01 1.79291785e-01 1.38518676e-01 -7.78355971e-02
      -2.15721548e-01 -9.50532258e-02 5.69798518e-03 9.61001888e-02
      1.29794836e-01 3.56577709e-02 2.26109773e-02 1.56995673e-02
      -6.48401082e-02 -2.05828205e-01 -1.20987773e-01 -9.00150612e-02
      -6.66195974e-02 4.63954248e-02 -6.80953935e-02 -7.80984536e-02
      1.20063983e-02 -9.69862624e-04 -1.28251286e-02 2.29195151e-02
      8.03782046e-03 -4.52951901e-02 -1.34781018e-01 -9.88022164e-02
      5.01306430e-02 1.68301702e-01 2.52064085e-03 -1.07440293e-01
      -6.21305108e-02 -7.31727034e-02 -2.43684538e-02 -1.04664877e-01
      -2.43674472e-01 1.01905882e-01 1.49047300e-01 -2.71040555e-02
      -1.54065654e-01 -1.25145569e-01 -4.93050888e-02 1.45187750e-01
      1.35678500e-01 -6.46238774e-02 -1.49901947e-02 2.50779688e-02
      -9.31586176e-02 -2.91299343e-01 -2.41260543e-01 -1.15048088e-01
      2.26477291e-02 4.10211571e-02 9.35328081e-02 -5.87006286e-03
      4.49388725e-04 -2.50003170e-02 -5.14895432e-02 -1.31769076e-01
      -8.06437284e-02 -3.06604896e-02 -1.64257094e-01 -2.56062210e-01
      2.01396849e-02 6.90882504e-02 -7.90020004e-02 -5.15425056e-02
      -1.03755414e-01 -7.29290172e-02 -8.88600852e-03 -1.62739471e-01
      -2.36495286e-01 1.77039877e-02 6.82050511e-02 -2.26787552e-02
      -7.75519386e-02 -1.12864345e-01 -2.15077512e-02 1.72307864e-01
      8.72628018e-02 -7.85999224e-02 2.85230745e-02 -1.01333745e-02
      -7.11129829e-02 -1.63917050e-01 -1.92837015e-01 -2.25205044e-03
      4.52360883e-02 1.02644049e-01 1.74966659e-02 -9.57687385e-03
      -1.74187520e-03 -4.64940220e-02 -5.58754988e-02 -5.34176752e-02</_>
    <_>
      3.52253854e-01 1.82861462e-02 -1.63760528e-01 -6.32704124e-02
      -7.65078440e-02 2.45266501e-02 -9.08735022e-02 -2.15602621e-01
      9.77680758e-02 1.63464844e-01 9.14368778e-02 -1.80807784e-02
      -9.61485282e-02 1.28702717e-02 6.73597902e-02 3.22688161e-03
      -1.08022176e-01 7.38460049e-02 8.14416185e-02 1.53633505e-02
      -2.64081992e-02 -6.80729896e-02 4.04579304e-02 1.39016360e-01
      7.81936198e-02 -7.26045817e-02 -1.99362338e-02 -7.79989660e-02
      4.44374643e-02 3.27116735e-02 -4.52789292e-02 1.98495716e-01
      1.87110364e-01 1.30469233e-01 -1.87396184e-01 -1.76790923e-01
      1.13180034e-01 -4.42822389e-02 -1.21780507e-01 -8.34978595e-02
      7.93356448e-02 9.50559005e-02 -3.72385047e-02 -2.85494812e-02
      4.54650000e-02 1.06767409e-01 -1.78012662e-02 -8.32055882e-02
      -9.17225927e-02 3.66885923e-02 1.09380335e-01 -5.30120470e-02
      -1.42087996e-01 -3.09308106e-03 -5.21847270e-02 1.21330312e-02
      1.85291059e-02 8.69080126e-02 6.05265722e-02 1.41241357e-01
      3.45211080e-03 -3.73390168e-02 -1.59298200e-02 -1.06972419e-01
      1.05125569e-02 -3.88428122e-02 -1.38196751e-01 -1.55840022e-02
      8.84262770e-02 1.13709688e-01 7.37639442e-02 1.00876696e-01
      7.47519583e-02 -3.02546937e-02 -8.20525363e-02 9.84724313e-02
      1.19672775e-01 -1.01908505e-01 -6.86319619e-02 -4.87082116e-02
      1.48382962e-01 1.08678073e-01 -2.81075574e-02 -9.91259143e-02
      -4.16080095e-02 -3.70120327e-03 9.70762968e-02 5.69804292e-03
      -1.09028168e-01 7.65936971e-02 1.40137866e-01 2.93020252e-02
      4.66078036e-02 1.49604961e-01 5.18132607e-03 -8.28477591e-02
      -1.13892220e-01 1.01592271e-02 1.34377718e-01 8.63623619e-02
      6.90196007e-02 2.73427386e-02 -8.49237740e-02 -2.00938955e-01
      -3.52468081e-02 -8.87656435e-02 1.94434121e-01 3.35634351e-01
      1.39004737e-01 -1.65593643e-02 -9.49146226e-02 1.26790285e-01
      -3.11863841e-03 -1.29762873e-01 -2.02162445e-01 -7.16468245e-02
      1.77057669e-01 1.59298792e-01 2.74940804e-02 -1.23035327e-01
      -1.63209334e-01 7.99013078e-02 1.53846353e-01 -3.34518664e-02
      -1.50647789e-01 6.35517836e-02 8.28104243e-02 5.89527749e-02
      2.13443696e-01 8.85292441e-02 -1.23880200e-01 -5.74822873e-02
      -1.55019090e-01 -2.00815544e-01 1.76530480e-02 5.69361150e-02
      8.91627669e-02 1.89601228e-01 1.04577124e-01 -9.11724567e-02
      -6.32038563e-02 -2.91808937e-02 7.31187165e-02 1.55814201e-01</_>
    <_>
      2.50877328e-02 3.36755370e-03 2.03735575e-01 3.36878262e-02
      2.35816315e-02 4.17251587e-02 5.52674246e-05 -8.64014030e-02
      3.93598042e-02 6.15834035e-02 -7.34193698e-02 -4.98321056e-02
      2.05078553e-02 -9.67143402e-02 -1.05307810e-03 7.71108866e-02
      9.57226753e-02 -7.04064965e-02 -9.06446949e-02 -4.44480181e-02
      -6.80240393e-02 -1.31593505e-02 -5.83436452e-02 -2.95358780e-03
      6.23228289e-02 2.20460594e-01 -2.52038576e-02 -1.12089753e-01
      -1.82527572e-01 -3.91783088e-01 -2.53541768e-01 1.35305554e-01
      2.35636935e-01 9.14757624e-02 6.28333613e-02 7.32083470e-02
      -5.23616746e-02 1.03525497e-01 6.90930011e-03 -2.24718284e-02
      5.17058671e-02 1.49733990e-01 -8.76258612e-02 -1.31618127e-01
      -5.79940230e-02 -1.58950239e-01 -1.05047308e-01 1.70147326e-02
      2.93905269e-02 5.13921492e-02 1.81020703e-02 1.85378473e-02
      -1.05102204e-01 -2.41311148e-01 -1.35511160e-01 -7.50720650e-02
      3.85473520e-02 1.91335808e-02 1.77467003e-01 7.11577386e-02
      -4.19847704e-02 -5.26450053e-02 -5.52795269e-03 -1.60544336e-01
      -6.89180613e-01 -5.67186356e-01 -1.94405451e-01 2.68812537e-01
      1.69265240e-01 -3.68129350e-02 1.62781179e-01 3.91675621e-01
      2.59361919e-02 3.85146076e-03 -2.00879071e-02 -3.17488126e-02
      8.28182995e-02 -8.59378651e-02 4.07335013e-02 1.79491397e-02
      2.02814396e-02 1.92674380e-02 9.90081951e-03 -5.11396080e-02
      -1.89684510e-01 -1.13573149e-02 2.93419361e-01 5.00877714e-03
      -1.63803250e-01 -9.35551673e-02 -1.42477944e-01 -4.27147709e-02
      5.32868877e-02 1.51340991e-01 1.43661678e-01 2.36303255e-01
      -6.31077588e-02 -1.67314827e-01 -2.20311716e-01 -2.36940861e-01
      -4.79731590e-01 -2.81720072e-01 2.25394204e-01 1.93298433e-03
      4.41245129e-03 3.42157274e-03 2.18244821e-01 2.47577354e-01
      4.61501479e-02 -3.02616209e-02 -1.15098424e-01 -3.22017670e-02
      6.17947094e-02 -4.62788492e-02 -9.92876887e-02 5.64343445e-02
      1.73495468e-02 4.63636667e-02 1.47214353e-01 -1.05434708e-01
      -3.60894173e-01 7.49572413e-03 1.67414770e-01 2.50322185e-02
      -7.62739033e-02 -9.08266306e-02 4.74794023e-02 6.59897551e-02
      -5.82502410e-02 -1.29407376e-01 1.31745473e-01 1.80355847e-01
      6.39894977e-02 -1.29201844e-01 -1.57337740e-01 -1.82832535e-02
      6.12360984e-02 1.03071325e-01 1.51284397e-01 -1.09206252e-01
      -2.73788959e-01 -2.80646950e-01 2.24222258e-01 1.97589085e-01</_>
    <_>
      -2.06805170e-01 -2.53430959e-02 1.70463324e-01 1.06838951e-02
      3.60222012e-02 -2.99879313e-02 4.31705564e-02 1.20352454e-01
      -8.98942947e-02 -1.22589573e-01 -1.16619132e-01 6.55447468e-02
      9.55283120e-02 6.56205043e-02 -1.81340203e-02 1.52479326e-02
      4.16699238e-02 -1.19771205e-01 3.93497385e-03 -5.54232188e-02
      -2.32155249e-02 -3.69205698e-02 -8.26536119e-02 -1.14717349e-01
      2.11350694e-02 1.51962236e-01 3.54057476e-02 -2.99520511e-02
      -1.15996733e-01 -2.26418421e-01 -7.06209168e-02 -6.28492162e-02
      3.58293951e-02 -7.21029053e-03 1.32833317e-01 8.03373903e-02
      -1.32815644e-01 -2.05386169e-02 1.11240506e-01 3.29890363e-02
      3.06515140e-03 -8.51662308e-02 2.80487780e-02 4.77443896e-02
      -6.64770007e-02 -1.54412284e-01 -4.94307000e-03 6.77518249e-02
      1.07326604e-01 6.64717257e-02 -3.30239423e-02 9.38315783e-03
      3.16493288e-02 -3.05020753e-02 -5.52033484e-02 -5.37723266e-02
      3.50903757e-02 -1.12140889e-03 1.92758609e-02 -3.99666280e-02
      -5.63836517e-03 -4.25576465e-03 -3.38432752e-02 -2.16283277e-02
      -3.34372997e-01 -1.89056516e-01 4.41899933e-02 1.12265058e-01
      8.02074969e-02 -1.22982841e-02 1.42898992e-01 6.70330673e-02
      -1.97324082e-01 -7.24347979e-02 9.26128849e-02 -8.58684443e-03
      -7.30982870e-02 1.17131101e-03 1.20226681e-01 5.98087050e-02
      -1.87463850e-01 -1.26700357e-01 3.49009074e-02 5.86578362e-02
      -6.73735142e-02 -9.14432406e-02 3.29070212e-03 4.61500622e-02
      1.03121987e-02 -8.14729854e-02 -2.40323439e-01 -1.00505769e-01
      -2.51134229e-03 2.92180218e-02 1.44561892e-02 1.51898175e-01
      7.01502562e-02 1.64735373e-02 -2.10416794e-01 -1.86412141e-01
      -2.99611688e-01 -9.21422541e-02 2.09364519e-01 1.55137628e-01
      -5.12496457e-02 -1.40420459e-02 5.33571690e-02 -7.30504245e-02
      -9.10760984e-02 -5.29225469e-02 -1.23004038e-02 -5.95703982e-02
      -3.76889706e-02 1.73277594e-02 1.66330859e-01 1.05823703e-01
      -1.02990367e-01 -7.28356466e-02 3.80607136e-02 3.68591174e-02
      -5.08366004e-02 -7.04964343e-03 -3.57326046e-02 2.53107157e-02
      4.73392457e-02 -7.13453665e-02 -1.76773190e-01 -9.79669541e-02
      -1.04203701e-01 -1.77084338e-02 1.26850501e-01 1.20824814e-01
      1.29686728e-01 8.53229836e-02 -1.93112299e-01 -1.14905976e-01
      -1.61908343e-01 -3.79923657e-02 2.72718389e-02 1.07953072e-01
      -1.02656387e-01 -1.12869211e-01 1.69528499e-01 -6.00725226e-02</_></support_vectors>
  <uncompressed_sv_total>69</uncompressed_sv_total>
  <uncompressed_support_vectors>
    <_>
      4.60655063e-01 4.01514292e-01 5.67123620e-03 0. 4.53915060e-01
      4.60655063e-01 5.48894368e-02 3.50364065e-03 4.47976351e-01
      4.92142975e-01 3.85620087e-01 3.06638125e-02 0. 4.92142975e-01
      4.92142975e-01 4.68771346e-02 0. 3.41511369e-01 2.16720089e-01
      4.05579895e-01 3.08856994e-01 4.51445132e-02 4.81596291e-01
      4.81596291e-01 4.64459866e-01 0. 8.18755701e-02 1.64731622e-01
      4.24221843e-01 4.24221843e-01 1.94112062e-01 4.24221843e-01
      4.24221843e-01 4.24221843e-01 1.76412627e-01 1.96900242e-03
      1.97921559e-01 6.22025654e-02 1.12107312e-02 8.23663473e-02
      6.01315379e-01 6.01315379e-01 4.61582989e-01 4.17623892e-02
      7.79783949e-02 2.88867801e-02 0. 0. 0. 7.02863336e-01
      7.02863336e-01 5.98747991e-02 7.61251524e-03 2.17354409e-02
      3.53839934e-01 5.63095093e-01 5.63095093e-01 0. 3.80666375e-01
      2.95776755e-01 5.12969196e-02 0. 0. 2.01309472e-01 4.55614537e-01
      4.55614537e-01 0. 2.64417497e-04 4.55614537e-01 4.55614537e-01
      3.52966219e-01 0. 0. 0. 0. 1.47177547e-01 6.82924926e-01
      6.82924926e-01 1.86744377e-01 6.22481219e-02 0. 0. 0. 0. 0. 0. 0.
      9.39206600e-01 3.29425156e-01 0. 4.22698736e-01 6.38338685e-01
      6.38338685e-01 0. 0. 0. 0. 0. 0. 8.06391910e-02 4.43523169e-01
      4.93295401e-01 0. 0. 2.48669505e-01 4.93295401e-01 4.93295401e-01
      0. 0. 0. 0. 0. 0. 0. 0. 0. 0. 0. 0. 0. 0. 0. 0. 0. 0. 0.
      1.94452688e-01 5.51720083e-01 5.51720083e-01 5.51720083e-01
      1.64113775e-01 1.21075422e-01 4.35993858e-02 0. 0. 4.77596410e-02
      2.01016441e-01 3.56986582e-01 2.33765364e-01 1.52626559e-01
      5.03251255e-01 5.03251255e-01 4.90286916e-01 0.</_>
    <_>
      5.72312653e-01 5.72312653e-01 3.04313511e-01 0. 0. 0.
      6.79027347e-04 2.26342469e-04 4.96582717e-01 4.32820469e-01
      2.44980022e-01 1.94342434e-01 0. 4.32820469e-01 4.32820469e-01
      4.32820469e-01 2.38994230e-02 3.84690583e-01 1.89014599e-02
      6.92453459e-02 5.12898624e-01 4.45925057e-01 5.12898624e-01
      5.12898624e-01 3.80354710e-02 9.28591704e-04 1.52843464e-02
      4.77961870e-03 1.82862654e-01 4.51056004e-01 3.36937308e-01
      4.51056004e-01 4.51056004e-01 4.51056004e-01 1.86218470e-01
      4.77961870e-03 8.23254138e-02 1.29362240e-01 2.08886087e-01
      3.71212572e-01 6.27111495e-01 6.27111495e-01 3.46031832e-03
      1.15343952e-03 4.73662354e-02 0. 3.19131505e-04 9.57394543e-04 0.
      5.75599849e-01 5.75599849e-01 5.75599849e-01 1.74881071e-02 0.
      8.17200355e-03 4.55410063e-01 4.55410063e-01 2.74688512e-01
      4.55410063e-01 4.55410063e-01 3.00440431e-01 8.53405427e-03 0.
      9.03381617e-04 4.88091826e-01 4.94357556e-01 7.14794844e-02
      1.51854619e-01 9.96596217e-02 4.94357556e-01 4.79529172e-01 0. 0.
      0. 7.07362071e-02 3.56530607e-01 6.56250954e-01 6.56250954e-01 0.
      0. 0. 0. 9.68662798e-02 2.90598840e-01 0. 6.35894358e-01
      6.35894358e-01 3.01702619e-01 8.52533057e-03 0. 2.75978416e-01
      6.74489737e-01 6.74489737e-01 3.56028229e-02 2.51879338e-02
      5.43267801e-02 4.84556630e-02 4.76972666e-03 2.30691512e-03
      6.53292984e-02 4.64734524e-01 4.64734524e-01 1.32087311e-02
      1.04913274e-02 3.82395178e-01 4.64734524e-01 4.43437010e-01
      2.93275947e-03 0. 0. 0. 1.35568812e-01 6.98087513e-01
      6.98087513e-01 0. 0. 0. 0. 6.99147880e-01 6.99147880e-01 0.
      1.21736340e-01 2.41967868e-02 0. 0. 0. 2.09051389e-02
      5.63835859e-01 5.63835859e-01 5.63835859e-01 1.81529656e-01
      8.21390823e-02 2.12043263e-02 7.06810923e-03 6.62582868e-04
      5.18099125e-03 5.24870940e-02 3.30467999e-01 3.68663013e-01
      4.65728372e-01 5.14001548e-01 5.14001548e-01 4.08000089e-02
      6.94981602e-04</_>
    <_>
      6.49513304e-01 6.49513304e-01 1.47843540e-01 0. 0. 0. 0. 0.
      3.57662916e-01 5.84812284e-01 5.84812284e-01 2.38183796e-01 0.
      1.63158163e-01 9.36837345e-02 0. 0. 4.66927111e-01 4.73011225e-01
      7.10128695e-02 2.41787121e-01 2.54115731e-01 4.81998175e-01
      4.81998175e-01 2.30707631e-01 7.69025534e-02 3.45807880e-01
      3.97761047e-01 2.71072388e-01 3.97761047e-01 3.97761047e-01
      3.97761047e-01 2.80853570e-01 2.17573866e-01 7.25246221e-02
      3.97761047e-01 1.87906221e-01 4.40951794e-01 2.33984530e-01
      1.78572387e-01 5.76058447e-01 5.76058447e-01 0. 0. 1.19067453e-01
      0. 0. 0. 0. 7.04615593e-01 7.04615593e-01 0. 0. 0. 0.
      1.69338226e-01 5.44744015e-01 2.75038809e-01 5.44744015e-01
      5.44744015e-01 0. 0. 0. 0. 5.29603660e-01 5.29603660e-01
      3.74828130e-01 4.92535919e-01 2.20592663e-01 4.44385074e-02
      5.23697818e-03 0. 6.18741789e-04 0. 4.14412469e-02 2.88212806e-01
      6.73975825e-01 6.73975825e-01 0. 0. 6.18741789e-04 0. 0. 0. 0.
      7.04615593e-01 7.04615593e-01 0. 0. 0. 0. 5.77447474e-01
      5.77447474e-01 3.40708606e-02 3.63114297e-01 4.40828741e-01 0. 0.
      0. 0. 5.45925617e-01 5.45925617e-01 7.70278182e-03 2.13822022e-01
      1.63456693e-01 5.45925617e-01 1.67171985e-01 0. 0. 0.
      3.41288163e-03 2.48239443e-01 6.82477951e-01 6.82477951e-01 0. 0.
      0. 0. 0. 0. 0. 7.04615593e-01 7.04615593e-01 0. 0. 0. 0.
      6.38730943e-01 6.38730943e-01 2.03339174e-01 3.65895182e-01
      4.94208895e-02 0. 0. 0. 0. 3.35839897e-01 4.61578667e-01
      1.62201956e-01 4.61578667e-01 4.61578667e-01 4.61578667e-01
      6.38140440e-02 0.</_>
    <_>
      4.98677313e-01 4.98677313e-01 1.74129456e-02 0. 0. 0. 0.
      4.98677313e-01 4.98677313e-01 7.03175366e-01 0. 0. 0.
      1.05957326e-03 0. 0. 6.37828857e-02 7.03175366e-01 6.73676193e-01
      2.91299582e-01 2.39902898e-03 0. 2.70970203e-02 0. 0. 0.
      6.73676193e-01 5.18895149e-01 5.18895149e-01 2.97132134e-01 0.
      2.07921818e-01 1.38679286e-02 5.18895149e-01 2.14988261e-01
      9.55517590e-02 4.42509949e-01 4.22450483e-01 2.78827548e-02
      8.86661708e-02 4.42509949e-01 4.42509949e-01 0. 1.58795640e-01
      4.42509949e-01 5.15221834e-01 0. 0. 0. 5.15221834e-01
      5.15221834e-01 0. 1.19914180e-02 4.45365161e-01 4.87129927e-01
      1.11960508e-02 1.15786277e-01 4.87129927e-01 4.87129927e-01
      4.87129927e-01 0. 0. 1.80057108e-01 1.71115100e-01 1.22895077e-01
      4.35725063e-01 4.35725063e-01 4.35725063e-01 3.39064710e-02
      4.35725063e-01 4.35725063e-01 2.88535859e-02 2.77842395e-03 0.
      1.98184680e-02 2.22790405e-01 6.86695397e-01 6.86695397e-01 0. 0.
      2.77842395e-03 7.95740343e-05 0. 0. 0. 7.04615593e-01
      7.04615593e-01 0. 0. 7.95740343e-05 2.62463503e-02 4.47765261e-01
      4.47765261e-01 4.47765261e-01 4.47765261e-01 4.39162433e-01 0. 0.
      0. 8.36142823e-02 4.68469709e-01 4.68469709e-01 4.62322861e-01
      6.49867132e-02 2.22243667e-02 4.68469709e-01 3.33883345e-01 0. 0.
      0. 0. 9.00917500e-02 7.46390939e-01 6.53707981e-01 0. 0. 0. 0. 0.
      0. 0. 9.54149544e-01 2.82984048e-01 0. 0. 0. 3.01482389e-03
      6.96736157e-01 6.96736157e-01 1.28611088e-01 7.48228282e-02 0.
      3.54365585e-03 1.18121854e-03 0. 6.51774602e-03 4.78271008e-01
      4.78271008e-01 1.29058197e-01 2.39094421e-01 4.78271008e-01
      4.78271008e-01 7.99105987e-02 0.</_>
    <_>
      7.00418115e-01 6.30792558e-01 1.51928253e-02 1.71076460e-03
      1.32645950e-01 1.52051106e-01 1.53543353e-02 9.85141887e-05
      2.51673013e-01 5.43375969e-01 2.57170320e-01 2.28831619e-02 0.
      5.43375969e-01 5.43375969e-01 4.60488871e-02 0. 2.00051829e-01
      2.30785161e-01 2.32474104e-01 4.65378761e-01 1.45190388e-01
      4.65378761e-01 4.65378761e-01 4.65378761e-01 8.56624916e-03
      2.41333582e-02 0. 4.36283588e-01 4.36283588e-01 2.44756803e-01
      4.36283588e-01 4.03953850e-01 4.36283588e-01 1.05753839e-01 0.
      1.88922569e-01 1.51735798e-01 2.03349385e-02 2.42335469e-01
      5.39562106e-01 5.39562106e-01 5.39562106e-01 4.62408905e-04
      5.80888949e-02 1.55952116e-02 5.09929261e-04 0. 0. 6.97110891e-01
      6.97110891e-01 1.44248053e-01 0. 7.94009026e-03 1.00204863e-01
      4.92662042e-01 4.92662042e-01 4.83063469e-03 4.92662042e-01
      4.92662042e-01 1.18869044e-01 4.64917580e-03 0. 9.33421254e-02
      5.20524263e-01 5.20524263e-01 4.44447389e-03 2.44214740e-02
      3.28109451e-02 5.20524263e-01 4.14197624e-01 0. 0. 0. 0.
      3.93942028e-01 6.05672956e-01 6.05672956e-01 3.24164569e-01 0. 0.
      0. 1.39231518e-01 4.17694539e-01 0. 5.16715705e-01 5.16715705e-01
      5.16715705e-01 0. 0. 1.17285877e-01 6.99733078e-01 6.99733078e-01
      0. 2.49805558e-03 2.15380263e-04 0. 0. 0. 5.37875481e-02
      4.77678150e-01 4.77678150e-01 0. 0. 4.77678150e-01 4.77678150e-01
      2.82188088e-01 0. 0. 0. 0. 0. 0. 0. 0. 0. 0. 0. 7.04615593e-01
      7.04615593e-01 0. 0. 0. 0. 0. 0. 8.09051916e-02 5.58849752e-01
      5.58849752e-01 5.58849752e-01 2.04199597e-01 9.61098969e-02 0. 0.
      0. 1.86933782e-02 2.31115386e-01 2.17026308e-01 3.57437044e-01
      5.00300288e-01 5.00300288e-01 5.00300288e-01 1.24406181e-01 0.</_>
    <_>
      6.98015273e-01 6.98015273e-01 2.72201523e-02 0. 2.64491327e-02
      1.45993577e-02 0. 0. 1.30107090e-01 4.91589606e-01 4.91589606e-01
      1.98043913e-01 0. 2.69435823e-01 4.91589606e-01 3.91985595e-01
      5.22068120e-04 6.81122541e-02 1.92081444e-02 8.59775990e-02
      2.95103520e-01 5.36561012e-01 5.36561012e-01 5.36561012e-01
      1.89989164e-01 2.32887804e-03 0. 4.17743213e-02 2.39779815e-01
      5.57001948e-01 5.57001948e-01 5.57001948e-01 1.77709907e-02
      4.21258807e-02 1.40419584e-02 4.64465991e-02 4.75198001e-01
      4.15684670e-01 6.15339875e-02 1.89415470e-01 4.75198001e-01
      4.75198001e-01 3.12891185e-01 8.49693373e-04 8.63372311e-02
      4.40671407e-02 1.61809998e-03 0. 0. 6.29291713e-01 6.29291713e-01
      4.46866810e-01 2.71051005e-03 7.69804465e-03 7.42471889e-02
      4.16542441e-01 4.16542441e-01 4.16542441e-01 3.50342780e-01
      4.16542441e-01 4.16410446e-01 1.25719020e-02 0. 5.46589643e-02
      6.46319807e-01 6.46319807e-01 3.90992582e-01 4.71770018e-02
      3.56993143e-04 0. 0. 0. 3.76174483e-03 0. 3.66963893e-02
      5.11583745e-01 5.11583745e-01 5.11583745e-01 4.56449956e-01
      4.77127172e-03 2.60456395e-03 0. 0. 0. 0. 5.75502157e-01
      5.75502157e-01 5.75502157e-01 2.53975596e-02 0. 1.97940812e-01
      6.89971387e-01 6.89971387e-01 3.34207304e-02 1.54105434e-02
      2.12138444e-02 2.49007717e-03 0. 0. 1.78970098e-01 4.89207357e-01
      4.89207357e-01 4.53529172e-02 4.89207357e-01 4.89207357e-01
      6.10856079e-02 0. 0. 0. 0. 1.11232132e-01 3.77953410e-01
      6.62057340e-01 6.26879454e-01 8.28926638e-02 0. 0. 0. 0. 0. 0.
      6.65682137e-01 6.65682137e-01 3.27244431e-01 0. 0. 3.52807037e-05
      5.40053546e-01 5.40053546e-01 5.40053546e-01 3.44763041e-01
      2.77799610e-02 0. 0. 0. 1.01395723e-04 7.83224106e-02
      4.17101711e-01 4.51492518e-01 4.51492518e-01 4.51492518e-01
      4.51492518e-01 0. 0.</_>
    <_>
      5.75662017e-01 5.75662017e-01 9.56477970e-03 0. 0. 0. 0. 0.
      5.75662017e-01 6.39203429e-01 6.39203429e-01 5.57832755e-02 0. 0.
      0. 0. 0. 4.16346580e-01 6.54165208e-01 6.54165208e-01
      2.79910825e-02 3.93106714e-02 2.65896231e-01 9.66469795e-02
      3.44221778e-02 1.35900266e-03 2.32481897e-01 3.57863337e-01
      4.14083153e-01 8.16875398e-02 4.30256426e-02 7.66537264e-02
      4.73284721e-01 4.73284721e-01 4.73284721e-01 9.66779739e-02
      5.74530900e-01 5.74530900e-01 3.62639502e-03 0. 5.57914637e-02
      2.76661851e-02 1.06804203e-02 5.57935797e-04 5.74530900e-01
      4.62664187e-01 4.62664187e-01 5.18533066e-02 0. 4.11923140e-01
      4.62664187e-01 2.13125810e-01 4.10913199e-05 3.67984027e-01
      1.86532244e-01 1.98454157e-01 2.38023072e-01 4.71589416e-01
      4.71589416e-01 4.71589416e-01 4.40983564e-01 1.28476101e-03
      5.28995283e-02 6.52493536e-02 6.08053133e-02 4.40027773e-01
      4.40027773e-01 1.65044174e-01 1.88090429e-01 4.40027773e-01
      4.40027773e-01 3.87987792e-01 5.19365966e-01 1.93156496e-01
      2.73918966e-04 8.69302675e-02 5.19365966e-01 5.19365966e-01
      2.94976085e-01 4.53573512e-03 2.31716305e-01 5.98781668e-02
      3.12889367e-02 1.34068681e-03 0. 6.17692530e-01 6.17692530e-01
      4.75140005e-01 2.81494949e-03 2.03091465e-02 9.68289822e-02
      2.98876703e-01 4.38226789e-01 3.86722714e-01 4.38226789e-01
      4.38226789e-01 4.13806975e-01 0. 7.13635178e-04 2.81023383e-01
      5.48267663e-01 5.48267663e-01 5.48267663e-01 9.45747271e-03
      8.93206522e-03 6.05408894e-03 1.00837186e-01 5.81770390e-02 0. 0.
      0. 1.08959049e-01 6.80521190e-01 6.80521190e-01 2.34683350e-01
      6.30996050e-03 0. 0. 0. 0. 0. 5.94346285e-01 5.94346285e-01
      5.35840094e-01 2.11140290e-02 0. 5.61916232e-01 5.82408369e-01
      5.82408369e-01 0. 5.95210772e-03 0. 0. 0. 0. 4.67295974e-01
      4.67295974e-01 4.64032769e-01 3.61048058e-02 1.69604048e-01
      4.67295974e-01 3.03709865e-01 5.09969518e-02 0.</_>
    <_>
      6.02787673e-01 6.02787673e-01 8.70683230e-03 0. 6.19263900e-03 0.
      0. 0. 5.16876400e-01 6.12459898e-01 6.12459898e-01 3.73064540e-02
      6.55929651e-03 1.53389707e-01 3.46501112e-01 9.29363593e-02
      5.02058677e-03 2.99970001e-01 4.68280703e-01 4.68280703e-01
      8.65881965e-02 5.19311465e-02 4.68280703e-01 4.68280703e-01
      3.00623715e-01 4.88873618e-03 1.32599026e-01 1.40413329e-01
      4.71188039e-01 4.71188039e-01 4.71188039e-01 4.71188039e-01
      2.66511083e-01 6.83956221e-02 5.38609140e-02 9.43300352e-02
      4.61638600e-01 4.61638600e-01 8.29349235e-02 2.31049389e-01
      4.61638600e-01 4.61638600e-01 1.84883088e-01 0. 2.20237151e-01
      2.33868331e-01 6.88845143e-02 1.55586808e-03 1.51638151e-03
      5.79811692e-01 5.79811692e-01 5.05793869e-01 6.85227523e-03
      8.07994679e-02 2.65158955e-02 4.45819765e-01 4.45819765e-01
      1.59297734e-02 4.45819765e-01 4.45819765e-01 4.45819765e-01
      2.85012815e-02 1.16748968e-03 1.20553896e-01 6.16985261e-01
      6.16985261e-01 1.18051574e-01 4.00316358e-01 1.10749274e-01
      1.76167220e-01 2.17973497e-02 0. 1.78323442e-03 1.07660415e-02
      7.88886994e-02 5.65904856e-01 5.65904856e-01 5.65904856e-01
      1.65104255e-01 0. 1.45246298e-03 0. 0. 0. 0. 5.75680912e-01
      5.75680912e-01 5.75680912e-01 5.10572689e-03 0. 1.76388979e-01
      6.88461959e-01 6.88461959e-01 0. 5.79294488e-02 1.01636432e-01
      1.90930832e-02 2.05977494e-03 0. 7.08639547e-02 5.48083544e-01
      5.48083544e-01 0. 1.06460281e-01 2.88727563e-02 5.48083544e-01
      2.75954396e-01 0. 0. 0. 5.02886511e-02 4.25800592e-01
      6.14107907e-01 6.14107907e-01 2.36169934e-01 0. 0. 0. 0. 0. 0.
      8.55505586e-01 3.39663237e-01 3.79739672e-01 0. 0. 3.35050188e-02
      5.90355217e-01 5.90355217e-01 5.42884827e-01 3.49306986e-02 0. 0.
      0. 0. 2.20262725e-02 4.02744144e-01 4.02744144e-01 4.02744144e-01
      4.02744144e-01 4.02744144e-01 4.02744144e-01 1.49246365e-01 0.</_>
    <_>
      6.54407918e-01 3.69377673e-01 0. 0. 1.27741462e-02 3.23959230e-03
      0. 1.88060980e-02 6.54407918e-01 5.59964418e-01 5.35638988e-01
      1.30368280e-04 1.33392410e-02 2.49914691e-01 1.33120626e-01 0.
      4.73782653e-03 5.59964418e-01 4.65577185e-01 4.63661283e-01
      8.13675076e-02 9.64946076e-02 4.65577185e-01 3.34949940e-01
      7.49087485e-04 4.42451648e-02 4.65577185e-01 4.33915377e-01
      3.55379701e-01 2.32992217e-01 5.95122464e-02 4.33915377e-01
      3.78646761e-01 4.33915377e-01 8.16706121e-02 3.10890198e-01
      4.12337065e-01 3.12634520e-02 0. 3.38528603e-01 5.61447561e-01
      5.61447561e-01 0. 6.77618058e-03 2.79821068e-01 1.55435786e-01
      1.26565946e-02 8.86225200e-04 1.09134637e-01 6.89487159e-01
      6.89487159e-01 0. 0. 7.81039745e-02 7.21435100e-02 4.70066160e-01
      4.70066160e-01 3.25925618e-01 4.70066160e-01 4.70066160e-01
      6.39427744e-04 2.13142601e-04 4.84662270e-03 2.02129539e-02
      4.35122252e-01 4.91620064e-01 9.05642882e-02 1.28037766e-01
      4.91620064e-01 4.91620064e-01 2.35972151e-01 8.18544999e-04 0. 0.
      0. 4.69920635e-01 6.21678174e-01 6.21678174e-01 0. 0. 0. 0.
      3.18003118e-01 2.71577030e-01 2.44624931e-02 6.39584243e-01
      6.39584243e-01 0. 0. 0. 3.03692102e-01 6.59690559e-01
      6.59690559e-01 8.65804870e-03 1.10611036e-01 7.07364380e-02
      1.13189265e-01 2.60125399e-02 3.05551628e-04 5.08284159e-02
      5.08685946e-01 3.36671174e-01 8.27153272e-04 6.49051392e-04
      5.40137172e-01 5.40137172e-01 1.90830261e-01 1.83337161e-05 0. 0.
      0. 0. 9.95024860e-01 0. 0. 0. 0. 0. 6.87475324e-01 6.87475324e-01
      2.15435296e-01 3.84734310e-02 0. 0. 0. 0. 1.08919218e-01
      4.40584749e-01 4.40584749e-01 4.40584749e-01 3.37597072e-01
      4.40584749e-01 3.05097252e-01 1.48248533e-02 0. 1.24533819e-02
      1.25174090e-01 9.79387760e-02 1.39162883e-01 1.95117742e-01
      6.70241177e-01 6.70241177e-01 1.09587796e-01 0.</_>
    <_>
      6.23978615e-01 6.23978615e-01 4.67988364e-02 0. 2.94294924e-01
      2.44753182e-01 8.42589419e-03 6.58594581e-05 2.57481128e-01
      4.00893271e-01 3.58550906e-01 9.84007344e-02 0. 4.78384465e-01
      4.78384465e-01 4.78384465e-01 1.14450278e-02 9.78720710e-02
      3.14754210e-02 4.78500545e-01 4.12649572e-01 3.80720645e-02
      5.39407432e-01 5.39407432e-01 1.04439348e-01 6.24592742e-03
      7.96622969e-03 6.46121129e-02 4.39737290e-01 4.39737290e-01
      1.91015422e-01 4.39737290e-01 4.17809278e-01 4.39737290e-01
      8.30989107e-02 5.37653512e-04 1.16332389e-01 4.72673215e-03 0.
      1.09558016e-01 5.82515478e-01 5.82515478e-01 5.37474811e-01
      2.63219350e-04 3.31207812e-02 3.79378931e-03 0. 0. 0.
      6.46127105e-01 6.46127105e-01 3.98012698e-01 1.25643937e-02
      1.56908855e-03 2.41700649e-01 6.09177053e-01 6.09177053e-01
      1.31399976e-03 2.30513677e-01 3.57812554e-01 1.09404825e-01
      1.29138157e-02 8.22529080e-04 1.21101327e-01 4.82777894e-01
      4.82777894e-01 1.21951045e-03 4.33515944e-02 4.82777894e-01
      4.82777894e-01 2.15251580e-01 6.58402103e-04 0. 0. 0.
      2.36321494e-01 5.86463690e-01 5.86463690e-01 5.00416636e-01 0. 0.
      1.11517645e-02 4.94260788e-01 4.94260788e-01 0. 4.94260788e-01
      4.94260788e-01 1.32814810e-01 0. 1.11517645e-02 2.98994839e-01
      6.72263682e-01 6.72263682e-01 0. 2.14998424e-03 0. 0. 0.
      3.04728048e-03 2.83835307e-02 4.21892852e-01 3.87171149e-01 0.
      3.62659246e-03 3.15954387e-01 5.32045901e-01 5.32045901e-01 0. 0.
      0. 0. 0. 0. 0. 0. 0. 0. 0. 7.03330040e-01 7.03330040e-01
      6.02719896e-02 0. 0. 0. 0. 0. 4.92826439e-02 5.56724310e-01
      5.56724310e-01 5.56724310e-01 1.59921959e-01 1.69999391e-01
      8.77635852e-02 2.91395118e-03 0. 5.64120198e-03 8.31597447e-02
      1.23505309e-01 2.35981449e-01 1.88009933e-01 6.43506587e-01
      6.43506587e-01 2.28337348e-01 0.</_>
    <_>
      4.20413405e-01 5.63489832e-02 1.28333466e-02 3.43524486e-01
      4.20413405e-01 4.20413405e-01 3.79702806e-01 1.52601689e-01
      4.20413405e-01 4.16195154e-01 2.35296577e-01 4.16195154e-01
      4.16195154e-01 4.16195154e-01 4.12974536e-01 7.74377137e-02
      4.29872647e-02 2.63081670e-01 3.94931555e-01 8.59274045e-02
      2.26750925e-01 1.45667553e-01 3.94931555e-01 3.94931555e-01
      3.94931555e-01 3.94931555e-01 3.69027644e-01 1.67173862e-01
      5.92568666e-02 4.43588197e-02 1.24897994e-01 5.26410997e-01
      5.26410997e-01 5.26410997e-01 3.35944980e-01 3.91476899e-02
      3.78074619e-04 5.27811721e-02 1.58897772e-01 7.89015591e-02
      5.27765453e-01 3.53134722e-01 5.27765453e-01 5.27765453e-01
      1.24973152e-02 7.43447170e-02 5.58458984e-01 5.58458984e-01
      1.89788222e-01 4.03342515e-01 2.81574100e-01 2.89491981e-01
      5.78696094e-02 0. 4.51636268e-03 1.40426144e-01 4.20977592e-01
      3.87638658e-01 4.20977592e-01 2.97341913e-01 4.20977592e-01
      4.20977592e-01 1.68790519e-01 0. 0. 1.02271020e-01 4.65543605e-02
      3.87070835e-01 1.27948716e-01 4.57207233e-01 6.31118000e-01
      4.55553561e-01 1.08088460e-02 3.16017270e-01 5.32697856e-01
      6.46799654e-02 4.23733555e-02 0. 5.32697856e-01 5.32697856e-01
      1.93433121e-01 6.68983907e-02 5.36779344e-01 5.36779344e-01
      2.85760630e-02 1.61703564e-02 1.47623003e-01 5.36779344e-01
      3.20452541e-01 1.43995881e-02 1.93673908e-03 9.84727889e-02
      4.88629311e-01 4.88629311e-01 6.34704903e-02 1.24222077e-01
      4.88629311e-01 4.88629311e-01 1.04523145e-01 1.31944390e-02
      3.22465524e-02 4.62028533e-01 3.22064251e-01 0. 0. 5.80941774e-02
      5.79838514e-01 5.79838514e-01 2.88364381e-01 3.73852223e-01
      4.04118836e-01 4.04118836e-01 1.68657023e-02 2.23913211e-02
      3.44977379e-01 4.04118836e-01 4.04118836e-01 3.17732185e-01
      4.42696303e-01 4.26016599e-01 6.66455366e-04 1.05260387e-02
      4.42696303e-01 4.42696303e-01 2.94070363e-01 1.96482390e-01 0.
      3.89956795e-02 4.92478132e-01 4.92478132e-01 3.05706710e-02
      4.92478132e-01 4.92478132e-01 1.49923071e-01 3.20946053e-03
      3.96523699e-02 9.80057009e-03 5.05133092e-01 5.05133092e-01
      2.91155666e-01 2.00837120e-01 5.10987081e-02 5.05133092e-01
      3.16370279e-01</_>
    <_>
      4.00912821e-01 4.00912821e-01 2.93629616e-01 1.10950105e-01
      4.00912821e-01 4.00912821e-01 1.57120749e-01 2.62915134e-01
      4.00912821e-01 3.59633714e-01 3.59633714e-01 3.49335939e-01
      2.98067749e-01 3.59633714e-01 3.59633714e-01 3.59633714e-01
      9.75114480e-02 3.59633714e-01 2.62331158e-01 6.41098097e-02
      3.87167543e-01 3.87167543e-01 3.87167543e-01 3.87167543e-01
      3.87167543e-01 3.87167543e-01 1.54312089e-01 1.08466037e-02
      4.61689383e-03 3.71885002e-02 5.77803049e-03 4.83341992e-01
      4.83341992e-01 4.83341992e-01 4.83341992e-01 2.43185431e-01
      4.12397534e-01 4.12397534e-01 3.17584276e-01 8.13611299e-02
      1.55571640e-01 4.12397534e-01 4.12397534e-01 2.87966013e-01
      3.17784488e-01 6.54324219e-02 4.16487783e-01 4.77778375e-01
      1.78794354e-01 5.42437099e-02 5.25653064e-01 5.25653064e-01
      3.45210992e-02 3.29818577e-03 0. 7.59980157e-02 5.97823441e-01
      5.97823441e-01 3.55520770e-02 1.05001643e-01 2.32723206e-01
      4.45675343e-01 9.16162655e-02 5.13802795e-03 1.38593530e-02
      2.00748459e-01 3.90084177e-01 2.04677600e-02 5.64892683e-03
      1.97179571e-01 6.17180288e-01 6.17180288e-01 3.06206375e-01
      2.04535961e-01 1.43525675e-02 2.86980718e-01 4.81213570e-01
      4.81213570e-01 4.81213570e-01 1.23821303e-01 2.58846134e-01
      5.68697751e-02 1.22119106e-01 3.01265009e-02 3.49371368e-03
      5.83894067e-02 6.94177508e-01 6.94177508e-01 8.26386139e-02 0.
      6.52476540e-03 1.32051677e-01 6.98194921e-01 6.98194921e-01
      1.39697036e-02 0. 1.22648366e-02 1.31510012e-02 8.90988763e-03
      7.92016238e-02 4.46642756e-01 4.73751307e-01 4.73751307e-01
      4.32910025e-02 1.39797088e-02 1.49111271e-01 4.73751307e-01
      3.03118527e-01 0. 0. 8.50748830e-03 3.70199919e-01 6.35996938e-01
      6.35996938e-01 2.18042806e-01 1.72352756e-03 0. 0. 0. 0. 0.
      5.75432003e-01 5.75432003e-01 5.75432003e-01 2.98010744e-02 0.
      7.51200169e-02 5.71099937e-01 5.71099937e-01 5.71099937e-01
      1.00940041e-01 0. 0. 0. 0. 6.11396097e-02 4.19737428e-01
      4.19737428e-01 4.19737428e-01 4.19737428e-01 4.19737428e-01
      3.32985014e-01 1.40361413e-02 9.77337174e-03</_>
    <_>
      4.26184237e-01 4.26184237e-01 2.10754901e-01 0. 4.26184237e-01
      4.26184237e-01 2.07546547e-01 9.19156894e-03 4.26184237e-01
      5.20137727e-01 2.91312821e-02 2.31697708e-01 3.41843277e-01
      5.20137727e-01 1.08323790e-01 7.22419005e-03 0. 5.20137727e-01
      4.12380189e-01 8.38307366e-02 3.23724538e-01 1.57175645e-01
      4.12380189e-01 4.12380189e-01 4.12380189e-01 9.52054411e-02
      4.12380189e-01 3.91336411e-01 1.24490343e-01 1.32608980e-01 0.
      7.79724360e-01 3.25936794e-01 1.57279804e-01 5.01628406e-02
      2.54032969e-01 5.43139800e-02 5.51020540e-02 4.54805382e-02 0.
      4.90289986e-01 4.90289986e-01 4.90289986e-01 4.90289986e-01
      1.59722775e-01 2.15623111e-01 4.97829437e-01 4.97829437e-01
      3.88773054e-01 4.97829437e-01 2.00208858e-01 8.98933560e-02
      6.00950047e-02 4.59553227e-02 3.30134518e-02 3.67011577e-01
      4.42727178e-01 8.48041847e-02 2.56462336e-01 4.42727178e-01
      4.42727178e-01 4.42727178e-01 5.28784692e-02 3.04423831e-02 0. 0.
      0. 5.90630412e-01 4.75890130e-01 5.90630412e-01 2.36739859e-01
      1.13886341e-01 5.03392041e-01 3.15619484e-02 2.91959256e-01
      1.29810899e-01 1.25524163e-01 3.96071263e-02 3.38156015e-01
      5.03392041e-01 5.03392041e-01 5.03484130e-01 5.03484130e-01
      2.98575580e-01 1.38383163e-02 3.31392825e-01 1.22221440e-01
      7.57369548e-02 1.21030793e-01 5.03484130e-01 1.79509774e-01
      3.74416858e-01 2.26531491e-01 1.57053024e-01 4.25900072e-01
      1.47607878e-01 4.25900072e-01 4.25900072e-01 4.25900072e-01
      5.32369018e-01 0. 2.36190716e-03 1.38484668e-02 1.29238768e-02
      1.49336569e-02 7.13637024e-02 5.93706548e-01 5.93706548e-01
      9.04281959e-02 1.22109354e-02 4.97040182e-01 4.97040182e-01
      4.97040182e-01 4.64988887e-01 9.72347334e-02 2.37411149e-02
      1.39031053e-01 1.61010057e-01 1.48643395e-02 5.35902679e-02
      1.81202471e-01 5.60842395e-01 5.60842395e-01 5.40414810e-01
      7.04059191e-03 1.06592350e-01 2.30794884e-02 2.09128205e-02
      5.29722273e-01 5.63495219e-01 5.63495219e-01 2.44268388e-01
      8.48173797e-02 4.80228998e-02 9.26082805e-02 4.06453103e-01
      6.23752885e-02 4.06453103e-01 4.06453103e-01 3.66336107e-01
      9.85311419e-02 1.48720443e-01 4.06453103e-01 4.06453103e-01</_>
    <_>
      3.46243650e-01 4.30102319e-01 3.27117831e-01 3.36720683e-02
      4.30102319e-01 4.30102319e-01 4.30102319e-01 8.42023268e-02
      1.43655956e-01 4.08132762e-01 1.94737285e-01 4.08132762e-01
      4.08132762e-01 4.08132762e-01 2.87628353e-01 2.37008139e-01
      8.56322721e-02 3.81412119e-01 3.88655663e-01 4.77783494e-02
      1.84829757e-01 4.14353281e-01 4.14353281e-01 4.14353281e-01
      4.14353281e-01 1.70514584e-01 3.04192573e-01 2.70845115e-01
      4.41182265e-03 4.22521345e-02 5.30939221e-01 5.30939221e-01
      5.30939221e-01 7.95829892e-02 3.89459990e-02 2.56897718e-01
      1.90907605e-02 1.46620020e-01 3.47269386e-01 1.38846403e-02
      1.91884622e-01 5.21218538e-01 5.21218538e-01 5.21218538e-01
      1.78306624e-02 1.03159966e-02 5.83225429e-01 5.83225429e-01
      1.46658987e-01 2.12721631e-01 1.08090915e-01 3.60649347e-01
      3.23704123e-01 2.16966178e-02 8.44722323e-04 1.41106918e-01
      3.97078574e-01 7.83152729e-02 1.49621814e-01 3.47923815e-01
      5.50087988e-01 5.50087988e-01 2.49316886e-01 0. 0. 1.69822406e-02
      4.87147450e-01 5.45934975e-01 3.40656191e-01 1.87418967e-01
      5.45934975e-01 9.84109342e-02 1.83310911e-01 3.46945018e-01
      4.39416200e-01 1.68434829e-01 2.86756307e-02 6.43659569e-03
      4.60132897e-01 4.60132897e-01 4.42340583e-01 4.83776808e-01
      4.93804604e-01 4.93804604e-01 4.19758856e-02 3.13401103e-01
      1.75617203e-01 2.89194167e-01 2.24859282e-01 9.12328437e-02
      8.16196855e-03 1.27691597e-01 2.49441013e-01 4.54763472e-01
      4.54763472e-01 1.51826546e-01 2.58020192e-01 4.54763472e-01
      4.54763472e-01 2.08387449e-01 0. 3.52809131e-02 9.01771933e-02
      6.95430674e-03 1.27028406e-03 3.61994766e-02 6.85199678e-01
      6.85199678e-01 2.33449012e-01 9.93640348e-02 4.17083353e-01
      4.73186821e-01 4.73186821e-01 1.06227122e-01 5.36182430e-03
      4.07504588e-01 3.62986445e-01 2.95291603e-01 3.66641313e-01
      4.95655239e-02 1.56695813e-01 4.90077078e-01 4.90077078e-01
      4.90077078e-01 9.65629742e-02 1.28922254e-01 3.88058397e-04
      8.86062253e-03 5.29500246e-01 5.29500246e-01 2.79436588e-01
      3.63221437e-01 4.38713402e-01 1.43291429e-01 1.04287967e-01
      1.85520515e-01 2.07990874e-02 3.48238319e-01 4.51217949e-01
      1.96961820e-01 2.61771679e-01 3.48225862e-01 4.51217949e-01
      4.51217949e-01</_>
    <_>
      3.81604701e-01 3.81604701e-01 1.74429342e-01 3.81604701e-01
      3.81604701e-01 3.81604701e-01 3.81604701e-01 9.94747058e-02
      2.86590427e-01 3.50469023e-01 1.88407436e-01 3.50469023e-01
      3.50469023e-01 3.50469023e-01 3.50469023e-01 3.50469023e-01
      3.18121523e-01 3.50469023e-01 4.42326516e-01 7.31731579e-03 0.
      4.07237172e-01 4.42326516e-01 4.42326516e-01 1.50218010e-01
      1.56554833e-01 4.42326516e-01 4.74321991e-01 1.82749871e-02 0.
      4.19342071e-01 4.74321991e-01 4.74321991e-01 5.95932156e-02
      6.92247134e-03 3.74882996e-01 3.06049824e-01 4.19056565e-01
      4.19056565e-01 1.92349657e-01 9.21001509e-02 4.19056565e-01
      4.19056565e-01 3.90459895e-01 4.21191864e-02 2.27454945e-01
      3.57950538e-01 3.57950538e-01 3.57950538e-01 3.57950538e-01
      3.10445935e-01 3.57950538e-01 3.57950538e-01 2.82027900e-01
      1.40556423e-02 1.26588356e-03 3.86504307e-02 3.23395938e-01
      5.25682032e-01 1.67981282e-01 1.76719412e-01 5.25682032e-01
      5.25682032e-01 1.72765926e-02 2.82824069e-04 8.48472235e-04
      3.62598240e-01 4.91483033e-01 3.71237457e-01 2.88164187e-02
      4.91483033e-01 4.91483033e-01 3.53343815e-01 3.53343815e-01
      2.41531864e-01 2.91821629e-01 3.53343815e-01 3.53343815e-01
      3.53343815e-01 3.53343815e-01 3.22274894e-01 1.62304729e-01
      3.31146061e-01 4.24070120e-01 4.36212778e-01 3.15391034e-01
      4.36212778e-01 4.36212778e-01 9.36132744e-02 2.69624293e-02
      3.76887550e-03 3.54555361e-02 4.96657103e-01 4.96657103e-01
      7.18437284e-02 2.62800120e-02 3.52587998e-02 4.96657103e-01
      4.96657103e-01 1.24128340e-02 2.19669729e-03 3.41406018e-02
      2.10732192e-01 2.55653867e-03 0. 8.68187398e-02 6.85521722e-01
      6.85521722e-01 1.07373640e-01 1.65567193e-02 8.00875351e-02
      5.55437446e-01 5.55437446e-01 5.55437446e-01 2.09249258e-01
      1.85145754e-02 8.10927451e-02 2.70137675e-02 5.31153344e-02
      2.16624394e-01 3.56625646e-01 5.21287978e-01 5.21287978e-01
      5.21287978e-01 4.25862707e-02 9.90151428e-03 9.70557972e-04
      4.09911387e-02 6.95658565e-01 6.95658565e-01 1.49686694e-01 0.
      2.55263341e-03 2.81905364e-02 1.68925822e-02 7.13907182e-04
      2.36642752e-02 3.91476542e-01 3.91476542e-01 3.91476542e-01
      3.91476542e-01 3.91476542e-01 3.91476542e-01 2.75690645e-01</_>
    <_>
      6.40903056e-01 6.40903056e-01 3.86108547e-01 0. 0. 0.
      8.83881061e-04 2.94627069e-04 1.51680812e-01 4.70410645e-01
      4.70410645e-01 3.06902289e-01 4.88154180e-02 4.43557113e-01
      1.10555649e-01 1.28597975e-01 9.67884436e-02 4.70410645e-01
      5.38641155e-01 5.59465103e-02 1.59118593e-01 7.10752532e-02
      1.72968566e-01 1.24353813e-02 3.72561842e-01 4.60409194e-01
      5.38641155e-01 1.93197936e-01 5.20139327e-03 1.49029410e-02 0.
      1.35519961e-02 4.73117262e-01 4.97719347e-01 4.97719347e-01
      4.87833828e-01 5.04136860e-01 5.04136860e-01 5.04136860e-01 0.
      2.03458965e-02 0. 3.79487038e-01 1.26495689e-01 2.68472642e-01
      2.52198160e-01 3.81674111e-01 3.81674111e-01 2.11542219e-01
      3.81674111e-01 3.81674111e-01 3.81674111e-01 3.64251614e-01
      1.63640305e-01 1.89391479e-01 4.42363501e-01 4.42363501e-01
      3.88244957e-01 4.42363501e-01 1.67282850e-01 4.19748366e-01
      1.28196225e-01 3.62632982e-02 6.61385432e-02 0. 0. 0.
      3.50500038e-03 4.97655243e-01 4.97655243e-01 4.97655243e-01
      4.97655243e-01 2.03256272e-02 3.32405642e-02 4.83381629e-01
      6.05715454e-01 6.05715454e-01 9.67118237e-03 1.49287939e-01
      4.97626439e-02 1.17053054e-02 3.69896472e-01 3.69896472e-01
      1.77471966e-01 8.39308575e-02 3.69896472e-01 3.69896472e-01
      3.69896472e-01 3.69896472e-01 3.69896472e-01 3.08844328e-01
      4.35977340e-01 3.36557299e-01 4.40232098e-01 4.40232098e-01
      4.40232098e-01 6.39919192e-02 4.04158309e-02 9.86384526e-02
      4.24598247e-01 6.35620160e-03 5.81261963e-02 3.30577552e-01
      2.41601855e-01 4.66025667e-03 4.16768938e-01 4.84811306e-01
      4.84811306e-01 0. 7.38614239e-03 3.12036365e-01 6.51746213e-01
      6.51746213e-01 2.15697125e-01 5.47625707e-04 1.82541902e-04 0.
      4.62009991e-03 5.24210045e-04 1.83046963e-02 3.14611822e-01
      6.68568194e-01 6.68568194e-01 1.90598643e-04 6.35328761e-05
      4.62009991e-03 7.02691206e-04 1.36449162e-04 2.62461275e-01
      5.55447698e-01 5.55447698e-01 5.55447698e-01 0. 0. 7.02691206e-04
      3.40535375e-03 6.80252863e-03 3.33138317e-01 5.42687714e-01
      5.42687714e-01 5.42687714e-01 2.54558428e-04 8.48528070e-05
      3.40535375e-03</_>
    <_>
      6.33407772e-01 6.33407772e-01 1.95296720e-01 4.36027534e-02
      2.21779242e-01 8.54088962e-02 6.49803355e-02 1.72952935e-03
      3.00860494e-01 3.70930076e-01 3.70930076e-01 3.70930076e-01
      2.65061498e-01 3.70930076e-01 5.49941808e-02 3.15101832e-01
      3.68479729e-01 3.70930076e-01 6.83791518e-01 5.17405244e-03
      1.55221568e-02 0. 4.48957980e-02 1.83092132e-02 1.33300453e-01
      1.94021896e-01 6.83791518e-01 5.88251233e-01 0. 0. 1.16642611e-02
      5.47612786e-01 4.30539846e-02 1.33272512e-02 2.26907156e-04
      5.88251233e-01 3.49708647e-01 3.49708647e-01 2.26579621e-01
      3.07682067e-01 3.49708647e-01 3.49708647e-01 3.49708647e-01
      3.49708647e-01 3.41646701e-01 4.06295121e-01 4.06295121e-01
      4.06295121e-01 4.06295121e-01 4.06295121e-01 2.24419281e-01
      2.55872935e-01 1.45817414e-01 1.82933941e-01 8.98314081e-03
      3.46154273e-02 1.10631160e-01 2.54077643e-01 4.78788704e-01
      4.78788704e-01 4.78788704e-01 4.78788704e-01 1.37739340e-02
      7.73007330e-03 2.12363651e-04 6.37090998e-04 1.22034907e-01
      5.41381240e-01 5.41381240e-01 5.41381240e-01 3.16325516e-01
      1.72660518e-02 3.25338960e-01 5.74616194e-02 4.22271818e-01
      4.22271818e-01 4.22271818e-01 5.53383641e-02 2.98086941e-01
      2.85416067e-01 4.22271818e-01 2.55347729e-01 1.32803470e-01
      1.75932750e-01 2.47156709e-01 4.97368544e-01 4.97368544e-01
      4.97368544e-01 2.19968975e-01 1.72168002e-01 4.19380522e-04
      2.39657864e-01 4.25516605e-01 4.25516605e-01 4.25516605e-01
      1.78065702e-01 4.25516605e-01 4.25516605e-01 3.58336531e-02
      5.90928190e-04 4.89359461e-02 2.05639422e-01 4.89833057e-02
      2.83577383e-01 9.78897139e-02 6.37129962e-01 6.37129962e-01
      2.11398512e-01 0. 3.65807023e-03 3.10264558e-01 6.68056667e-01
      6.68056667e-01 6.57857433e-02 1.11561017e-02 1.26141019e-03 0. 0.
      5.78540042e-02 1.91932499e-01 1.15877278e-01 5.51565707e-01
      5.51565707e-01 5.51565707e-01 1.67943507e-01 0. 4.63739503e-04
      5.27034819e-01 5.68168283e-01 5.56648910e-01 5.30787483e-02
      4.86245565e-02 2.60534734e-01 1.04014702e-01 2.87568080e-03
      6.32798008e-04 9.24754962e-02 4.63254094e-01 1.22658327e-01 0.
      2.01720491e-01 5.97541869e-01 5.97541869e-01 3.20670865e-02</_>
    <_>
      5.46518624e-01 5.46518624e-01 5.46518624e-01 0. 0. 0.
      1.58534429e-04 3.68486755e-02 3.11667472e-01 6.76280856e-01
      1.84455171e-01 2.99838129e-02 0. 1.80994809e-01 3.10680717e-02
      1.63331616e-03 9.94345024e-02 6.76280856e-01 4.09060478e-01
      2.82871537e-02 9.58946720e-02 6.81282580e-02 4.09060478e-01
      4.09060478e-01 4.09060478e-01 3.80294204e-01 4.09060478e-01
      1.16909757e-01 9.42994375e-03 2.95081902e-02 3.48386727e-03
      4.53053951e-01 4.53053951e-01 4.53053951e-01 4.53053951e-01
      3.99753928e-01 3.39811534e-01 5.73918283e-01 5.73918283e-01 0.
      6.39480352e-03 3.30942780e-01 2.96762228e-01 1.01682665e-02
      1.49323389e-01 5.36893320e-04 6.93502079e-04 2.08050618e-03
      6.18464127e-02 5.74573696e-01 5.74573696e-01 5.74573696e-01
      5.23986015e-03 5.36893320e-04 3.81462928e-03 1.17347725e-02
      2.34503388e-01 5.54609597e-01 5.54609597e-01 5.39712667e-01
      1.38143569e-01 1.08717941e-01 4.40563038e-02 1.15471296e-01
      3.56065072e-02 3.38606834e-01 5.21752417e-01 1.14669576e-01
      1.18928723e-01 1.46844909e-01 5.21752417e-01 5.21752417e-01
      2.37449929e-02 4.32940312e-02 2.15605665e-02 4.69928980e-01
      5.06898940e-01 5.06898940e-01 5.06898940e-01 5.15611609e-03
      1.83001868e-02 3.69440615e-02 2.96205357e-02 2.77856123e-02
      1.51875289e-02 1.69902578e-01 6.93118274e-01 6.93118274e-01
      1.14049269e-02 3.63110495e-03 4.83967364e-01 4.83967364e-01
      4.83967364e-01 4.83967364e-01 1.68664753e-01 1.52362064e-01
      7.93956742e-02 2.18333956e-03 1.72652565e-02 2.71885306e-01
      4.15381044e-01 4.15381044e-01 4.15381044e-01 2.67775089e-01
      3.60812098e-01 4.15381044e-01 1.27661929e-01 1.16519354e-01 0. 0.
      0. 4.99737233e-01 6.06754780e-01 6.06754780e-01 8.88892412e-02
      5.07761666e-04 0. 2.05845535e-01 5.18765032e-01 5.18765032e-01
      3.76400567e-05 2.97771364e-01 5.18765032e-01 2.37489581e-01
      3.99560528e-03 3.19554261e-03 5.42953074e-01 5.42953074e-01
      5.42953074e-01 1.21985719e-01 2.60360897e-01 1.14151046e-01
      1.12457655e-01 2.59407405e-02 3.41362171e-02 2.10537270e-01
      4.06497508e-01 7.99140036e-02 1.02455197e-02 1.71265170e-01
      6.11051500e-01 6.11051500e-01 4.05924208e-02 9.70282592e-03</_>
    <_>
      5.62517583e-01 5.31984746e-01 2.80219376e-01 0. 0. 0. 0. 0.
      5.62517583e-01 7.04614103e-01 6.44906017e-04 1.93471799e-03 0. 0.
      0. 0. 0. 7.04614103e-01 6.15206122e-01 1.08256221e-01
      8.98617432e-02 0. 3.37287635e-01 2.85561472e-01 1.46883190e-01
      1.49319768e-02 6.15206122e-01 4.43276256e-01 1.91067308e-01
      1.70700088e-01 0. 4.83782351e-01 4.83782351e-01 4.83782351e-01
      5.54868095e-02 1.66775748e-01 4.54343945e-01 4.54343945e-01
      4.54343945e-01 3.20321858e-01 2.58947045e-01 0. 8.91255587e-03
      2.97085172e-03 4.54343945e-01 1.38225958e-01 0. 1.99795105e-02
      2.98163295e-01 6.35837615e-01 6.35837615e-01 2.38516048e-01
      2.58770641e-02 1.38225958e-01 6.35668752e-04 0. 2.68798750e-02
      9.00737122e-02 4.89066988e-01 4.89066988e-01 4.89066988e-01
      4.89066988e-01 1.71852052e-01 5.76743223e-02 0. 6.50994189e-04
      2.33521045e-04 4.45471287e-01 4.45471287e-01 4.45471287e-01
      4.45471287e-01 4.45471287e-01 2.67674006e-03 1.13951880e-02
      4.98633116e-01 4.98633116e-01 4.98633116e-01 4.98633116e-01
      1.83278564e-02 2.27910629e-03 1.34875067e-03 0. 4.85745678e-03
      1.75443202e-01 4.69522476e-01 4.97860253e-01 4.97860253e-01
      4.97860253e-01 1.33361407e-02 0. 2.28625145e-02 1.54688330e-02
      4.70738411e-01 4.70738411e-01 4.12249535e-01 2.82910913e-01
      2.17092514e-01 4.70738411e-01 1.80650890e-01 1.87670380e-01
      9.80730820e-03 1.06758296e-01 1.07316494e-01 3.36204655e-02
      2.52964199e-02 2.68503904e-01 6.56259537e-01 6.56259537e-01 0.
      8.40891502e-04 1.95732892e-01 6.00485504e-01 6.00485504e-01
      4.84278560e-01 8.30163772e-04 0. 0. 0. 1.85674522e-02
      1.97518870e-01 2.36119553e-01 5.85191190e-01 5.85191190e-01
      4.62061614e-01 2.54436508e-02 0. 3.38926632e-03 2.46810570e-01
      6.78680301e-01 6.78680301e-01 5.94983548e-02 6.40666187e-02
      5.78543320e-02 8.35213345e-03 4.73867171e-03 1.58127677e-02
      1.91201389e-01 4.24473107e-01 4.02823567e-01 4.24473107e-01
      2.66766727e-01 4.24473107e-01 4.24473107e-01 6.93597794e-02</_>
    <_>
      4.74814475e-01 4.74814475e-01 7.92750865e-02 7.86540750e-03
      4.74814475e-01 4.74814475e-01 7.87040964e-02 1.30222186e-01
      2.52910495e-01 4.19816226e-01 1.84292421e-02 1.54369906e-01
      4.19816226e-01 4.19816226e-01 3.00437123e-01 1.20775532e-02
      4.19816226e-01 4.19816226e-01 5.52788317e-01 7.80529389e-03
      7.70186707e-02 1.25916675e-01 2.06696332e-01 9.93926004e-02
      5.74885458e-02 5.52788317e-01 5.52788317e-01 5.70474446e-01
      6.01953454e-03 4.59986413e-03 1.46470904e-01 5.45044482e-01
      8.78006890e-02 2.13717925e-03 1.30855769e-01 5.70474446e-01
      8.60387757e-02 1.93557158e-01 8.09841324e-03 1.30409580e-02
      4.82503265e-01 4.82503265e-01 4.82503265e-01 4.82503265e-01
      1.37260050e-01 4.28320885e-01 4.28320885e-01 4.28320885e-01
      4.28320885e-01 4.28320885e-01 2.73248106e-01 1.96637642e-02
      2.20906567e-02 5.37411645e-02 1.60825461e-01 3.41995060e-01
      3.84796023e-01 2.96448827e-01 3.84796023e-01 3.84796023e-01
      3.84796023e-01 3.84796023e-01 1.58456445e-01 4.09787335e-02
      7.54766352e-03 3.16648223e-02 5.09324312e-01 5.09324312e-01
      5.09324312e-01 2.06021562e-01 3.91838193e-01 1.34009078e-01
      4.42826241e-01 2.06900656e-01 6.73947558e-02 3.76926094e-01
      1.21632054e-01 8.35384578e-02 4.42826241e-01 4.42826241e-01
      4.42826241e-01 4.65272993e-01 4.65272993e-01 1.54657796e-01
      4.31496277e-02 4.65272993e-01 4.65272993e-01 7.42699951e-02
      5.35912849e-02 3.08654875e-01 1.39006317e-01 1.86475635e-01
      3.81418794e-01 3.81418794e-01 3.81418794e-01 2.63081551e-01
      3.81418794e-01 3.81418794e-01 3.81418794e-01 2.79597560e-04
      6.78993110e-03 4.69280034e-02 8.53129625e-02 1.92966774e-01
      4.36787382e-02 4.19271916e-01 6.20220840e-01 6.20220840e-01
      1.29505605e-01 2.00130395e-03 2.24437639e-01 5.50219297e-01
      5.50219297e-01 5.50219297e-01 4.05728295e-02 3.45029309e-02
      1.27659336e-01 1.07523769e-01 3.82115059e-02 1.30357742e-01
      8.70326459e-02 6.28133535e-01 6.28133535e-01 4.05913800e-01
      1.29941397e-03 4.76234443e-02 4.26363637e-04 1.18796907e-01
      5.49536288e-01 5.49536288e-01 5.49536288e-01 2.53263056e-01
      7.15652257e-02 7.00981393e-02 1.58581380e-02 3.12136544e-04
      3.75951454e-02 3.99040461e-01 2.13460058e-01 1.40707552e-01
      5.04018068e-01 5.04018068e-01 5.04018068e-01 8.27826783e-02</_>
    <_>
      5.58680654e-01 5.58680654e-01 2.35923484e-01 0. 2.66201049e-02
      3.85489464e-01 3.66555601e-01 1.50322631e-01 9.07868296e-02
      4.48854178e-01 2.22295955e-01 4.85423282e-02 0. 1.92861632e-01
      4.48854178e-01 4.48854178e-01 4.48854178e-01 3.17283332e-01
      5.70085585e-01 5.48168898e-01 4.22654562e-02 0. 4.10228334e-02
      7.63797313e-02 1.50713623e-01 1.08652495e-01 5.70085585e-01
      4.42097634e-01 4.42097634e-01 4.47632484e-02 0. 1.94506153e-01
      4.42097634e-01 1.78082734e-01 3.77137601e-01 4.42097634e-01
      3.91818434e-01 3.91818434e-01 3.91818434e-01 0. 3.91818434e-01
      3.91818434e-01 3.91818434e-01 2.06076458e-01 1.80244401e-01
      4.41634744e-01 1.60049424e-01 2.95818329e-01 2.50484467e-01
      4.41634744e-01 4.41634744e-01 1.40654385e-01 1.40616775e-01
      4.41634744e-01 4.17320818e-01 1.78415582e-01 2.98596025e-01
      9.74897742e-02 4.17320818e-01 4.17320818e-01 4.17320818e-01
      2.61659622e-01 3.16611379e-01 2.14517102e-01 6.19921014e-02 0. 0.
      5.79494655e-01 5.79494655e-01 4.96846378e-01 7.21043199e-02
      1.43768683e-01 3.33080947e-01 9.06461701e-02 1.57224938e-01 0.
      4.49496090e-01 4.49496090e-01 4.49496090e-01 4.49496090e-01
      2.08432183e-01 4.35995787e-01 4.35995787e-01 4.35995787e-01
      1.75011590e-01 4.35995787e-01 4.35995787e-01 3.65643315e-02
      1.93846542e-02 1.13320209e-01 2.97758818e-01 3.70020628e-01
      3.70020628e-01 1.07706837e-01 2.92281717e-01 3.55017245e-01
      3.70020628e-01 3.70020628e-01 3.70020628e-01 5.37664473e-01
      1.42153814e-01 1.63176598e-03 2.78786644e-02 2.08505303e-01
      1.82370096e-01 1.72222361e-01 5.37664473e-01 5.37664473e-01
      3.84097666e-01 9.52784717e-02 2.52855480e-01 3.84097666e-01
      3.84097666e-01 1.94840506e-01 3.84097666e-01 3.84097666e-01
      3.84097666e-01 4.27832812e-01 4.27832812e-01 5.73677644e-02
      5.04995324e-02 4.27832812e-01 4.27832812e-01 4.27832812e-01
      4.25973162e-02 2.69937038e-01 1.04189485e-01 1.13931037e-01
      5.06522246e-02 5.61432064e-01 5.61432064e-01 5.61432064e-01
      8.33543018e-02 5.57744391e-02 1.10975631e-01 3.21520686e-01
      2.56687030e-02 1.92870229e-01 5.55225313e-01 5.55225313e-01
      3.43102038e-01 7.33598601e-04 4.81714904e-02 3.41514021e-01</_>
    <_>
      4.63623852e-01 2.09002912e-01 5.87362163e-02 0. 4.63623852e-01
      4.63623852e-01 2.95895129e-01 2.99130678e-02 4.63623852e-01
      4.69028622e-01 2.92096555e-01 3.52661163e-01 2.45694295e-01
      4.69028622e-01 4.69028622e-01 1.62245318e-01 0. 1.97413817e-01
      2.87668705e-01 3.58061165e-01 3.58061165e-01 3.58061165e-01
      3.58061165e-01 2.27297723e-01 3.58061165e-01 3.58061165e-01
      3.04562181e-01 7.36970752e-02 1.42892776e-02 4.28678319e-02 0.
      4.65371341e-01 4.65371341e-01 4.65371341e-01 4.65371341e-01
      3.48707289e-01 5.83660137e-03 1.85174041e-03 5.55522088e-03 0.
      3.99495006e-01 5.26070714e-01 5.26070714e-01 5.26070714e-01
      6.95015416e-02 4.82537031e-01 4.82537031e-01 4.82537031e-01
      3.44897769e-02 4.57203418e-01 2.63257444e-01 1.28195047e-01
      2.62980554e-02 0. 3.11324775e-01 3.89656395e-01 3.89656395e-01
      2.41188049e-01 3.89656395e-01 3.89656395e-01 3.89656395e-01
      2.77406394e-01 6.99827075e-02 0. 3.04978434e-02 3.59628618e-01
      2.09893137e-01 2.25891188e-01 6.67316169e-02 5.05027473e-01
      5.05027473e-01 5.05027473e-01 2.49110878e-01 1.10002689e-01
      1.40251115e-01 8.99999887e-02 6.12154976e-02 0. 5.44331253e-01
      5.44331253e-01 5.44331253e-01 4.52323109e-01 4.52323109e-01
      4.52323109e-01 0. 0. 4.12988573e-01 3.33836347e-01 1.90550610e-01
      2.51749158e-01 7.63520524e-02 2.87145883e-01 4.36586112e-01
      4.33694065e-01 7.40814134e-02 4.36586112e-01 4.36586112e-01
      3.76769930e-01 0. 4.26093005e-02 3.30732733e-01 4.68834013e-01
      4.68834013e-01 2.58684251e-02 3.20701301e-02 4.31723297e-01
      4.68834013e-01 1.91360384e-01 2.61009693e-01 2.77349222e-02
      1.67649135e-01 4.87575591e-01 4.87575591e-01 3.08594972e-01
      6.99693486e-02 2.96260983e-01 4.84532416e-01 3.95080030e-01
      1.88758418e-01 1.21641107e-01 1.20003134e-01 5.10290861e-01
      5.10290861e-01 4.38511938e-01 5.48886396e-02 2.40601957e-01
      4.44686506e-03 2.09619895e-01 5.45201600e-01 7.14150742e-02
      6.46702647e-02 5.45201600e-01 5.45201600e-01 2.22662136e-01 0.
      5.64255044e-02 5.66109419e-01 5.66109419e-01 5.66109419e-01
      1.23170078e-01 1.89084075e-02 9.16116238e-02 5.11715710e-02
      5.64255044e-02</_>
    <_>
      5.24704158e-01 5.24704158e-01 3.61571461e-01 0. 4.82264161e-02
      5.24704158e-01 1.88923746e-01 0. 8.03904422e-03 2.05376834e-01
      2.15119138e-01 4.42596488e-02 0. 5.10054410e-01 5.54461002e-01
      5.54461002e-01 1.19673304e-01 1.21314511e-01 4.54943001e-01
      4.54943001e-01 5.80399670e-03 0. 5.67709878e-02 4.54943001e-01
      4.54943001e-01 1.50231048e-01 3.76479924e-01 4.90740925e-01
      4.04590279e-01 0. 0. 0. 1.32530946e-02 3.29772264e-01
      4.90740925e-01 4.90740925e-01 3.52564782e-01 4.16617960e-01
      2.02530727e-01 2.39982223e-03 8.23889673e-02 4.16617960e-01
      4.16617960e-01 4.16617960e-01 3.59780222e-01 4.97119427e-01
      4.39694047e-01 1.42149180e-02 5.31951804e-03 8.93116668e-02
      4.97119427e-01 1.69869900e-01 1.52506977e-01 4.97119427e-01
      4.87305075e-01 4.87305075e-01 3.35058570e-03 0. 3.65202308e-01
      4.32334602e-01 3.58763307e-01 9.21393782e-02 2.50404835e-01
      3.66371602e-01 1.84854969e-01 0. 0. 4.10183161e-01 4.10183161e-01
      4.10183161e-01 4.02105838e-01 4.01326895e-01 3.05380940e-01
      4.15971130e-01 2.70413727e-01 1.89995259e-01 4.15971130e-01
      4.15971130e-01 3.65526021e-01 2.74325550e-01 2.55744964e-01
      3.97644371e-01 3.97644371e-01 3.97644371e-01 3.47832978e-01
      3.97644371e-01 3.97644371e-01 2.24178016e-01 6.72597662e-02
      1.72205880e-01 3.06278944e-01 3.24140936e-02 4.13558148e-02
      3.87204498e-01 3.87204498e-01 3.87204498e-01 3.87204498e-01
      3.87204498e-01 3.87204498e-01 1.53204292e-01 6.83367811e-03
      4.80741411e-02 1.46579266e-01 2.63428092e-01 5.20700991e-01
      9.69993472e-02 5.46486497e-01 5.46486497e-01 4.04438555e-01
      4.04438555e-01 5.57161979e-02 2.84302849e-02 1.03072561e-01
      4.04438555e-01 4.04438555e-01 4.04438555e-01 4.04438555e-01
      2.61004299e-01 5.29643774e-01 1.39053762e-01 7.58257806e-02
      1.64021805e-01 5.43096960e-01 5.43096960e-01 6.33164868e-02
      4.94505232e-03 3.07277963e-02 2.74029300e-02 5.66793621e-01
      5.66793621e-01 4.41991389e-01 3.42016339e-01 1.79006308e-01
      2.49622278e-02 7.16730505e-02 7.68207237e-02 8.81596282e-03
      4.06198412e-01 4.40028101e-01 4.40028101e-01 2.51511931e-01
      3.80253419e-02 4.23142791e-01 4.40028101e-01</_>
    <_>
      2.50159115e-01 4.39854383e-01 3.33563328e-01 0. 4.39854383e-01
      4.39854383e-01 4.39854383e-01 1.00349963e-01 1.94434166e-01
      3.95464271e-01 3.58251669e-02 3.95464271e-01 3.95464271e-01
      3.95464271e-01 3.95464271e-01 2.34821841e-01 3.56736109e-02
      3.95464271e-01 3.73704642e-01 5.73635027e-02 3.73704642e-01
      3.73704642e-01 3.73704642e-01 3.73704642e-01 3.73704642e-01
      1.24055684e-01 3.73704642e-01 4.44410950e-01 5.30561619e-02
      3.83534014e-01 4.74039704e-01 4.76796955e-01 2.40114063e-01
      2.02305794e-01 1.93862393e-02 3.11152965e-01 1.14202566e-01
      1.12828970e-01 8.09794962e-02 0. 3.81712973e-01 5.12891769e-01
      5.12891769e-01 5.12891769e-01 1.66339293e-01 4.65407282e-01
      4.65407282e-01 4.65407282e-01 4.65407282e-01 2.51162797e-01
      1.85313553e-01 1.38754249e-01 1.49656460e-02 1.09705076e-01
      1.76977068e-01 4.01344210e-01 4.01344210e-01 1.60379753e-01
      2.18929008e-01 2.92629838e-01 4.01344210e-01 4.01344210e-01
      4.01344210e-01 2.57491767e-01 0. 4.86019216e-02 2.37050965e-01
      4.89482611e-01 1.60214081e-01 3.54691148e-01 4.89482611e-01
      4.89482611e-01 4.37216341e-01 4.15984482e-01 2.32700229e-01
      5.68230785e-02 1.39639392e-01 3.36006545e-02 4.13652927e-01
      4.37216341e-01 4.37216341e-01 4.25365835e-01 4.25365835e-01
      2.28072047e-01 0. 2.88125783e-01 4.25365835e-01 4.25365835e-01
      6.94305152e-02 3.63527924e-01 1.12339348e-01 1.24906063e-01
      4.16336268e-01 4.16336268e-01 4.16336268e-01 4.16336268e-01
      4.16336268e-01 1.93529323e-01 2.51964986e-01 2.87415475e-01
      2.24504806e-02 3.55690628e-01 4.20248419e-01 3.69871445e-02 0.
      3.71529758e-01 4.84521389e-01 4.84521389e-01 1.22644208e-01
      1.39951287e-02 3.18238109e-01 6.22115552e-01 6.22115552e-01
      2.79504478e-01 6.09821342e-02 2.30122656e-02 1.44390941e-01
      6.80897310e-02 1.30744912e-02 1.34088909e-02 0. 5.73820174e-01
      5.73820174e-01 5.73820174e-01 1.25477053e-02 3.62895504e-02
      3.20881809e-04 1.56688169e-01 4.78878409e-01 4.78878409e-01
      2.30541348e-01 4.78878409e-01 4.78878409e-01 1.47728296e-02
      3.20881809e-04 1.86889917e-02 2.86219150e-01 5.09863555e-01
      5.09863555e-01 8.73845071e-04 2.83793867e-01 5.09863555e-01
      2.19405413e-01 6.38450086e-02</_>
    <_>
      2.48070329e-01 4.28572029e-01 4.28572029e-01 0. 8.55045393e-03
      4.28572029e-01 4.28572029e-01 4.28572029e-01 1.25446901e-01
      4.07358140e-01 4.07358140e-01 1.59496665e-02 5.63324848e-03
      7.64852273e-04 4.07358140e-01 4.07358140e-01 4.07358140e-01
      4.07358140e-01 5.74668109e-01 5.74668109e-01 8.36147834e-03
      4.92488558e-04 2.47641057e-02 4.94008176e-02 2.01676171e-02
      9.27385583e-04 5.74668109e-01 4.76295382e-01 4.76295382e-01 0. 0.
      4.76295382e-01 2.92092323e-01 4.99554873e-02 2.52492842e-04
      4.76295382e-01 1.81079969e-01 3.67210120e-01 2.44633302e-01 0.
      4.17501509e-01 4.17501509e-01 4.17501509e-01 4.17501509e-01
      2.66684562e-01 3.96134377e-01 3.96134377e-01 3.96134377e-01
      3.96134377e-01 3.96134377e-01 2.21547335e-01 5.88167571e-02
      1.42419726e-01 3.72295976e-01 3.51895690e-01 3.51895690e-01
      2.52882719e-01 2.56360054e-01 3.51895690e-01 3.51895690e-01
      3.51895690e-01 3.51895690e-01 3.51895690e-01 9.06929895e-02
      2.32783724e-02 3.77351558e-03 9.83862672e-03 4.93445158e-01
      4.93445158e-01 4.93445158e-01 4.93445158e-01 1.10638529e-01
      3.89735848e-01 3.89735848e-01 1.94648206e-02 3.47028044e-03
      2.90433049e-01 3.89735848e-01 3.89735848e-01 3.89735848e-01
      3.89735848e-01 4.46920127e-01 4.46920127e-01 2.27857590e-01
      1.05763882e-01 3.51707250e-01 4.46920127e-01 4.46920127e-01
      9.72242504e-02 1.81648657e-02 1.73307229e-02 1.25849754e-01
      4.02970374e-01 4.02970374e-01 4.02970374e-01 4.02970374e-01
      4.02970374e-01 4.02970374e-01 7.43314028e-02 1.24773057e-02
      1.62208453e-02 3.67657334e-01 2.51765400e-01 3.89185883e-02
      3.63483392e-02 3.31980526e-01 5.84014118e-01 5.84014118e-01
      3.50923926e-01 3.50923926e-01 1.77456379e-01 3.50923926e-01
      3.50923926e-01 3.50923926e-01 3.20889205e-01 3.50923926e-01
      3.50923926e-01 2.14923427e-01 3.63077611e-01 2.24945857e-03 0.
      5.15802085e-01 5.15802085e-01 5.15802085e-01 1.24590002e-01
      5.61075024e-02 1.06485968e-04 1.30916446e-01 5.19021213e-01
      5.19021213e-01 3.97772193e-02 3.99685055e-01 5.19021213e-01
      9.02102739e-02 7.74890697e-03 8.70732144e-02 4.80060950e-02
      4.94604170e-01 4.94604170e-01 8.11184198e-02 0. 7.77202519e-03
      4.94604170e-01 4.94604170e-01</_>
    <_>
      4.48694527e-01 1.68224275e-01 9.59933847e-02 2.49286547e-01
      4.48694527e-01 4.48694527e-01 3.00450414e-01 1.68106370e-02
      4.48694527e-01 3.73210877e-01 1.64207071e-01 3.73210877e-01
      3.73210877e-01 3.73210877e-01 3.73210877e-01 3.38119477e-01
      1.38796031e-01 3.73210877e-01 4.66535062e-01 1.07410615e-02
      6.30785525e-02 7.28418529e-02 4.66535062e-01 4.66535062e-01
      3.73396009e-01 1.40588403e-01 4.16875660e-01 4.57372457e-01
      6.54578535e-03 1.24374598e-01 4.92111266e-01 4.92111266e-01
      3.42046380e-01 1.56503886e-01 7.99684450e-02 3.71688664e-01
      8.80990252e-02 5.20553648e-01 1.38904929e-01 8.21280703e-02
      1.40989840e-01 5.20553648e-01 5.20553648e-01 3.57869148e-01
      1.11132953e-02 1.82855010e-01 4.95747089e-01 4.95747089e-01
      2.99258441e-01 1.33549586e-01 1.55705482e-01 4.17787135e-01
      4.02165651e-01 4.65188362e-02 1.26671570e-03 4.34871279e-02
      9.26839560e-02 3.61358896e-02 5.10317624e-01 2.42566317e-01
      5.10317624e-01 5.10317624e-01 3.78158391e-01 1.37577476e-02
      1.90807320e-02 1.35502622e-01 5.54671228e-01 5.54671228e-01
      4.05189455e-01 8.05141255e-02 4.06580210e-01 1.55749694e-01
      4.40509796e-01 4.40509796e-01 6.10505603e-02 2.91778222e-02
      4.89541180e-02 1.35573611e-01 4.40509796e-01 4.40509796e-01
      4.40509796e-01 1.90476015e-01 4.32707697e-01 2.78430939e-01
      3.53999108e-01 4.32707697e-01 4.32707697e-01 4.32707697e-01
      7.76518881e-02 3.97938900e-02 1.79506615e-02 8.04002117e-03
      4.53300536e-01 4.53300536e-01 3.97814631e-01 8.31270888e-02
      8.94039944e-02 4.53300536e-01 4.53300536e-01 6.18403368e-02
      2.00859131e-03 2.54670847e-02 2.85159945e-02 1.36397341e-02 0.
      5.49136288e-02 7.01606989e-01 7.01606989e-01 2.20333591e-01
      8.48961100e-02 1.87065035e-01 4.59648460e-01 4.59648460e-01
      4.59648460e-01 4.59648460e-01 9.78237838e-02 2.23572999e-01
      4.56884801e-02 5.88196367e-02 2.52854317e-01 2.80921727e-01
      3.51711214e-01 6.00618362e-01 6.00618362e-01 5.91684552e-03
      1.95608195e-02 1.21142548e-02 1.94679946e-02 6.91514432e-01
      6.91514432e-01 1.06176659e-01 3.89451198e-02 3.55002955e-02
      8.95634443e-02 1.18805103e-01 3.73970754e-02 3.50240096e-02
      3.18788469e-01 5.03062844e-01 3.00482363e-01 7.54563063e-02
      1.88479841e-01 5.03062844e-01 5.03062844e-01</_>
    <_>
      3.93099636e-01 4.16069090e-01 2.77971923e-01 1.96618408e-01
      4.16069090e-01 4.16069090e-01 4.16069090e-01 8.46514553e-02
      1.60528570e-01 1.60233632e-01 3.56788546e-01 4.98463362e-01
      4.98463362e-01 4.98463362e-01 1.79129317e-01 1.88547939e-01
      5.77842370e-02 1.60233632e-01 1.12485057e-02 1.64043289e-02
      5.90271354e-02 1.42192855e-01 4.89394486e-01 4.89394486e-01
      4.89394486e-01 4.89394486e-01 1.13954201e-01 6.97109699e-02
      8.28460697e-03 2.12598249e-01 5.31493485e-01 5.31493485e-01
      5.31493485e-01 2.74058551e-01 1.08676516e-01 1.00951768e-01
      4.18208838e-01 3.15378666e-01 2.64196396e-01 6.23301715e-02
      2.27987885e-01 2.66647369e-01 4.18208838e-01 4.18208838e-01
      4.18208838e-01 4.42079633e-01 4.42079633e-01 4.42079633e-01
      1.61897212e-01 4.42079633e-01 3.72583091e-01 1.80102870e-01
      5.45433424e-02 1.15781941e-01 2.00278699e-01 2.00776551e-02
      1.54919714e-01 4.20017451e-01 4.20017451e-01 2.21847519e-01
      4.20017451e-01 4.20017451e-01 4.20017451e-01 5.13331354e-01
      1.18955513e-02 5.67521639e-02 2.17794076e-01 3.58291179e-01
      1.14170477e-01 1.10190190e-01 5.13331354e-01 5.13331354e-01
      3.81660074e-01 8.12745616e-02 1.48753852e-01 3.81660074e-01
      3.46929908e-01 3.81660074e-01 3.81660074e-01 3.44632059e-01
      3.81660074e-01 3.06450576e-01 1.35651335e-01 8.11581314e-02
      6.90701455e-02 4.64376003e-01 5.67451894e-01 5.67451894e-01
      1.05869267e-02 1.04416363e-01 4.78124097e-02 2.22793981e-01
      5.22645116e-01 5.22645116e-01 5.22645116e-01 3.14361304e-01
      1.14876822e-01 4.33852226e-02 9.73732471e-02 2.07269147e-01
      2.33499765e-01 4.38371152e-01 3.59770864e-01 5.10697346e-03
      5.76697290e-04 4.38371152e-01 4.38371152e-01 4.38371152e-01 0. 0.
      1.81888357e-01 5.39744318e-01 5.39744318e-01 5.39744318e-01
      2.95883745e-01 2.71323556e-03 0. 0. 1.81738462e-04 3.29070073e-03
      0. 4.63466316e-01 6.24038219e-01 6.24038219e-01 1.04910806e-02 0.
      0. 5.75478733e-01 5.75608015e-01 5.75608015e-01 5.64950891e-03
      1.26841012e-02 1.53020294e-02 6.70960406e-04 0. 0. 2.25862175e-01
      4.66533273e-01 4.66533273e-01 1.07199192e-01 4.66533273e-01
      4.66533273e-01 2.49442697e-01 0.</_>
    <_>
      4.48537439e-01 4.48537439e-01 1.99904785e-01 9.81211662e-02
      3.73295367e-01 4.48537439e-01 4.48537439e-01 2.91639157e-02
      3.14124078e-02 2.84918666e-01 3.88024300e-01 3.88024300e-01
      3.88024300e-01 3.88024300e-01 3.88024300e-01 3.84020478e-01
      6.83366582e-02 9.99448374e-02 2.01251991e-02 1.31513989e-02
      8.57664421e-02 4.82820749e-01 4.82820749e-01 4.82820749e-01
      4.82820749e-01 1.87136099e-01 1.40571639e-01 1.33156061e-01
      1.31457078e-03 1.37599841e-01 5.59877098e-01 5.59877098e-01
      5.40193200e-01 6.39328137e-02 6.46507815e-02 1.75335959e-01
      4.04406399e-01 4.04406399e-01 1.31498307e-01 4.04562280e-02
      8.66368562e-02 4.04406399e-01 4.04406399e-01 4.04406399e-01
      3.89618963e-01 3.51753891e-01 3.85222942e-01 3.85222942e-01
      3.06764096e-01 3.85222942e-01 3.85222942e-01 3.85222942e-01
      1.76456377e-01 7.20841214e-02 8.26516077e-02 1.53869884e-02
      1.00449406e-01 4.24749285e-01 4.09596473e-01 2.98633039e-01
      4.24749285e-01 4.24749285e-01 4.24749285e-01 1.47751858e-02 0.
      2.54995730e-02 3.98818582e-01 4.77109432e-01 3.87774318e-01
      4.51728776e-02 4.77109432e-01 4.77109432e-01 2.59010822e-01
      6.26315624e-02 1.41887531e-01 4.98892993e-01 4.98892993e-01
      4.98892993e-01 3.10457289e-01 9.43840146e-02 2.27818266e-01
      7.58649930e-02 8.22742432e-02 1.57281265e-01 5.22246361e-01
      5.22246361e-01 5.22246361e-01 3.71828318e-01 8.82963743e-03
      3.10537256e-02 2.17004921e-02 5.35451658e-02 5.64147294e-01
      5.64147294e-01 1.24845423e-01 8.81708115e-02 2.43982673e-02
      5.00875294e-01 2.82262981e-01 1.66668114e-03 1.03651443e-02
      2.07506299e-01 1.31185412e-01 1.13515824e-03 2.49936362e-03
      2.76297450e-01 6.54499471e-01 6.54499471e-01 0. 1.08093582e-03
      5.75324148e-02 4.66165453e-01 6.19659901e-01 6.19659901e-01
      7.23499954e-02 5.26794640e-04 0. 0. 9.83104110e-02 4.71038043e-01
      2.38832712e-01 5.49922943e-01 5.49922943e-01 3.17807972e-01
      9.64759290e-03 0. 0. 1.11261591e-01 7.00194538e-01 7.00194538e-01
      1.18644116e-03 2.16914481e-03 1.98757648e-03 8.13656859e-03
      3.17756855e-03 0. 1.20978020e-01 4.33482021e-01 4.33482021e-01
      1.74666673e-01 4.33482021e-01 4.33482021e-01 4.33482021e-01
      1.04844362e-01</_>
    <_>
      4.62237805e-01 2.08993495e-01 1.02042176e-01 5.27764671e-02
      4.62237805e-01 4.62237805e-01 4.62237805e-01 1.58074666e-02
      2.89139897e-01 2.33711690e-01 4.28723663e-01 4.28723663e-01
      4.28723663e-01 4.28723663e-01 4.28723663e-01 1.37801971e-02 0.
      1.47940397e-01 9.85545758e-03 6.53254837e-02 1.81039870e-01
      5.24317957e-02 4.83799696e-01 4.83799696e-01 4.83799696e-01
      4.83799696e-01 1.37949869e-01 0. 0. 0. 4.06517851e-04
      5.04684150e-01 5.04684150e-01 4.48369384e-01 5.04684150e-01
      1.72644988e-01 4.08341974e-01 3.49479884e-01 3.42208482e-02
      1.46992346e-02 1.96676299e-01 4.08341974e-01 4.08341974e-01
      4.08341974e-01 4.08341974e-01 3.91741067e-01 3.91741067e-01
      3.91741067e-01 2.53834218e-01 3.91741067e-01 3.91741067e-01
      3.91741067e-01 6.58891127e-02 8.09127167e-02 1.55335460e-02
      7.58626983e-02 4.15560097e-01 4.15560097e-01 4.15560097e-01
      2.99006611e-01 4.00171757e-01 4.15560097e-01 2.22596332e-01
      3.12987622e-03 1.68766491e-02 1.01341836e-01 1.37481779e-01
      2.91448981e-02 1.31904585e-02 4.54354405e-01 6.15195155e-01
      6.15195155e-01 4.48477507e-01 3.83356921e-02 2.77787615e-02
      4.48477507e-01 4.48477507e-01 4.48477507e-01 1.29407048e-01
      1.09755687e-01 3.99947792e-01 2.60307401e-01 1.22329004e-01
      2.31392868e-02 5.25580682e-02 5.47943890e-01 5.47943890e-01
      5.47943890e-01 5.29170297e-02 7.05566108e-02 1.06911678e-02
      5.04963696e-01 5.04963696e-01 5.04963696e-01 4.77760807e-02
      2.40942508e-01 4.05586749e-01 7.07076415e-02 6.43961644e-03
      3.01947375e-03 3.33481640e-01 5.19500196e-01 1.52151540e-01 0.
      1.54791772e-01 5.19500196e-01 5.19500196e-01 1.63832054e-01 0.
      3.11446143e-03 3.53287458e-02 5.75324357e-01 5.75324357e-01
      5.75324357e-01 1.68954988e-03 0. 0. 0. 1.29472077e-01
      3.88416260e-01 1.64873642e-03 6.02487803e-01 6.02487803e-01
      3.16789120e-01 3.58511554e-03 0. 4.49612029e-02 5.66499889e-01
      5.66499889e-01 5.66499889e-01 6.54708296e-02 1.08053356e-01
      1.16530292e-01 3.71164270e-03 0. 1.24564758e-02 3.18235576e-01
      3.88313860e-01 1.82187587e-01 6.54870048e-02 5.83072126e-01
      5.83072126e-01 1.56630784e-01 8.34017643e-04</_>
    <_>
      4.94487196e-01 4.94487196e-01 3.57468218e-01 0. 1.67374954e-01
      4.33294177e-01 4.02575940e-01 1.32319210e-02 1.55539997e-02
      4.51092243e-01 4.58764642e-01 4.60942425e-02 3.55818472e-03
      4.58764642e-01 4.58764642e-01 3.94696146e-01 1.62928682e-02
      4.84825075e-02 5.11308134e-01 5.11308134e-01 2.13197507e-02
      1.15427398e-03 2.26525933e-01 5.11308134e-01 3.82850319e-01
      9.22968611e-02 6.10141903e-02 4.26388264e-01 4.26388264e-01
      3.63991759e-03 1.10687478e-03 1.39086530e-01 4.26388264e-01
      4.26388264e-01 4.26388264e-01 2.59511858e-01 3.96519780e-01
      3.96519780e-01 2.74338305e-01 0. 1.52077094e-01 3.96519780e-01
      3.96519780e-01 3.48019511e-01 3.84213865e-01 4.54246581e-01
      4.54246581e-01 3.79545614e-02 3.90558206e-02 4.54246581e-01
      4.01878059e-01 3.47706854e-01 1.00451253e-01 2.84570992e-01
      4.16020125e-01 4.16020125e-01 5.61182499e-02 2.61227787e-02
      2.80578911e-01 4.16020125e-01 4.16020125e-01 4.16020125e-01
      2.18916148e-01 1.55130420e-02 2.51954980e-02 2.86074192e-03
      4.56824573e-03 3.68726403e-01 4.63278770e-01 4.63278770e-01
      4.63278770e-01 4.63278770e-01 2.78908551e-01 2.97246516e-01
      1.36616573e-01 5.38893081e-02 4.32549000e-01 4.32549000e-01
      4.32549000e-01 4.32549000e-01 2.44072109e-01 4.11851734e-01
      4.11851734e-01 3.31673175e-01 3.41574758e-01 4.11851734e-01
      4.11851734e-01 2.84632385e-01 6.94610551e-02 6.98388219e-02
      3.76969390e-02 1.88884214e-01 3.14156473e-01 4.68357056e-01
      4.68357056e-01 4.68357056e-01 3.47792119e-01 2.53643632e-01
      1.27121940e-01 6.60728887e-02 2.16708574e-02 3.05016845e-01
      5.43859661e-01 8.25672373e-02 2.48364103e-03 5.02482541e-02
      5.43859661e-01 5.43859661e-01 3.68278950e-01 2.69402415e-01
      1.68720141e-01 3.68278950e-01 3.68278950e-01 2.85482645e-01
      3.68278950e-01 3.68278950e-01 3.68278950e-01 4.43848699e-01
      4.43848699e-01 1.95498932e-02 4.63373438e-02 3.95563722e-01
      4.43848699e-01 4.43848699e-01 1.56381607e-01 1.55255869e-01
      1.49848079e-02 2.62477100e-01 4.66983467e-01 4.66983467e-01
      2.25302905e-01 4.66983467e-01 4.66983467e-01 5.62198497e-02
      7.33241031e-04 5.00275791e-02 4.74612117e-01 5.14337063e-01
      5.14337063e-01 3.40303987e-01 2.19085455e-01 1.09733060e-01
      1.52383715e-01 1.97360709e-01</_>
    <_>
      1.09909680e-02 3.13920915e-01 3.49624395e-01 4.47523594e-01
      2.82064110e-01 3.06946218e-01 4.47523594e-01 4.47523594e-01
      4.15208749e-03 4.76839058e-02 3.09708089e-01 4.57360536e-01
      5.44075429e-01 5.44075429e-01 2.64178012e-02 1.56912312e-01
      8.19928944e-02 2.51230776e-01 8.62806961e-02 2.08380148e-01
      4.16184962e-01 4.16184962e-01 4.16184962e-01 1.43207908e-01
      2.48788700e-01 4.11985248e-01 4.16184962e-01 1.70229316e-01
      3.30345775e-03 9.91037395e-03 3.96939367e-01 2.80192941e-01
      2.23580152e-02 4.20324653e-02 6.02726758e-01 6.02726758e-01
      3.38320099e-02 1.06184795e-01 2.32865170e-01 3.53180664e-03
      6.87965797e-03 5.63074052e-01 5.63074052e-01 5.40799618e-01
      3.32018025e-02 2.49131098e-01 6.06386602e-01 6.06386602e-01
      3.16681772e-01 8.07884708e-02 4.48223874e-02 2.86434799e-01
      7.48442709e-02 0. 6.33636191e-02 4.40660536e-01 3.23448986e-01
      3.71545643e-01 3.50086778e-01 4.40660536e-01 4.40660536e-01
      2.09104329e-01 9.34779271e-03 6.60336316e-02 1.44989509e-02
      5.25889575e-01 5.25889575e-01 5.25889575e-01 1.67999685e-01
      2.12358788e-01 1.49538621e-01 2.54589438e-01 8.60506203e-03
      9.74786654e-03 2.92435996e-02 1.17250960e-02 6.64210096e-02
      2.28578255e-01 6.83841288e-01 6.83841288e-01 8.60506203e-03
      1.05491513e-02 3.38332474e-01 4.90951061e-01 4.90951061e-01
      4.90951061e-01 3.46885204e-01 1.91459835e-01 2.07665879e-02 0.
      4.80972650e-03 6.03147596e-02 2.56328225e-01 3.20137113e-01
      4.88796920e-01 4.88796920e-01 4.88796920e-01 3.26340228e-01 0. 0.
      0. 5.37904918e-01 5.37904918e-01 5.37904918e-01 1.10767879e-01
      3.26619059e-01 8.74843970e-02 0. 0. 2.55285486e-05 7.65856457e-05
      1.59316540e-01 5.46271384e-01 5.46271384e-01 5.46271384e-01
      2.71892935e-01 0. 0. 1.27782417e-03 3.61758083e-01 6.17528617e-01
      6.17528617e-01 2.65137881e-01 1.64268851e-01 5.47562838e-02 0. 0.
      0. 2.58679092e-02 3.28242779e-01 6.25743389e-01 6.25743389e-01
      3.03326935e-01 1.01108968e-01 0. 0. 0. 0. 0. 1.48327470e-01 0.
      8.97563457e-01 4.04256463e-01 0.</_>
    <_>
      4.89710905e-02 4.71831471e-01 2.55566508e-01 1.60068005e-01
      4.71831471e-01 4.71831471e-01 4.71831471e-01 8.05082992e-02
      7.05107972e-02 6.37408271e-02 3.75618666e-01 4.17380095e-01
      4.17380095e-01 4.17380095e-01 1.90330818e-01 8.18411931e-02
      3.33061308e-01 4.17380095e-01 4.18571293e-01 6.96475506e-02
      1.97998509e-01 1.98831975e-01 3.69571835e-01 1.31692961e-01
      2.29564905e-02 5.39153159e-01 5.39153159e-01 5.64085007e-01
      6.42106868e-03 1.92632060e-02 7.77673721e-02 1.79454014e-01
      1.22824218e-02 3.12542468e-02 5.64085007e-01 5.64085007e-01
      9.04476792e-02 3.94523263e-01 1.66159317e-01 9.65477992e-03
      6.59086183e-02 3.99823248e-01 5.64734936e-01 5.64734936e-01
      2.78487653e-02 2.46401355e-01 5.29894531e-01 5.29894531e-01
      1.11430451e-01 4.31839339e-02 2.67989814e-01 5.29894531e-01
      7.42821619e-02 3.46381776e-03 4.38311659e-02 1.72887713e-01
      1.84798747e-01 4.73223418e-01 4.73223418e-01 4.73223418e-01
      4.73223418e-01 1.60418674e-01 8.84060115e-02 1.46953672e-01
      2.28366279e-03 6.85098860e-03 6.44493937e-01 6.44493937e-01
      7.85472691e-02 4.78711762e-02 1.71571791e-01 3.21364015e-01
      2.14145705e-01 4.40622479e-01 4.40622479e-01 1.25092506e-01
      3.70889008e-01 3.83439779e-01 4.40622479e-01 2.58851022e-01
      7.69405905e-03 2.38117844e-01 4.83920813e-01 4.83920813e-01
      1.50115183e-02 0. 4.83920813e-01 4.83920813e-01 3.89751606e-02
      2.16120970e-03 1.35087536e-03 2.65133716e-02 2.11333446e-02
      8.18252414e-02 1.27858073e-01 6.86493099e-01 6.86493099e-01
      1.62501380e-01 0. 0. 0. 0. 7.04221904e-01 7.04221904e-01
      7.90083967e-03 3.07543296e-02 1.02514420e-02 0. 1.09258778e-02
      3.56917560e-01 5.15613735e-01 5.15613735e-01 5.15613735e-01
      2.49106795e-01 8.77263173e-02 4.29981388e-03 0. 9.13363136e-03
      1.14429958e-01 4.58305985e-01 3.76342922e-01 4.58305985e-01
      4.58305985e-01 4.58305985e-01 2.08122600e-02 0. 0. 0. 0. 0.
      5.93581125e-02 6.94844961e-01 6.94844961e-01 1.54665142e-01 0. 0.
      0. 0. 0. 0. 0. 0. 0. 0.</_>
    <_>
      2.88242586e-02 2.98025072e-01 3.70069981e-01 1.34275451e-01
      4.87661660e-02 5.25906920e-01 5.25906920e-01 4.40391898e-01
      2.52415631e-02 1.42876357e-02 4.82346207e-01 4.82346207e-01
      4.63290632e-01 1.64127260e-01 2.10339114e-01 4.82346207e-01
      1.04755841e-01 1.45723820e-02 5.04122041e-02 7.33649060e-02
      1.45448998e-01 4.08763140e-01 4.08763140e-01 3.63075435e-01
      4.08763140e-01 4.08245593e-01 4.08763140e-01 1.63067505e-01
      4.73560067e-03 6.89604208e-02 5.43647289e-01 2.72391886e-01
      1.23431580e-02 4.68514673e-02 5.43647289e-01 5.43647289e-01
      2.50472389e-02 4.59310919e-01 5.04113376e-01 1.02971084e-02 0.
      1.44135386e-01 5.04113376e-01 5.04113376e-01 9.97255277e-03
      5.88170849e-02 5.05733132e-01 5.05733132e-01 4.01763506e-02
      3.87260155e-03 2.63236344e-01 5.05733132e-01 3.91495943e-01 0.
      8.05928139e-04 5.30957580e-02 3.32487710e-02 4.73727286e-01
      3.13889027e-01 4.73727286e-01 4.73727286e-01 4.68576014e-01
      8.05928139e-04 4.58929986e-02 3.46580744e-02 5.32223880e-01
      5.32223880e-01 5.32223880e-01 3.14997554e-01 8.56713876e-02
      1.13145530e-01 1.49082467e-01 0. 1.78543702e-01 5.15452743e-01
      3.24356556e-01 2.32433215e-01 8.16535279e-02 5.15452743e-01
      5.15452743e-01 0. 0. 2.40962863e-01 4.39319909e-01 4.39319909e-01
      2.68856943e-01 4.39319909e-01 4.39319909e-01 3.05379272e-01 0. 0.
      1.02016180e-04 5.96699789e-02 8.91753212e-02 1.15078926e-01
      5.09199858e-01 5.95823109e-01 5.95823109e-01 0. 0. 1.01104103e-01
      5.26458263e-01 5.26458263e-01 5.26458263e-01 3.91210258e-01 0. 0.
      0. 0. 1.69072691e-02 1.90928623e-01 4.57641333e-01 4.57641333e-01
      3.47774208e-01 4.57641333e-01 4.57641333e-01 0. 0. 2.06212085e-02
      4.62455094e-01 4.62455094e-01 4.62455094e-01 4.62455094e-01
      3.66125077e-01 7.38181248e-02 0. 0. 0. 3.39196809e-02
      2.59646922e-01 4.92208481e-01 4.92208481e-01 4.92208481e-01
      4.46888506e-01 0. 0. 0. 0. 0. 0. 0. 0. 0. 0.</_>
    <_>
      1.37979572e-03 1.65953875e-01 4.20081139e-01 2.92752326e-01
      4.20081139e-01 4.20081139e-01 4.20081139e-01 4.20081139e-01
      1.47011075e-02 4.68849912e-02 4.19642143e-02 4.33015287e-01
      5.89373410e-01 5.89373410e-01 3.02702069e-01 9.05656368e-02
      4.58454601e-02 7.74536058e-02 1.15542457e-01 1.75492540e-01
      4.32815701e-01 4.32815701e-01 4.32815701e-01 2.87745863e-01
      4.32815701e-01 1.97491407e-01 2.83567637e-01 2.53589422e-01
      8.17615446e-03 2.45284606e-02 4.21559066e-01 4.21559066e-01
      3.53897989e-01 3.44313979e-01 3.92276317e-01 4.21559066e-01 0.
      2.61304080e-01 5.54903626e-01 2.60156859e-03 1.80833843e-02
      2.24187989e-02 5.54903626e-01 5.54903626e-01 3.98572683e-02 0.
      4.47092384e-01 4.47092384e-01 1.95329949e-01 3.96370023e-01
      2.44256482e-02 4.47092384e-01 4.47092384e-01 1.03947744e-02 0.
      5.12482822e-01 5.12482822e-01 6.67080060e-02 5.09769097e-02
      4.10951376e-02 5.12482822e-01 4.45228428e-01 0. 1.66723924e-03
      4.24605310e-02 1.27381608e-01 4.80828822e-01 4.80828822e-01
      2.28861675e-01 4.80828822e-01 4.80828822e-01 1.66723924e-03 0.
      1.93949208e-01 5.62169731e-01 9.30890143e-02 0. 0. 5.62169731e-01
      5.62169731e-01 0. 0. 4.98753130e-01 4.98753130e-01 0. 0. 0.
      4.98753130e-01 4.98753130e-01 0. 0. 4.98753130e-01 4.98753130e-01
      0. 0. 0. 4.98753130e-01 4.98753130e-01 0. 0. 2.49177609e-02
      7.47532919e-02 0. 1.41234193e-02 0. 7.02346265e-01 7.02346265e-01
      0. 0. 3.76147367e-02 4.11480576e-01 4.11480576e-01 3.84568900e-01
      4.11480576e-01 4.11480576e-01 4.11480576e-01 0. 0. 4.83853251e-01
      4.83853251e-01 2.93549299e-01 7.06510320e-02 1.60673901e-01
      4.83853251e-01 4.19340581e-01 0. 0. 3.43164563e-01 4.25650567e-01
      4.25650567e-01 2.56506801e-01 4.25650567e-01 4.25650567e-01
      2.95764804e-01 0. 0. 1.99661954e-04 5.98985876e-04 0.
      6.32202998e-02 5.74533403e-01 5.74533403e-01 5.74533403e-01 0.</_>
    <_>
      3.52895379e-01 2.98157722e-01 3.52895379e-01 3.52895379e-01
      3.52895379e-01 1.89288408e-01 3.52895379e-01 3.52895379e-01
      3.52895379e-01 5.11174858e-01 3.01306576e-01 2.69592460e-02
      1.91939771e-01 1.02017902e-01 6.24017976e-03 2.68692493e-01
      5.11174858e-01 5.11174858e-01 6.49819613e-01 4.07155967e-05
      1.22146797e-04 0. 6.42772838e-02 0. 3.29026356e-02 3.79166484e-01
      6.49819613e-01 6.48131967e-01 1.16228564e-02 0. 0. 5.83970593e-03
      0. 3.56225893e-02 3.89796019e-01 6.48131967e-01 4.70118336e-02
      3.39863569e-01 4.00569558e-01 4.01153862e-01 3.83469045e-01
      2.94028610e-01 4.01153862e-01 4.01153862e-01 3.93020511e-02
      1.03821240e-01 4.07138318e-01 4.07138318e-01 4.07138318e-01
      4.07138318e-01 2.62794673e-01 4.07138318e-01 2.70896018e-01
      1.17899477e-01 2.83842176e-01 5.24602598e-03 1.57380756e-02
      5.15636206e-01 5.15636206e-01 3.27934355e-01 3.38757962e-01
      1.19951703e-01 3.81524503e-01 5.09304166e-01 4.13549878e-03 0.
      5.49819827e-01 5.49819827e-01 9.93141755e-02 4.81744148e-02
      1.09431364e-01 3.26096237e-01 3.01503867e-01 3.91644865e-01
      3.91644865e-01 1.93743229e-01 2.94066310e-01 3.89628589e-01
      3.91644865e-01 3.91644865e-01 1.25769854e-01 1.36274725e-01
      4.87813532e-01 4.18075442e-01 4.55358177e-02 3.82253863e-02
      4.87813532e-01 4.87813532e-01 2.90195972e-01 1.16394404e-02 0.
      3.82500933e-03 1.14750285e-02 4.60016698e-01 4.60016698e-01
      4.60016698e-01 4.60016698e-01 3.85742754e-01 0. 0. 0. 0.
      6.95673823e-01 6.95673823e-01 1.58528209e-01 0. 0. 0.
      6.98224232e-02 4.63311106e-01 4.63311106e-01 4.63311106e-01
      4.63311106e-01 3.35799009e-01 1.37319595e-01 7.90314842e-03
      1.37172304e-02 2.98154522e-02 1.33356914e-01 1.63099170e-01
      3.95488679e-01 3.96875858e-01 5.62572539e-01 5.62572539e-01
      4.70019132e-02 1.14222465e-03 0. 0. 0. 0. 1.40794393e-04
      6.81860864e-01 6.81860864e-01 2.51644254e-01 0. 0. 0. 0. 0.
      9.95024860e-01 0. 0. 0. 0.</_>
    <_>
      8.54844227e-02 4.08863604e-01 4.08863604e-01 3.17289531e-01
      2.25920677e-01 4.08863604e-01 4.08863604e-01 4.08863604e-01
      3.23718861e-02 3.61812599e-02 4.74901497e-01 4.74901497e-01
      4.74901497e-01 2.66251773e-01 4.27768677e-01 2.43404806e-01
      6.06689453e-02 2.34636012e-02 1.23585179e-01 2.21740417e-02
      8.37772712e-02 4.27333355e-01 4.27333355e-01 4.27333355e-01
      2.44701102e-01 4.27333355e-01 4.27333355e-01 2.75063694e-01
      6.12053741e-03 3.89620401e-02 1.93495706e-01 8.25191811e-02
      1.34035235e-03 1.15185641e-01 6.55256867e-01 6.55256867e-01
      1.07625000e-01 4.49651778e-01 3.30508411e-01 9.61677507e-02
      1.45873562e-01 1.88189909e-01 4.49651778e-01 4.49651778e-01
      4.49651778e-01 7.46292695e-02 4.73117977e-01 4.73117977e-01
      8.72793496e-02 4.70838510e-02 4.73117977e-01 4.73117977e-01
      2.35379070e-01 1.70600757e-01 0. 2.21707914e-02 4.45753872e-01
      4.45753872e-01 4.45753872e-01 4.45753872e-01 4.45753872e-01
      3.96659337e-02 0. 9.93568227e-02 3.42676155e-02 5.47947764e-01
      5.47947764e-01 5.47947764e-01 1.11646138e-01 1.27837211e-01
      1.79965302e-01 1.46789238e-01 2.03457214e-02 6.67234659e-02
      1.88878506e-01 4.73472446e-01 4.73472446e-01 4.73472446e-01
      4.73472446e-01 2.15568244e-01 1.07496440e-01 1.91708785e-02
      8.89936909e-02 8.16477388e-02 4.92881924e-01 4.92881924e-01
      4.92881924e-01 4.92881924e-01 8.55476633e-02 3.27828005e-02 0.
      1.38569707e-02 2.97995150e-01 4.40001667e-01 2.66518950e-01
      5.51454365e-01 5.51454365e-01 1.80727273e-01 0. 1.14306179e-03
      2.74486258e-03 2.70888358e-01 6.41986668e-01 6.41986668e-01
      3.09360266e-01 1.42210349e-02 0. 1.14306179e-03 0. 6.52688649e-03
      9.76477414e-02 4.95062321e-01 4.95062321e-01 4.95062321e-01
      4.95062321e-01 7.16312602e-02 0. 0. 0. 0. 5.30450702e-01
      5.30450702e-01 3.80410761e-01 5.30450702e-01 7.65275955e-02 0. 0.
      0. 0. 2.19220728e-01 5.48441350e-01 4.78003621e-01 5.48441350e-01
      3.41177493e-01 0. 0. 0. 0. 7.04615593e-01 7.04615593e-01 0. 0. 0.
      0.</_>
    <_>
      9.68570076e-03 6.14940643e-01 6.14940643e-01 8.75063241e-02
      3.73043150e-01 1.04270712e-01 2.78484136e-01 4.60882373e-02
      9.68570076e-03 6.58192560e-02 1.56106174e-01 4.66950417e-01
      4.66950417e-01 4.66950417e-01 3.76880080e-01 3.98771346e-01
      8.43643919e-02 6.58192560e-02 4.98162270e-01 5.86715061e-03
      1.76014528e-02 2.86266357e-02 2.29286209e-01 2.11612824e-02
      3.17676902e-01 5.43738067e-01 5.43738067e-01 2.95534611e-01 0. 0.
      1.45951780e-02 5.57755679e-02 1.84689357e-03 2.47876823e-01
      6.48619056e-01 6.48619056e-01 2.76071757e-01 4.00330991e-01
      4.00330991e-01 1.40932620e-01 2.12282181e-01 2.39543751e-01
      4.00330991e-01 4.00330991e-01 3.95498067e-01 3.01590353e-01
      3.81241411e-01 3.81241411e-01 3.81241411e-01 2.31834948e-01
      2.29288399e-01 3.27308059e-01 3.81241411e-01 3.32269937e-01 0.
      2.53746863e-02 2.41197318e-01 3.97889018e-01 5.03147125e-01
      5.03147125e-01 5.03147125e-01 1.35528579e-01 0. 8.62833485e-02 0.
      4.60212201e-01 4.60212201e-01 4.60212201e-01 4.60212201e-01
      2.08266526e-01 2.70834982e-01 1.55083179e-01 1.32148445e-01
      1.39631510e-01 4.17248249e-01 4.17248249e-01 4.17248249e-01
      4.17248249e-01 4.17248249e-01 1.71569064e-01 2.42806599e-01
      2.78595418e-01 2.29540527e-01 3.75302762e-01 3.75302762e-01
      3.75302762e-01 3.75302762e-01 3.75302762e-01 2.25254953e-01
      3.33084911e-01 0. 5.22646308e-03 1.01865306e-01 1.55357510e-01
      7.29188174e-02 5.64065754e-01 5.64065754e-01 5.64065754e-01 0.
      6.95969444e-04 0. 3.64314258e-01 4.64450032e-01 4.64450032e-01
      4.64450032e-01 4.59559619e-01 6.55626953e-02 6.95969444e-04 0.
      2.38362718e-02 3.26933354e-01 4.89616781e-01 4.89616781e-01
      4.89616781e-01 4.10354882e-01 9.55548976e-03 0. 0. 3.65987048e-02
      4.91118342e-01 4.91118342e-01 4.91118342e-01 4.91118342e-01
      1.70103103e-01 5.60982805e-03 0. 0. 3.83438193e-03 3.39060202e-02
      1.88727424e-01 4.73951638e-01 5.70193231e-01 5.70193231e-01
      2.87494600e-01 0. 0. 0. 1.40411789e-02 1.58382609e-01
      5.01582146e-01 4.63631719e-01 5.01582146e-01 5.01582146e-01 0.</_>
    <_>
      2.84467060e-02 1.15690310e-03 1.54422596e-02 3.35616112e-01
      5.31315506e-01 5.31315506e-01 5.31315506e-01 1.16758451e-01
      1.43128276e-01 9.55799296e-02 4.96568438e-03 4.24528480e-01
      4.60989803e-01 4.60989803e-01 3.68083268e-01 1.03618838e-01
      1.49177045e-01 4.60989803e-01 4.89071339e-01 8.77406448e-02
      7.15721995e-02 7.41071478e-02 2.01138873e-02 0. 1.14458213e-02
      3.99578840e-01 7.58110046e-01 4.88304377e-01 4.87418741e-01
      6.48176745e-02 2.50451197e-03 2.22999044e-02 0. 1.93694055e-01
      4.88304377e-01 4.88304377e-01 0. 5.68188401e-03 4.09207419e-02
      1.13528147e-01 1.25826731e-01 5.65634668e-01 5.65634668e-01
      5.65634668e-01 6.40018582e-02 2.76718260e-04 9.83524397e-02
      6.11099899e-01 6.11099899e-01 1.81229174e-01 3.13160270e-01
      2.17060313e-01 2.43179306e-01 1.31969815e-02 2.91226096e-02
      1.51004851e-01 4.46176738e-01 4.46176738e-01 4.46176738e-01
      3.22811365e-01 4.46176738e-01 2.57754266e-01 7.03811422e-02
      9.69237089e-02 2.69164215e-03 8.07492621e-03 5.30756712e-01
      5.30756712e-01 3.00668955e-01 5.30756712e-01 1.83929488e-01
      1.26066461e-01 0. 6.95846276e-04 2.08753883e-03 1.34062152e-02
      7.05794767e-02 4.46040230e-03 6.99933648e-01 6.99933648e-01
      8.95152837e-02 0. 3.93904626e-01 4.77380425e-01 3.89990985e-01
      6.41348585e-02 1.04953221e-03 4.77380425e-01 4.77380425e-01
      1.36970179e-02 0. 2.46267661e-01 4.22476858e-01 4.22476858e-01
      4.08593208e-01 4.22476858e-01 4.22476858e-01 2.32887760e-01 0. 0.
      0. 0. 4.71897334e-01 4.71897334e-01 4.71897334e-01 4.71897334e-01
      3.23323727e-01 0. 0. 0. 0. 4.56153005e-01 4.56153005e-01
      4.50638384e-01 4.56153005e-01 4.10051286e-01 0. 0. 5.72455935e-02
      4.35887486e-01 4.35887486e-01 4.35887486e-01 2.05862075e-01
      4.35887486e-01 4.35887486e-01 0. 0. 2.08139829e-02 2.39455834e-01
      5.38327754e-01 5.38327754e-01 5.38327754e-01 2.59104878e-01
      1.80561170e-02 0. 0. 0. 0. 4.60019894e-03 5.54455698e-01
      5.54455698e-01 5.54455698e-01 2.68661112e-01 0.</_>
    <_>
      3.51517722e-02 1.33120894e-01 3.29074889e-01 1.10691249e-01
      2.68175900e-01 5.81622243e-01 5.81622243e-01 3.23990405e-01
      3.51517722e-02 5.42451022e-03 1.15354881e-01 4.98986721e-01
      4.98986721e-01 4.98986721e-01 4.71789449e-01 1.09498747e-01
      1.05994809e-02 5.42451022e-03 1.29131794e-01 1.56060040e-01
      3.82561475e-01 3.82561475e-01 3.82561475e-01 2.77540386e-01
      3.82561475e-01 3.82561475e-01 3.82561475e-01 4.01668936e-01 0. 0.
      4.54416752e-01 4.54416752e-01 5.48836403e-02 7.16411173e-02
      4.54416752e-01 4.54416752e-01 1.39160948e-02 8.47896095e-03
      2.54368838e-02 5.62773726e-04 3.07394844e-03 1.32278398e-01
      6.98003829e-01 6.98003829e-01 1.39160948e-02 1.63408890e-01
      6.43407762e-01 6.43407762e-01 3.00515980e-01 1.25315208e-02
      2.28182394e-02 2.10558057e-01 6.00370690e-02 0. 2.68920325e-02
      4.40577149e-01 4.84487116e-01 2.13861018e-01 1.86979458e-01
      1.24292508e-01 4.84487116e-01 4.84487116e-01 0. 1.38093485e-02 0.
      0. 5.66746116e-01 5.66746116e-01 6.05719350e-02 5.66746116e-01
      1.63361132e-01 1.38093485e-02 0. 1.54914027e-02 5.11347726e-02
      3.26953046e-02 5.28126843e-02 2.57333279e-01 6.78341687e-01
      6.78341687e-01 0. 3.99907827e-02 6.94157064e-01 6.94157064e-01 0.
      0. 0. 1.58072054e-01 5.26906848e-02 0. 9.80695616e-03
      2.75196195e-01 4.58703220e-01 0. 5.97239938e-04 3.58483456e-02
      5.94366074e-01 5.94366074e-01 0. 0. 0. 0. 1.18441187e-01
      3.13593328e-01 1.81402937e-02 6.63580060e-01 6.63580060e-01 0. 0.
      2.12726779e-02 9.61734280e-02 3.71690750e-01 4.96496201e-01
      4.96496201e-01 4.96496201e-01 3.28115731e-01 0. 0. 5.65497279e-01
      5.65497279e-01 5.56670606e-01 1.22714810e-01 5.13608605e-02
      1.62550032e-01 2.78790873e-02 0. 0. 9.05562490e-02 4.33595359e-01
      2.50786126e-01 1.20904051e-01 5.26658475e-01 5.26658475e-01
      4.07780707e-01 0. 0. 0. 0. 0. 0. 5.75688422e-01 5.75688422e-01
      5.75688422e-01 0.</_>
    <_>
      2.46280715e-01 4.30509299e-01 4.30509299e-01 0. 4.30509299e-01
      4.30509299e-01 4.30509299e-01 9.08927470e-02 9.62792058e-03
      2.24793237e-02 7.30972439e-02 1.44668847e-01 4.86663818e-01
      4.86663818e-01 4.86663818e-01 3.88211071e-01 1.56790659e-01
      2.87307411e-01 1.93142220e-01 1.75552845e-01 4.35086310e-01
      4.86068487e-01 1.68733880e-01 1.59077570e-02 1.45120816e-02
      4.86068487e-01 4.86068487e-01 5.73502660e-01 7.92629831e-03
      2.37788949e-02 0. 3.87329683e-02 0. 7.36807436e-02 5.73502660e-01
      5.73502660e-01 5.68620786e-02 2.22776398e-01 1.29657835e-01 0.
      7.23803788e-02 5.84810197e-01 5.84810197e-01 4.83266681e-01
      4.11745235e-02 1.67452648e-01 4.03186083e-01 4.03186083e-01
      3.83093506e-01 4.03186083e-01 4.01823282e-01 4.03186083e-01
      9.73304063e-02 0. 2.15032995e-01 4.42414820e-01 4.42414820e-01
      2.95588672e-01 2.69016534e-01 4.42414820e-01 4.42414820e-01
      5.47634028e-02 6.06345460e-02 2.06155062e-01 2.66849529e-03
      8.00548587e-03 4.63477612e-01 4.63477612e-01 4.63477612e-01
      4.34501946e-01 1.86237901e-01 2.91356206e-01 2.65495083e-03
      2.64379270e-02 1.33588254e-01 1.49922401e-01 3.01090926e-01
      5.92954159e-01 5.92954159e-01 3.98997039e-01 2.65495083e-03
      2.09388379e-02 5.32020271e-01 5.32020271e-01 5.32020271e-01
      1.38402432e-01 9.62585434e-02 3.34527910e-01 6.91509843e-02 0.
      1.08643286e-02 1.92844182e-01 4.37142432e-01 4.37142432e-01
      4.37142432e-01 4.37142432e-01 4.37142432e-01 5.34703210e-02 0.
      9.47543071e-04 0. 0. 4.98275995e-01 4.98275995e-01 4.98275995e-01
      4.98275995e-01 4.36549075e-02 9.47543071e-04 0. 5.78846550e-03
